digraph Tree {
node [shape=box, style="filled, rounded", color="black", fontname="helvetica"] ;
edge [fontname="helvetica"] ;
0 [label=<Продано квартир, шт &le; -0.768<br/>squared_error = 5289697750.004<br/>samples = 1124<br/>value = 91972.285>, fillcolor="#f7d9c3"] ;
1 [label=<squared_error = 0.0<br/>samples = 238<br/>value = 0.0>, fillcolor="#ffffff"] ;
0 -> 1 [labeldistance=2.5, labelangle=45, headlabel="True"] ;
2 [label=<Видеонаблюдение во дворе &le; 0.5<br/>squared_error = 3827996524.996<br/>samples = 886<br/>value = 116678.159>, fillcolor="#f5cfb3"] ;
0 -> 2 [labeldistance=2.5, labelangle=-45, headlabel="False"] ;
3 [label=<Площадь коммерческих помещений &le; -0.029<br/>squared_error = 4114291666.183<br/>samples = 211<br/>value = 67378.474>, fillcolor="#f9e3d3"] ;
2 -> 3 ;
4 [label=<Расстояние по навигатору до: Вторая речка &le; -0.607<br/>squared_error = 2156073623.685<br/>samples = 122<br/>value = 37943.132>, fillcolor="#fcefe6"] ;
3 -> 4 ;
5 [label=<Продано нежилых, руб &le; 2.468<br/>squared_error = 1057040406.794<br/>samples = 52<br/>value = 81458.544>, fillcolor="#f8ddca"] ;
4 -> 5 ;
6 [label=<Месяц_1 &le; 0.5<br/>squared_error = 546089412.638<br/>samples = 48<br/>value = 88246.756>, fillcolor="#f7dbc6"] ;
5 -> 6 ;
7 [label=<Месяц_4 &le; 0.5<br/>squared_error = 414117155.547<br/>samples = 43<br/>value = 90589.687>, fillcolor="#f7dac4"] ;
6 -> 7 ;
8 [label=<Есть площадки для собак &le; 0.5<br/>squared_error = 456604080.46<br/>samples = 34<br/>value = 93438.83>, fillcolor="#f7d8c2"] ;
7 -> 8 ;
9 [label=<Расстояние по навигатору до: В-надеждинское &le; -0.324<br/>squared_error = 97209061.928<br/>samples = 7<br/>value = 106157.674>, fillcolor="#f6d3ba"] ;
8 -> 9 ;
10 [label=<Месяц_9 &le; 0.5<br/>squared_error = 4471132.981<br/>samples = 3<br/>value = 96832.73>, fillcolor="#f7d7c0"] ;
9 -> 10 ;
11 [label=<squared_error = 0.0<br/>samples = 1<br/>value = 99764.344>, fillcolor="#f7d6be"] ;
10 -> 11 ;
12 [label=<Внутренний двор без машин &le; 0.5<br/>squared_error = 260927.5<br/>samples = 2<br/>value = 95366.923>, fillcolor="#f7d8c1"] ;
10 -> 12 ;
13 [label=<squared_error = 0.0<br/>samples = 1<br/>value = 95877.734>, fillcolor="#f7d7c1"] ;
12 -> 13 ;
14 [label=<squared_error = 0.0<br/>samples = 1<br/>value = 94856.112>, fillcolor="#f7d8c2"] ;
12 -> 14 ;
15 [label=<Количество однокомнатных квартир &le; 1.445<br/>squared_error = 52634615.8<br/>samples = 4<br/>value = 113151.383>, fillcolor="#f5d0b6"] ;
9 -> 15 ;
16 [label=<squared_error = 0.0<br/>samples = 1<br/>value = 125488.154>, fillcolor="#f4cbae"] ;
15 -> 16 ;
17 [label=<Месяц_12 &le; 0.5<br/>squared_error = 2536850.895<br/>samples = 3<br/>value = 109039.125>, fillcolor="#f6d2b8"] ;
15 -> 17 ;
18 [label=<Продано нежилых, шт &le; 1.366<br/>squared_error = 406509.286<br/>samples = 2<br/>value = 107974.737>, fillcolor="#f6d2b9"] ;
17 -> 18 ;
19 [label=<squared_error = 0.0<br/>samples = 1<br/>value = 108612.318>, fillcolor="#f6d2b9"] ;
18 -> 19 ;
20 [label=<squared_error = 0.0<br/>samples = 1<br/>value = 107337.156>, fillcolor="#f6d3b9"] ;
18 -> 20 ;
21 [label=<squared_error = 0.0<br/>samples = 1<br/>value = 111167.902>, fillcolor="#f6d1b7"] ;
17 -> 21 ;
22 [label=<Месяц_8 &le; 0.5<br/>squared_error = 496967090.926<br/>samples = 27<br/>value = 90141.352>, fillcolor="#f7dac5"] ;
8 -> 22 ;
23 [label=<Гостевых мест &le; -0.032<br/>squared_error = 214177284.522<br/>samples = 22<br/>value = 94919.829>, fillcolor="#f7d8c1"] ;
22 -> 23 ;
24 [label=<Месяц_12 &le; 0.5<br/>squared_error = 115961388.858<br/>samples = 17<br/>value = 89765.939>, fillcolor="#f7dac5"] ;
23 -> 24 ;
25 [label=<Инфраструктура: Школы &le; -0.49<br/>squared_error = 65767850.841<br/>samples = 15<br/>value = 87492.397>, fillcolor="#f8dbc6"] ;
24 -> 25 ;
26 [label=<Месяц_7 &le; 0.5<br/>squared_error = 30377306.698<br/>samples = 8<br/>value = 91461.979>, fillcolor="#f7d9c4"] ;
25 -> 26 ;
27 [label=<Месяц_2 &le; 0.5<br/>squared_error = 15809610.757<br/>samples = 7<br/>value = 89924.639>, fillcolor="#f7dac5"] ;
26 -> 27 ;
28 [label=<Месяц_5 &le; 0.5<br/>squared_error = 6096383.091<br/>samples = 5<br/>value = 88084.191>, fillcolor="#f8dbc6"] ;
27 -> 28 ;
29 [label=<Месяц_11 &le; 0.5<br/>squared_error = 1413543.409<br/>samples = 4<br/>value = 89198.367>, fillcolor="#f7dac5"] ;
28 -> 29 ;
30 [label=<Месяц_6 &le; 0.5<br/>squared_error = 201101.224<br/>samples = 3<br/>value = 88549.594>, fillcolor="#f7dac6"] ;
29 -> 30 ;
31 [label=<Месяц_9 &le; 0.5<br/>squared_error = 8945.193<br/>samples = 2<br/>value = 88861.955>, fillcolor="#f7dac5"] ;
30 -> 31 ;
32 [label=<squared_error = 0.0<br/>samples = 1<br/>value = 88767.376>, fillcolor="#f7dac5"] ;
31 -> 32 ;
33 [label=<squared_error = 0.0<br/>samples = 1<br/>value = 88956.534>, fillcolor="#f7dac5"] ;
31 -> 33 ;
34 [label=<squared_error = 0.0<br/>samples = 1<br/>value = 87924.874>, fillcolor="#f8dbc6"] ;
30 -> 34 ;
35 [label=<squared_error = 0.0<br/>samples = 1<br/>value = 91144.685>, fillcolor="#f7d9c4"] ;
29 -> 35 ;
36 [label=<squared_error = 0.0<br/>samples = 1<br/>value = 83627.489>, fillcolor="#f8ddc9"] ;
28 -> 36 ;
37 [label=<Класс недвижимости_комфорт &le; 0.5<br/>squared_error = 10454265.271<br/>samples = 2<br/>value = 94525.758>, fillcolor="#f7d8c2"] ;
27 -> 37 ;
38 [label=<squared_error = 0.0<br/>samples = 1<br/>value = 97759.064>, fillcolor="#f7d7c0"] ;
37 -> 38 ;
39 [label=<squared_error = 0.0<br/>samples = 1<br/>value = 91292.452>, fillcolor="#f7d9c4"] ;
37 -> 39 ;
40 [label=<squared_error = 0.0<br/>samples = 1<br/>value = 102223.358>, fillcolor="#f6d5bd"] ;
26 -> 40 ;
41 [label=<Месяц_10 &le; 0.5<br/>squared_error = 67624201.987<br/>samples = 7<br/>value = 82955.733>, fillcolor="#f8ddc9"] ;
25 -> 41 ;
42 [label=<Продано квартир, шт &le; 0.544<br/>squared_error = 10827992.339<br/>samples = 6<br/>value = 79837.425>, fillcolor="#f8decb"] ;
41 -> 42 ;
43 [label=<Месяц_7 &le; 0.5<br/>squared_error = 2940729.189<br/>samples = 4<br/>value = 81943.016>, fillcolor="#f8ddca"] ;
42 -> 43 ;
44 [label=<Район_заря &le; 0.5<br/>squared_error = 1190772.916<br/>samples = 3<br/>value = 81116.85>, fillcolor="#f8deca"] ;
43 -> 44 ;
45 [label=<squared_error = 0.0<br/>samples = 1<br/>value = 79678.173>, fillcolor="#f8decb"] ;
44 -> 45 ;
46 [label=<Инфраструктура: Спорт &le; 0.555<br/>squared_error = 233814.596<br/>samples = 2<br/>value = 81836.189>, fillcolor="#f8ddca"] ;
44 -> 46 ;
47 [label=<squared_error = 0.0<br/>samples = 1<br/>value = 82319.733>, fillcolor="#f8ddca"] ;
46 -> 47 ;
48 [label=<squared_error = 0.0<br/>samples = 1<br/>value = 81352.645>, fillcolor="#f8ddca"] ;
46 -> 48 ;
49 [label=<squared_error = 0.0<br/>samples = 1<br/>value = 84421.513>, fillcolor="#f8dcc8"] ;
43 -> 49 ;
50 [label=<Месяц_3 &le; 0.5<br/>squared_error = 1432.807<br/>samples = 2<br/>value = 75626.243>, fillcolor="#f9e0ce"] ;
42 -> 50 ;
51 [label=<squared_error = 0.0<br/>samples = 1<br/>value = 75588.39>, fillcolor="#f9e0ce"] ;
50 -> 51 ;
52 [label=<squared_error = -0.0<br/>samples = 1<br/>value = 75664.095>, fillcolor="#f9e0ce"] ;
50 -> 52 ;
53 [label=<squared_error = -0.0<br/>samples = 1<br/>value = 101665.58>, fillcolor="#f6d5bd"] ;
41 -> 53 ;
54 [label=<Площадь спортивных площадок &le; -0.133<br/>squared_error = 162889745.724<br/>samples = 2<br/>value = 106817.5>, fillcolor="#f6d3ba"] ;
24 -> 54 ;
55 [label=<squared_error = 0.0<br/>samples = 1<br/>value = 94054.674>, fillcolor="#f7d8c2"] ;
54 -> 55 ;
56 [label=<squared_error = 0.0<br/>samples = 1<br/>value = 119580.327>, fillcolor="#f5ceb2"] ;
54 -> 56 ;
57 [label=<Месяц_10 &le; 0.5<br/>squared_error = 150735090.565<br/>samples = 5<br/>value = 112443.055>, fillcolor="#f5d1b6"] ;
23 -> 57 ;
58 [label=<Месяц_6 &le; 0.5<br/>squared_error = 37601898.903<br/>samples = 4<br/>value = 117935.176>, fillcolor="#f5ceb3"] ;
57 -> 58 ;
59 [label=<Месяц_11 &le; 0.5<br/>squared_error = 27532896.399<br/>samples = 3<br/>value = 120312.305>, fillcolor="#f5cdb1"] ;
58 -> 59 ;
60 [label=<Месяц_3 &le; 0.5<br/>squared_error = 1202683.982<br/>samples = 2<br/>value = 123968.198>, fillcolor="#f4ccaf"] ;
59 -> 60 ;
61 [label=<squared_error = 0.0<br/>samples = 1<br/>value = 125064.868>, fillcolor="#f4cbae"] ;
60 -> 61 ;
62 [label=<squared_error = 0.0<br/>samples = 1<br/>value = 122871.529>, fillcolor="#f5ccaf"] ;
60 -> 62 ;
63 [label=<squared_error = -0.0<br/>samples = 1<br/>value = 113000.519>, fillcolor="#f5d0b6"] ;
59 -> 63 ;
64 [label=<squared_error = 0.0<br/>samples = 1<br/>value = 110803.789>, fillcolor="#f6d1b7"] ;
58 -> 64 ;
65 [label=<squared_error = 0.0<br/>samples = 1<br/>value = 90474.571>, fillcolor="#f7dac4"] ;
57 -> 65 ;
66 [label=<Уехать без пересадок: Баляева &le; 0.5<br/>squared_error = 1198710042.233<br/>samples = 5<br/>value = 69116.051>, fillcolor="#f9e2d2"] ;
22 -> 66 ;
67 [label=<Продано нежилых, руб &le; 0.924<br/>squared_error = 15401.592<br/>samples = 3<br/>value = 85034.353>, fillcolor="#f8dcc8"] ;
66 -> 67 ;
68 [label=<squared_error = 0.0<br/>samples = 2<br/>value = 85122.107>, fillcolor="#f8dcc8"] ;
67 -> 68 ;
69 [label=<squared_error = 0.0<br/>samples = 1<br/>value = 84858.844>, fillcolor="#f8dcc8"] ;
67 -> 69 ;
70 [label=<squared_error = 2046530752.163<br/>samples = 2<br/>value = 45238.598>, fillcolor="#fbece2"] ;
66 -> 70 ;
71 [label=<Расстояние до ближайшего строения &le; -0.441<br/>squared_error = 107093052.125<br/>samples = 9<br/>value = 79826.258>, fillcolor="#f8decb"] ;
7 -> 71 ;
72 [label=<Общая площадь земельного участка &le; -0.0<br/>squared_error = 149565.852<br/>samples = 2<br/>value = 63710.103>, fillcolor="#fae5d6"] ;
71 -> 72 ;
73 [label=<squared_error = 0.0<br/>samples = 1<br/>value = 64096.84>, fillcolor="#fae5d5"] ;
72 -> 73 ;
74 [label=<squared_error = 0.0<br/>samples = 1<br/>value = 63323.365>, fillcolor="#fae5d6"] ;
72 -> 74 ;
75 [label=<Продано квартир, шт &le; 2.493<br/>squared_error = 42237142.983<br/>samples = 7<br/>value = 84430.874>, fillcolor="#f8dcc8"] ;
71 -> 75 ;
76 [label=<Площадь спортивных площадок &le; -0.305<br/>squared_error = 10893406.313<br/>samples = 6<br/>value = 82089.224>, fillcolor="#f8ddca"] ;
75 -> 76 ;
77 [label=<Есть квартиры без отделки &le; 0.5<br/>squared_error = 490411.974<br/>samples = 2<br/>value = 77940.724>, fillcolor="#f8dfcc"] ;
76 -> 77 ;
78 [label=<squared_error = 0.0<br/>samples = 1<br/>value = 78641.019>, fillcolor="#f8dfcc"] ;
77 -> 78 ;
79 [label=<squared_error = 0.0<br/>samples = 1<br/>value = 77240.43>, fillcolor="#f8dfcd"] ;
77 -> 79 ;
80 [label=<Тип фасада_кирпич &le; 0.5<br/>squared_error = 3187364.475<br/>samples = 4<br/>value = 84163.474>, fillcolor="#f8dcc8"] ;
76 -> 80 ;
81 [label=<Уехать без пересадок: Баляева &le; 0.5<br/>squared_error = 695872.493<br/>samples = 3<br/>value = 83220.879>, fillcolor="#f8ddc9"] ;
80 -> 81 ;
82 [label=<Площадь детских площадок &le; -0.052<br/>squared_error = 103417.4<br/>samples = 2<br/>value = 82661.0>, fillcolor="#f8ddc9"] ;
81 -> 82 ;
83 [label=<squared_error = 0.0<br/>samples = 1<br/>value = 82339.415>, fillcolor="#f8ddca"] ;
82 -> 83 ;
84 [label=<squared_error = 0.0<br/>samples = 1<br/>value = 82982.586>, fillcolor="#f8ddc9"] ;
82 -> 84 ;
85 [label=<squared_error = -0.0<br/>samples = 1<br/>value = 84340.635>, fillcolor="#f8dcc8"] ;
81 -> 85 ;
86 [label=<squared_error = 0.0<br/>samples = 1<br/>value = 86991.262>, fillcolor="#f8dbc7"] ;
80 -> 86 ;
87 [label=<squared_error = 0.0<br/>samples = 1<br/>value = 98480.772>, fillcolor="#f7d6bf"] ;
75 -> 87 ;
88 [label=<Грузовых лифтов в доме &le; 2.149<br/>squared_error = 1227852326.397<br/>samples = 5<br/>value = 68097.555>, fillcolor="#f9e3d3"] ;
6 -> 88 ;
89 [label=<Количество квартир &le; -0.577<br/>squared_error = 112538452.614<br/>samples = 3<br/>value = 85770.662>, fillcolor="#f8dcc7"] ;
88 -> 89 ;
90 [label=<Продано квартир, шт &le; 0.22<br/>squared_error = 106259236.423<br/>samples = 2<br/>value = 90336.785>, fillcolor="#f7dac4"] ;
89 -> 90 ;
91 [label=<squared_error = 0.0<br/>samples = 1<br/>value = 100644.997>, fillcolor="#f6d5be"] ;
90 -> 91 ;
92 [label=<squared_error = 0.0<br/>samples = 1<br/>value = 80028.573>, fillcolor="#f8decb"] ;
90 -> 92 ;
93 [label=<squared_error = -0.0<br/>samples = 1<br/>value = 76638.416>, fillcolor="#f8dfcd"] ;
89 -> 93 ;
94 [label=<Продано квартир, шт &le; 0.875<br/>squared_error = 1729552952.984<br/>samples = 2<br/>value = 41587.894>, fillcolor="#fbeee4"] ;
88 -> 94 ;
95 [label=<squared_error = 0.0<br/>samples = 1<br/>value = 0.0>, fillcolor="#ffffff"] ;
94 -> 95 ;
96 [label=<squared_error = 0.0<br/>samples = 1<br/>value = 83175.789>, fillcolor="#f8ddc9"] ;
94 -> 96 ;
97 [label=<Продано нежилых, руб &le; 2.5<br/>squared_error = 0.0<br/>samples = 4<br/>value = 0.0>, fillcolor="#ffffff"] ;
5 -> 97 ;
98 [label=<squared_error = 0.0<br/>samples = 1<br/>value = 0.0>, fillcolor="#ffffff"] ;
97 -> 98 ;
99 [label=<squared_error = 0.0<br/>samples = 3<br/>value = 0.0>, fillcolor="#ffffff"] ;
97 -> 99 ;
100 [label=<Группа компаний_aura development &le; 0.5<br/>squared_error = 520877463.069<br/>samples = 70<br/>value = 5617.397>, fillcolor="#fffdfb"] ;
4 -> 100 ;
101 [label=<Расстояние по навигатору до: Баляева &le; -0.886<br/>squared_error = 271556012.111<br/>samples = 68<br/>value = 2867.647>, fillcolor="#fffefd"] ;
100 -> 101 ;
102 [label=<squared_error = 0.0<br/>samples = 1<br/>value = 100000.0>, fillcolor="#f6d6be"] ;
101 -> 102 ;
103 [label=<Общая площадь квартир &le; -1.607<br/>squared_error = 132691022.499<br/>samples = 67<br/>value = 1417.91>, fillcolor="#fffefe"] ;
101 -> 103 ;
104 [label=<Продано квартир, шт &le; -0.525<br/>squared_error = 1692187500.0<br/>samples = 4<br/>value = 23750.0>, fillcolor="#fdf5f0"] ;
103 -> 104 ;
105 [label=<squared_error = 0.0<br/>samples = 1<br/>value = 95000.0>, fillcolor="#f7d8c1"] ;
104 -> 105 ;
106 [label=<squared_error = 0.0<br/>samples = 3<br/>value = 0.0>, fillcolor="#ffffff"] ;
104 -> 106 ;
107 [label=<squared_error = 0.0<br/>samples = 63<br/>value = 0.0>, fillcolor="#ffffff"] ;
103 -> 107 ;
108 [label=<Месяц_4 &le; 0.5<br/>squared_error = 68638.76<br/>samples = 2<br/>value = 99108.893>, fillcolor="#f7d6bf"] ;
100 -> 108 ;
109 [label=<squared_error = 0.0<br/>samples = 1<br/>value = 98846.903>, fillcolor="#f7d6bf"] ;
108 -> 109 ;
110 [label=<squared_error = -0.0<br/>samples = 1<br/>value = 99370.883>, fillcolor="#f7d6bf"] ;
108 -> 110 ;
111 [label=<Есть велопарковка &le; 0.5<br/>squared_error = 3982799362.038<br/>samples = 89<br/>value = 107728.044>, fillcolor="#f6d3b9"] ;
3 -> 111 ;
112 [label=<Высота над уровнем моря &le; 0.771<br/>squared_error = 2256294145.182<br/>samples = 29<br/>value = 48146.972>, fillcolor="#fbebe0"] ;
111 -> 112 ;
113 [label=<Продано квартир, шт &le; 0.438<br/>squared_error = 139323060.734<br/>samples = 11<br/>value = 87829.285>, fillcolor="#f8dbc6"] ;
112 -> 113 ;
114 [label=<Инфраструктура: Новостройки &le; -1.016<br/>squared_error = 90511977.525<br/>samples = 7<br/>value = 81142.811>, fillcolor="#f8deca"] ;
113 -> 114 ;
115 [label=<Инфраструктура: Новостройки &le; -1.356<br/>squared_error = 41802780.653<br/>samples = 4<br/>value = 88036.31>, fillcolor="#f8dbc6"] ;
114 -> 115 ;
116 [label=<squared_error = 0.0<br/>samples = 1<br/>value = 99145.241>, fillcolor="#f7d6bf"] ;
115 -> 116 ;
117 [label=<Месяц_7 &le; 0.5<br/>squared_error = 888888.889<br/>samples = 3<br/>value = 84333.333>, fillcolor="#f8dcc8"] ;
115 -> 117 ;
118 [label=<Продано квартир, шт &le; -0.197<br/>squared_error = 0.0<br/>samples = 2<br/>value = 85000.0>, fillcolor="#f8dcc8"] ;
117 -> 118 ;
119 [label=<squared_error = 0.0<br/>samples = 1<br/>value = 85000.0>, fillcolor="#f8dcc8"] ;
118 -> 119 ;
120 [label=<squared_error = 0.0<br/>samples = 1<br/>value = 85000.0>, fillcolor="#f8dcc8"] ;
118 -> 120 ;
121 [label=<squared_error = 0.0<br/>samples = 1<br/>value = 83000.0>, fillcolor="#f8ddc9"] ;
117 -> 121 ;
122 [label=<Расстояние по навигатору до: Первая речка &le; -0.317<br/>squared_error = 7616535.835<br/>samples = 3<br/>value = 71951.478>, fillcolor="#f9e1d0"] ;
114 -> 122 ;
123 [label=<squared_error = 0.0<br/>samples = 1<br/>value = 75854.435>, fillcolor="#f9e0ce"] ;
122 -> 123 ;
124 [label=<squared_error = 0.0<br/>samples = 2<br/>value = 70000.0>, fillcolor="#f9e2d2"] ;
122 -> 124 ;
125 [label=<Месяц_3 &le; 0.5<br/>squared_error = 9580723.848<br/>samples = 4<br/>value = 99530.614>, fillcolor="#f7d6bf"] ;
113 -> 125 ;
126 [label=<Площадь особых площадок &le; -0.577<br/>squared_error = 3573364.374<br/>samples = 3<br/>value = 101047.266>, fillcolor="#f6d5be"] ;
125 -> 126 ;
127 [label=<Продано квартир, шт &le; 0.73<br/>squared_error = 80523.513<br/>samples = 2<br/>value = 99720.676>, fillcolor="#f7d6be"] ;
126 -> 127 ;
128 [label=<squared_error = 0.0<br/>samples = 1<br/>value = 100004.442>, fillcolor="#f6d6be"] ;
127 -> 128 ;
129 [label=<squared_error = -0.0<br/>samples = 1<br/>value = 99436.909>, fillcolor="#f7d6bf"] ;
127 -> 129 ;
130 [label=<squared_error = 0.0<br/>samples = 1<br/>value = 103700.446>, fillcolor="#f6d4bc"] ;
126 -> 130 ;
131 [label=<squared_error = 0.0<br/>samples = 1<br/>value = 94980.658>, fillcolor="#f7d8c1"] ;
125 -> 131 ;
132 [label=<Продано квартир, шт &le; 1.537<br/>squared_error = 1999613459.586<br/>samples = 18<br/>value = 23896.67>, fillcolor="#fdf5f0"] ;
112 -> 132 ;
133 [label=<Площадь коммерческих помещений &le; 0.144<br/>squared_error = 742068201.802<br/>samples = 15<br/>value = 7280.444>, fillcolor="#fefcfa"] ;
132 -> 133 ;
134 [label=<Продано квартир, шт &le; 1.235<br/>squared_error = 2650243577.866<br/>samples = 3<br/>value = 36402.222>, fillcolor="#fcf0e7"] ;
133 -> 134 ;
135 [label=<squared_error = 0.0<br/>samples = 1<br/>value = 109206.667>, fillcolor="#f6d2b8"] ;
134 -> 135 ;
136 [label=<squared_error = 0.0<br/>samples = 2<br/>value = 0.0>, fillcolor="#ffffff"] ;
134 -> 136 ;
137 [label=<squared_error = 0.0<br/>samples = 12<br/>value = 0.0>, fillcolor="#ffffff"] ;
133 -> 137 ;
138 [label=<Месяц_11 &le; 0.5<br/>squared_error = 4371575.531<br/>samples = 3<br/>value = 106977.796>, fillcolor="#f6d3ba"] ;
132 -> 138 ;
139 [label=<Месяц_10 &le; 0.5<br/>squared_error = 17945.295<br/>samples = 2<br/>value = 105501.379>, fillcolor="#f6d3bb"] ;
138 -> 139 ;
140 [label=<squared_error = 0.0<br/>samples = 1<br/>value = 105367.419>, fillcolor="#f6d4bb"] ;
139 -> 140 ;
141 [label=<squared_error = -0.0<br/>samples = 1<br/>value = 105635.339>, fillcolor="#f6d3bb"] ;
139 -> 141 ;
142 [label=<squared_error = -0.0<br/>samples = 1<br/>value = 109930.629>, fillcolor="#f6d2b8"] ;
138 -> 142 ;
143 [label=<Площадь детских площадок &le; -0.026<br/>squared_error = 2272192820.835<br/>samples = 60<br/>value = 136525.562>, fillcolor="#f3c7a7"] ;
111 -> 143 ;
144 [label=<squared_error = 0.0<br/>samples = 4<br/>value = 0.0>, fillcolor="#ffffff"] ;
143 -> 144 ;
145 [label=<Расстояние по навигатору до: Артем &le; 0.271<br/>squared_error = 1008020690.611<br/>samples = 56<br/>value = 146277.388>, fillcolor="#f3c3a0"] ;
143 -> 145 ;
146 [label=<Дата сбора информации_nan &le; 0.5<br/>squared_error = 221394667.529<br/>samples = 30<br/>value = 126188.367>, fillcolor="#f4cbad"] ;
145 -> 146 ;
147 [label=<Продано квартир, шт &le; 1.101<br/>squared_error = 98228340.861<br/>samples = 28<br/>value = 129207.814>, fillcolor="#f4caab"] ;
146 -> 147 ;
148 [label=<Месяц_7 &le; 0.5<br/>squared_error = 129813016.469<br/>samples = 13<br/>value = 134733.865>, fillcolor="#f4c7a8"] ;
147 -> 148 ;
149 [label=<Месяц_1 &le; 0.5<br/>squared_error = 73643915.51<br/>samples = 11<br/>value = 131973.715>, fillcolor="#f4c9a9"] ;
148 -> 149 ;
150 [label=<Количество квартир &le; 0.977<br/>squared_error = 48307532.016<br/>samples = 10<br/>value = 133697.895>, fillcolor="#f4c8a8"] ;
149 -> 150 ;
151 [label=<Месяц_8 &le; 0.5<br/>squared_error = 38159774.847<br/>samples = 8<br/>value = 135776.426>, fillcolor="#f3c7a7"] ;
150 -> 151 ;
152 [label=<Продано квартир, шт &le; 0.034<br/>squared_error = 8043112.568<br/>samples = 5<br/>value = 132568.45>, fillcolor="#f4c8a9"] ;
151 -> 152 ;
153 [label=<squared_error = 0.0<br/>samples = 1<br/>value = 127868.142>, fillcolor="#f4caac"] ;
152 -> 153 ;
154 [label=<Продано квартир, шт &le; 0.669<br/>squared_error = 3149860.582<br/>samples = 4<br/>value = 133743.527>, fillcolor="#f4c8a8"] ;
152 -> 154 ;
155 [label=<Количество этажей &le; 0.739<br/>squared_error = 323678.168<br/>samples = 2<br/>value = 132845.391>, fillcolor="#f4c8a9"] ;
154 -> 155 ;
156 [label=<squared_error = 0.0<br/>samples = 1<br/>value = 132276.464>, fillcolor="#f4c8a9"] ;
155 -> 156 ;
157 [label=<squared_error = 0.0<br/>samples = 1<br/>value = 133414.319>, fillcolor="#f4c8a9"] ;
155 -> 157 ;
158 [label=<Месяц_5 &le; 0.5<br/>squared_error = 4362748.355<br/>samples = 2<br/>value = 134641.662>, fillcolor="#f4c7a8"] ;
154 -> 158 ;
159 [label=<squared_error = 0.0<br/>samples = 1<br/>value = 132552.943>, fillcolor="#f4c8a9"] ;
158 -> 159 ;
160 [label=<squared_error = 0.0<br/>samples = 1<br/>value = 136730.382>, fillcolor="#f3c7a6"] ;
158 -> 160 ;
161 [label=<Гостевых мест &le; -0.566<br/>squared_error = 42615950.44<br/>samples = 3<br/>value = 141123.052>, fillcolor="#f3c5a4"] ;
151 -> 161 ;
162 [label=<Продано квартир, шт &le; 0.482<br/>squared_error = 15912298.39<br/>samples = 2<br/>value = 137122.568>, fillcolor="#f3c6a6"] ;
161 -> 162 ;
163 [label=<squared_error = 0.0<br/>samples = 1<br/>value = 133133.545>, fillcolor="#f4c8a9"] ;
162 -> 163 ;
164 [label=<squared_error = 0.0<br/>samples = 1<br/>value = 141111.59>, fillcolor="#f3c5a4"] ;
162 -> 164 ;
165 [label=<squared_error = -0.0<br/>samples = 1<br/>value = 149124.021>, fillcolor="#f2c29e"] ;
161 -> 165 ;
166 [label=<Месяц_8 &le; 0.5<br/>squared_error = 2492801.498<br/>samples = 2<br/>value = 125383.774>, fillcolor="#f4cbae"] ;
150 -> 166 ;
167 [label=<squared_error = 0.0<br/>samples = 1<br/>value = 126962.635>, fillcolor="#f4cbad"] ;
166 -> 167 ;
168 [label=<squared_error = -0.0<br/>samples = 1<br/>value = 123804.914>, fillcolor="#f4ccaf"] ;
166 -> 168 ;
169 [label=<squared_error = -0.0<br/>samples = 1<br/>value = 114731.912>, fillcolor="#f5d0b5"] ;
149 -> 169 ;
170 [label=<Расстояние до ближайшего строения &le; -0.028<br/>squared_error = 166384372.681<br/>samples = 2<br/>value = 149914.687>, fillcolor="#f2c19e"] ;
148 -> 170 ;
171 [label=<squared_error = 0.0<br/>samples = 1<br/>value = 137015.68>, fillcolor="#f3c6a6"] ;
170 -> 171 ;
172 [label=<squared_error = 0.0<br/>samples = 1<br/>value = 162813.693>, fillcolor="#f1bc95"] ;
170 -> 172 ;
173 [label=<Площадь коммерческих помещений &le; 0.144<br/>squared_error = 21452494.367<br/>samples = 15<br/>value = 124418.57>, fillcolor="#f4ccae"] ;
147 -> 173 ;
174 [label=<Продано квартир, шт &le; 1.677<br/>squared_error = 17079048.862<br/>samples = 14<br/>value = 123791.101>, fillcolor="#f4ccaf"] ;
173 -> 174 ;
175 [label=<Месяц_4 &le; 0.5<br/>squared_error = 8542317.541<br/>samples = 5<br/>value = 121169.752>, fillcolor="#f5cdb0"] ;
174 -> 175 ;
176 [label=<Месяц_10 &le; 0.5<br/>squared_error = 4423230.534<br/>samples = 4<br/>value = 120051.301>, fillcolor="#f5cdb1"] ;
175 -> 176 ;
177 [label=<Месяц_5 &le; 0.5<br/>squared_error = 723919.429<br/>samples = 3<br/>value = 118914.01>, fillcolor="#f5ceb2"] ;
176 -> 177 ;
178 [label=<Район_ближний пригород &le; 0.5<br/>squared_error = 782.429<br/>samples = 2<br/>value = 118312.596>, fillcolor="#f5ceb2"] ;
177 -> 178 ;
179 [label=<squared_error = 0.0<br/>samples = 1<br/>value = 118340.568>, fillcolor="#f5ceb2"] ;
178 -> 179 ;
180 [label=<squared_error = 0.0<br/>samples = 1<br/>value = 118284.624>, fillcolor="#f5ceb2"] ;
178 -> 180 ;
181 [label=<squared_error = -0.0<br/>samples = 1<br/>value = 120116.838>, fillcolor="#f5cdb1"] ;
177 -> 181 ;
182 [label=<squared_error = 0.0<br/>samples = 1<br/>value = 123463.173>, fillcolor="#f4ccaf"] ;
176 -> 182 ;
183 [label=<squared_error = 0.0<br/>samples = 1<br/>value = 125643.557>, fillcolor="#f4cbae"] ;
175 -> 183 ;
184 [label=<Месяц_3 &le; 0.5<br/>squared_error = 15883371.394<br/>samples = 9<br/>value = 125247.405>, fillcolor="#f4cbae"] ;
174 -> 184 ;
185 [label=<Месяц_2 &le; 0.5<br/>squared_error = 1346741.353<br/>samples = 5<br/>value = 127079.797>, fillcolor="#f4cbad"] ;
184 -> 185 ;
186 [label=<Месяц_4 &le; 0.5<br/>squared_error = 696470.538<br/>samples = 4<br/>value = 127524.084>, fillcolor="#f4caac"] ;
185 -> 186 ;
187 [label=<Месяц_6 &le; 0.5<br/>squared_error = 25849.114<br/>samples = 2<br/>value = 128338.529>, fillcolor="#f4caac"] ;
186 -> 187 ;
188 [label=<squared_error = 0.0<br/>samples = 1<br/>value = 128499.306>, fillcolor="#f4caac"] ;
187 -> 188 ;
189 [label=<squared_error = -0.0<br/>samples = 1<br/>value = 128177.753>, fillcolor="#f4caac"] ;
187 -> 189 ;
190 [label=<Расстояние по навигатору до: Третья рабочая &le; -0.192<br/>squared_error = 40448.977<br/>samples = 2<br/>value = 126709.638>, fillcolor="#f4cbad"] ;
186 -> 190 ;
191 [label=<squared_error = 0.0<br/>samples = 1<br/>value = 126910.758>, fillcolor="#f4cbad"] ;
190 -> 191 ;
192 [label=<squared_error = -0.0<br/>samples = 1<br/>value = 126508.519>, fillcolor="#f4cbad"] ;
190 -> 192 ;
193 [label=<squared_error = 0.0<br/>samples = 1<br/>value = 125302.647>, fillcolor="#f4cbae"] ;
185 -> 193 ;
194 [label=<Продано квартир, шт &le; 1.89<br/>squared_error = 24610748.926<br/>samples = 4<br/>value = 122956.917>, fillcolor="#f5ccaf"] ;
184 -> 194 ;
195 [label=<Тип дома_монолитный каркас &le; 0.5<br/>squared_error = 18514779.064<br/>samples = 2<br/>value = 119194.676>, fillcolor="#f5ceb2"] ;
194 -> 195 ;
196 [label=<squared_error = 0.0<br/>samples = 1<br/>value = 114891.796>, fillcolor="#f5d0b5"] ;
195 -> 196 ;
197 [label=<squared_error = -0.0<br/>samples = 1<br/>value = 123497.556>, fillcolor="#f4ccaf"] ;
195 -> 197 ;
198 [label=<Группа компаний_сзпасификбэй &le; 0.5<br/>squared_error = 2397808.148<br/>samples = 2<br/>value = 126719.157>, fillcolor="#f4cbad"] ;
194 -> 198 ;
199 [label=<squared_error = 0.0<br/>samples = 1<br/>value = 128267.643>, fillcolor="#f4caac"] ;
198 -> 199 ;
200 [label=<squared_error = 0.0<br/>samples = 1<br/>value = 125170.672>, fillcolor="#f4cbae"] ;
198 -> 200 ;
201 [label=<squared_error = 0.0<br/>samples = 1<br/>value = 133203.141>, fillcolor="#f4c8a9"] ;
173 -> 201 ;
202 [label=<Месяц_4 &le; 0.5<br/>squared_error = 31140274.613<br/>samples = 2<br/>value = 83916.105>, fillcolor="#f8dcc9"] ;
146 -> 202 ;
203 [label=<squared_error = 0.0<br/>samples = 1<br/>value = 89496.452>, fillcolor="#f7dac5"] ;
202 -> 203 ;
204 [label=<squared_error = -0.0<br/>samples = 1<br/>value = 78335.758>, fillcolor="#f8dfcc"] ;
202 -> 204 ;
205 [label=<Продано квартир, шт &le; 0.251<br/>squared_error = 912714102.279<br/>samples = 26<br/>value = 169457.028>, fillcolor="#f1b991"] ;
145 -> 205 ;
206 [label=<Парковочных мест внутри дома &le; 0.4<br/>squared_error = 1105960495.676<br/>samples = 16<br/>value = 180290.318>, fillcolor="#f0b58a"] ;
205 -> 206 ;
207 [label=<Продано квартир, шт &le; -0.229<br/>squared_error = 777085763.119<br/>samples = 8<br/>value = 199388.125>, fillcolor="#eead7e"] ;
206 -> 207 ;
208 [label=<Месяц_4 &le; 0.5<br/>squared_error = 194211470.072<br/>samples = 4<br/>value = 219795.948>, fillcolor="#eca471"] ;
207 -> 208 ;
209 [label=<Количество двухкомнатных квартир &le; -0.721<br/>squared_error = 111665291.032<br/>samples = 3<br/>value = 213727.931>, fillcolor="#eda775"] ;
208 -> 209 ;
210 [label=<Месяц_7 &le; 0.5<br/>squared_error = 18631111.884<br/>samples = 2<br/>value = 206683.623>, fillcolor="#edaa79"] ;
209 -> 210 ;
211 [label=<squared_error = 0.0<br/>samples = 1<br/>value = 202367.246>, fillcolor="#eeac7c"] ;
210 -> 211 ;
212 [label=<squared_error = -0.0<br/>samples = 1<br/>value = 211000.0>, fillcolor="#eda876"] ;
210 -> 212 ;
213 [label=<squared_error = -0.0<br/>samples = 1<br/>value = 227816.547>, fillcolor="#eca16b"] ;
209 -> 213 ;
214 [label=<squared_error = 0.0<br/>samples = 1<br/>value = 238000.0>, fillcolor="#eb9d65"] ;
208 -> 214 ;
215 [label=<Площадь коммерческих помещений &le; 0.359<br/>squared_error = 527001564.798<br/>samples = 4<br/>value = 178980.302>, fillcolor="#f0b58b"] ;
207 -> 215 ;
216 [label=<squared_error = 0.0<br/>samples = 1<br/>value = 218602.573>, fillcolor="#eca571"] ;
215 -> 216 ;
217 [label=<Месяц_9 &le; 0.5<br/>squared_error = 4924577.228<br/>samples = 3<br/>value = 165772.878>, fillcolor="#f1bb94"] ;
215 -> 217 ;
218 [label=<Месяц_10 &le; 0.5<br/>squared_error = 524970.64<br/>samples = 2<br/>value = 164260.496>, fillcolor="#f1bb95"] ;
217 -> 218 ;
219 [label=<squared_error = 0.0<br/>samples = 1<br/>value = 163535.948>, fillcolor="#f1bc95"] ;
218 -> 219 ;
220 [label=<squared_error = 0.0<br/>samples = 1<br/>value = 164985.045>, fillcolor="#f1bb94"] ;
218 -> 220 ;
221 [label=<squared_error = 0.0<br/>samples = 1<br/>value = 168797.641>, fillcolor="#f1b992"] ;
217 -> 221 ;
222 [label=<Месяц_1 &le; 0.5<br/>squared_error = 705382796.898<br/>samples = 8<br/>value = 161192.512>, fillcolor="#f1bd97"] ;
206 -> 222 ;
223 [label=<Месяц_7 &le; 0.5<br/>squared_error = 529119436.42<br/>samples = 7<br/>value = 167077.156>, fillcolor="#f1ba93"] ;
222 -> 223 ;
224 [label=<Продано квартир, шт &le; -0.56<br/>squared_error = 406545024.999<br/>samples = 6<br/>value = 161590.016>, fillcolor="#f1bc96"] ;
223 -> 224 ;
225 [label=<Месяц_4 &le; 0.5<br/>squared_error = 25000000.0<br/>samples = 2<br/>value = 145000.0>, fillcolor="#f3c3a1"] ;
224 -> 225 ;
226 [label=<squared_error = 0.0<br/>samples = 1<br/>value = 150000.0>, fillcolor="#f2c19e"] ;
225 -> 226 ;
227 [label=<squared_error = 0.0<br/>samples = 1<br/>value = 140000.0>, fillcolor="#f3c5a4"] ;
225 -> 227 ;
228 [label=<Месяц_4 &le; 0.5<br/>squared_error = 390896070.241<br/>samples = 4<br/>value = 169885.024>, fillcolor="#f1b991"] ;
224 -> 228 ;
229 [label=<Месяц_3 &le; 0.5<br/>squared_error = 90909536.49<br/>samples = 3<br/>value = 159513.365>, fillcolor="#f1bd98"] ;
228 -> 229 ;
230 [label=<Месяц_5 &le; 0.5<br/>squared_error = 307339.101<br/>samples = 2<br/>value = 152778.952>, fillcolor="#f2c09c"] ;
229 -> 230 ;
231 [label=<squared_error = 0.0<br/>samples = 1<br/>value = 153333.333>, fillcolor="#f2c09c"] ;
230 -> 231 ;
232 [label=<squared_error = 0.0<br/>samples = 1<br/>value = 152224.57>, fillcolor="#f2c09c"] ;
230 -> 232 ;
233 [label=<squared_error = -0.0<br/>samples = 1<br/>value = 172982.191>, fillcolor="#f0b88f"] ;
229 -> 233 ;
234 [label=<squared_error = 0.0<br/>samples = 1<br/>value = 201000.0>, fillcolor="#eeac7d"] ;
228 -> 234 ;
235 [label=<squared_error = 0.0<br/>samples = 1<br/>value = 200000.0>, fillcolor="#eead7d"] ;
223 -> 235 ;
236 [label=<squared_error = 0.0<br/>samples = 1<br/>value = 120000.0>, fillcolor="#f5ceb1"] ;
222 -> 236 ;
237 [label=<Общая площадь квартир &le; -0.809<br/>squared_error = 115301534.753<br/>samples = 10<br/>value = 152123.764>, fillcolor="#f2c09c"] ;
205 -> 237 ;
238 [label=<Продано квартир, шт &le; 1.574<br/>squared_error = 58142066.272<br/>samples = 4<br/>value = 158865.637>, fillcolor="#f1bd98"] ;
237 -> 238 ;
239 [label=<Месяц_10 &le; 0.5<br/>squared_error = 9981224.57<br/>samples = 3<br/>value = 162974.82>, fillcolor="#f1bc95"] ;
238 -> 239 ;
240 [label=<Продано квартир, шт &le; 0.931<br/>squared_error = 960446.494<br/>samples = 2<br/>value = 165135.945>, fillcolor="#f1bb94"] ;
239 -> 240 ;
241 [label=<squared_error = 0.0<br/>samples = 1<br/>value = 164155.922>, fillcolor="#f1bb95"] ;
240 -> 241 ;
242 [label=<squared_error = -0.0<br/>samples = 1<br/>value = 166115.969>, fillcolor="#f1ba93"] ;
240 -> 242 ;
243 [label=<squared_error = 0.0<br/>samples = 1<br/>value = 158652.569>, fillcolor="#f1be98"] ;
239 -> 243 ;
244 [label=<squared_error = 0.0<br/>samples = 1<br/>value = 146538.089>, fillcolor="#f3c3a0"] ;
238 -> 244 ;
245 [label=<Месяц_12 &le; 0.5<br/>squared_error = 102904671.569<br/>samples = 6<br/>value = 147629.181>, fillcolor="#f2c29f"] ;
237 -> 245 ;
246 [label=<Продано квартир, шт &le; 0.514<br/>squared_error = 10373346.453<br/>samples = 4<br/>value = 142796.925>, fillcolor="#f3c4a2"] ;
245 -> 246 ;
247 [label=<squared_error = 0.0<br/>samples = 1<br/>value = 137548.062>, fillcolor="#f3c6a6"] ;
246 -> 247 ;
248 [label=<Продано квартир, шт &le; 0.807<br/>squared_error = 1586436.323<br/>samples = 3<br/>value = 144546.546>, fillcolor="#f3c3a1"] ;
246 -> 248 ;
249 [label=<squared_error = 0.0<br/>samples = 1<br/>value = 142981.152>, fillcolor="#f3c4a2"] ;
248 -> 249 ;
250 [label=<Район_первая речка &le; 0.5<br/>squared_error = 541810.499<br/>samples = 2<br/>value = 145329.243>, fillcolor="#f3c3a1"] ;
248 -> 250 ;
251 [label=<squared_error = 0.0<br/>samples = 1<br/>value = 144593.165>, fillcolor="#f3c3a1"] ;
250 -> 251 ;
252 [label=<squared_error = 0.0<br/>samples = 1<br/>value = 146065.321>, fillcolor="#f3c3a0"] ;
250 -> 252 ;
253 [label=<Гостевых мест &le; -0.129<br/>squared_error = 147863101.641<br/>samples = 2<br/>value = 157293.695>, fillcolor="#f2be99"] ;
245 -> 253 ;
254 [label=<squared_error = 0.0<br/>samples = 1<br/>value = 145133.797>, fillcolor="#f3c3a1"] ;
253 -> 254 ;
255 [label=<squared_error = -0.0<br/>samples = 1<br/>value = 169453.592>, fillcolor="#f1b991"] ;
253 -> 255 ;
256 [label=<Гостевых мест &le; 0.267<br/>squared_error = 2741269148.391<br/>samples = 675<br/>value = 132088.875>, fillcolor="#f4c9a9"] ;
2 -> 256 ;
257 [label=<Долгота &le; -0.502<br/>squared_error = 1787176256.976<br/>samples = 446<br/>value = 148378.503>, fillcolor="#f2c29f"] ;
256 -> 257 ;
258 [label=<Есть велопарковка &le; 0.5<br/>squared_error = 3713639298.224<br/>samples = 37<br/>value = 207406.456>, fillcolor="#eda979"] ;
257 -> 258 ;
259 [label=<squared_error = 0.0<br/>samples = 1<br/>value = 0.0>, fillcolor="#ffffff"] ;
258 -> 259 ;
260 [label=<Продано квартир, шт &le; -0.229<br/>squared_error = 2588674649.952<br/>samples = 36<br/>value = 213167.746>, fillcolor="#eda775"] ;
258 -> 260 ;
261 [label=<Месяц_11 &le; 0.5<br/>squared_error = 376371091.702<br/>samples = 5<br/>value = 262789.715>, fillcolor="#e99355"] ;
260 -> 261 ;
262 [label=<Продано квартир, шт &le; -0.56<br/>squared_error = 163482693.219<br/>samples = 4<br/>value = 270625.29>, fillcolor="#e88f50"] ;
261 -> 262 ;
263 [label=<Месяц_5 &le; 0.5<br/>squared_error = 43875144.519<br/>samples = 3<br/>value = 277222.672>, fillcolor="#e78d4b"] ;
262 -> 263 ;
264 [label=<Есть площадки для собак &le; 0.5<br/>squared_error = 8031600.762<br/>samples = 2<br/>value = 272834.008>, fillcolor="#e88e4e"] ;
263 -> 264 ;
265 [label=<squared_error = 0.0<br/>samples = 1<br/>value = 275668.016>, fillcolor="#e88d4c"] ;
264 -> 265 ;
266 [label=<squared_error = 0.0<br/>samples = 1<br/>value = 270000.0>, fillcolor="#e89050"] ;
264 -> 266 ;
267 [label=<squared_error = 0.0<br/>samples = 1<br/>value = 286000.0>, fillcolor="#e78946"] ;
263 -> 267 ;
268 [label=<squared_error = -0.0<br/>samples = 1<br/>value = 250833.145>, fillcolor="#ea985c"] ;
262 -> 268 ;
269 [label=<squared_error = 0.0<br/>samples = 1<br/>value = 231447.416>, fillcolor="#eba069"] ;
261 -> 269 ;
270 [label=<Продано нежилых, руб &le; 2.23<br/>squared_error = 2484289509.431<br/>samples = 31<br/>value = 205164.203>, fillcolor="#eeaa7a"] ;
260 -> 270 ;
271 [label=<Месяц_8 &le; 0.5<br/>squared_error = 1219158953.176<br/>samples = 26<br/>value = 215048.845>, fillcolor="#eda674"] ;
270 -> 271 ;
272 [label=<Продано квартир, шт &le; 1.87<br/>squared_error = 887762942.952<br/>samples = 23<br/>value = 209723.037>, fillcolor="#eda977"] ;
271 -> 272 ;
273 [label=<Инфраструктура: Медицина &le; 1.88<br/>squared_error = 750965650.073<br/>samples = 22<br/>value = 212498.317>, fillcolor="#eda775"] ;
272 -> 273 ;
274 [label=<Месяц_5 &le; 0.5<br/>squared_error = 685868415.889<br/>samples = 8<br/>value = 197636.722>, fillcolor="#eeae7f"] ;
273 -> 274 ;
275 [label=<Месяц_12 &le; 0.5<br/>squared_error = 463985817.362<br/>samples = 7<br/>value = 203959.931>, fillcolor="#eeab7b"] ;
274 -> 275 ;
276 [label=<Месяц_4 &le; 0.5<br/>squared_error = 276204821.409<br/>samples = 6<br/>value = 210114.046>, fillcolor="#eda877"] ;
275 -> 276 ;
277 [label=<Месяц_1 &le; 0.5<br/>squared_error = 144083348.362<br/>samples = 5<br/>value = 204525.927>, fillcolor="#eeab7a"] ;
276 -> 277 ;
278 [label=<Месяц_2 &le; 0.5<br/>squared_error = 39296018.954<br/>samples = 4<br/>value = 209832.681>, fillcolor="#eda877"] ;
277 -> 278 ;
279 [label=<Продано нежилых, шт &le; 1.366<br/>squared_error = 8170950.457<br/>samples = 2<br/>value = 215513.515>, fillcolor="#eda673"] ;
278 -> 279 ;
280 [label=<squared_error = 0.0<br/>samples = 1<br/>value = 218372.002>, fillcolor="#eca571"] ;
279 -> 280 ;
281 [label=<squared_error = -0.0<br/>samples = 1<br/>value = 212655.027>, fillcolor="#eda775"] ;
279 -> 281 ;
282 [label=<Инфраструктура: Спорт &le; 1.38<br/>squared_error = 5877342.787<br/>samples = 2<br/>value = 204151.847>, fillcolor="#eeab7b"] ;
278 -> 282 ;
283 [label=<squared_error = 0.0<br/>samples = 1<br/>value = 201727.524>, fillcolor="#eeac7c"] ;
282 -> 283 ;
284 [label=<squared_error = -0.0<br/>samples = 1<br/>value = 206576.17>, fillcolor="#edaa79"] ;
282 -> 284 ;
285 [label=<squared_error = 0.0<br/>samples = 1<br/>value = 183298.913>, fillcolor="#efb388"] ;
277 -> 285 ;
286 [label=<squared_error = -0.0<br/>samples = 1<br/>value = 238054.641>, fillcolor="#eb9d65"] ;
276 -> 286 ;
287 [label=<squared_error = 0.0<br/>samples = 1<br/>value = 167035.238>, fillcolor="#f1ba93"] ;
275 -> 287 ;
288 [label=<squared_error = 0.0<br/>samples = 1<br/>value = 153374.257>, fillcolor="#f2c09c"] ;
274 -> 288 ;
289 [label=<Продано квартир, шт &le; 0.875<br/>squared_error = 589834489.995<br/>samples = 14<br/>value = 220990.658>, fillcolor="#eca470"] ;
273 -> 289 ;
290 [label=<Продано квартир, шт &le; 0.034<br/>squared_error = 574530255.505<br/>samples = 11<br/>value = 227005.577>, fillcolor="#eca16c"] ;
289 -> 290 ;
291 [label=<Парковочных мест у дома &le; -0.56<br/>squared_error = 378345547.293<br/>samples = 6<br/>value = 217815.253>, fillcolor="#eca572"] ;
290 -> 291 ;
292 [label=<Месяц_6 &le; 0.5<br/>squared_error = 297090759.381<br/>samples = 5<br/>value = 212701.157>, fillcolor="#eda775"] ;
291 -> 292 ;
293 [label=<Месяц_4 &le; 0.5<br/>squared_error = 128721129.59<br/>samples = 4<br/>value = 205734.919>, fillcolor="#edaa7a"] ;
292 -> 293 ;
294 [label=<Месяц_12 &le; 0.5<br/>squared_error = 40217524.16<br/>samples = 3<br/>value = 200003.195>, fillcolor="#eead7d"] ;
293 -> 294 ;
295 [label=<Месяц_5 &le; 0.5<br/>squared_error = 10645.782<br/>samples = 2<br/>value = 195519.312>, fillcolor="#eeae80"] ;
294 -> 295 ;
296 [label=<squared_error = 0.0<br/>samples = 1<br/>value = 195416.133>, fillcolor="#eeae80"] ;
295 -> 296 ;
297 [label=<squared_error = 0.0<br/>samples = 1<br/>value = 195622.49>, fillcolor="#eeae80"] ;
295 -> 297 ;
298 [label=<squared_error = -0.0<br/>samples = 1<br/>value = 208970.963>, fillcolor="#eda978"] ;
294 -> 298 ;
299 [label=<squared_error = -0.0<br/>samples = 1<br/>value = 222930.092>, fillcolor="#eca36f"] ;
293 -> 299 ;
300 [label=<squared_error = -0.0<br/>samples = 1<br/>value = 240566.107>, fillcolor="#eb9c63"] ;
292 -> 300 ;
301 [label=<squared_error = -0.0<br/>samples = 1<br/>value = 243385.736>, fillcolor="#ea9b61"] ;
291 -> 301 ;
302 [label=<Месяц_5 &le; 0.5<br/>squared_error = 586972089.143<br/>samples = 5<br/>value = 238033.966>, fillcolor="#eb9d65"] ;
290 -> 302 ;
303 [label=<Месяц_10 &le; 0.5<br/>squared_error = 219985742.743<br/>samples = 4<br/>value = 227897.602>, fillcolor="#eca16b"] ;
302 -> 303 ;
304 [label=<Расстояние по навигатору до: Баляева &le; -0.321<br/>squared_error = 113939938.123<br/>samples = 3<br/>value = 234594.138>, fillcolor="#eb9e67"] ;
303 -> 304 ;
305 [label=<Месяц_1 &le; 0.5<br/>squared_error = 107802997.111<br/>samples = 2<br/>value = 230007.676>, fillcolor="#eba06a"] ;
304 -> 305 ;
306 [label=<squared_error = 0.0<br/>samples = 1<br/>value = 219624.853>, fillcolor="#eca471"] ;
305 -> 306 ;
307 [label=<squared_error = -0.0<br/>samples = 1<br/>value = 240390.498>, fillcolor="#eb9c63"] ;
305 -> 307 ;
308 [label=<squared_error = 0.0<br/>samples = 1<br/>value = 243767.063>, fillcolor="#ea9a61"] ;
304 -> 308 ;
309 [label=<squared_error = -0.0<br/>samples = 1<br/>value = 207807.993>, fillcolor="#eda978"] ;
303 -> 309 ;
310 [label=<squared_error = 0.0<br/>samples = 1<br/>value = 278579.422>, fillcolor="#e78c4a"] ;
302 -> 310 ;
311 [label=<Есть магистральные дороги 100м &le; 0.5<br/>squared_error = 26882774.618<br/>samples = 3<br/>value = 198935.954>, fillcolor="#eead7e"] ;
289 -> 311 ;
312 [label=<Месяц_7 &le; 0.5<br/>squared_error = 1422860.948<br/>samples = 2<br/>value = 195334.968>, fillcolor="#eeae80"] ;
311 -> 312 ;
313 [label=<squared_error = 0.0<br/>samples = 1<br/>value = 194142.13>, fillcolor="#eeaf81"] ;
312 -> 313 ;
314 [label=<squared_error = 0.0<br/>samples = 1<br/>value = 196527.805>, fillcolor="#eeae80"] ;
312 -> 314 ;
315 [label=<squared_error = 0.0<br/>samples = 1<br/>value = 206137.926>, fillcolor="#edaa79"] ;
311 -> 315 ;
316 [label=<squared_error = 0.0<br/>samples = 1<br/>value = 148666.871>, fillcolor="#f2c29f"] ;
272 -> 316 ;
317 [label=<Продано квартир, шт &le; 0.338<br/>squared_error = 1875216568.61<br/>samples = 3<br/>value = 255880.035>, fillcolor="#e99559"] ;
271 -> 317 ;
318 [label=<Продано квартир, шт &le; 0.034<br/>squared_error = 962356923.033<br/>samples = 2<br/>value = 231044.12>, fillcolor="#eba069"] ;
317 -> 318 ;
319 [label=<squared_error = 0.0<br/>samples = 1<br/>value = 262065.998>, fillcolor="#e99355"] ;
318 -> 319 ;
320 [label=<squared_error = -0.0<br/>samples = 1<br/>value = 200022.242>, fillcolor="#eead7d"] ;
318 -> 320 ;
321 [label=<squared_error = 0.0<br/>samples = 1<br/>value = 305551.863>, fillcolor="#e58139"] ;
317 -> 321 ;
322 [label=<Продано нежилых, руб &le; 2.255<br/>squared_error = 5912922226.235<br/>samples = 5<br/>value = 153764.064>, fillcolor="#f2c09b"] ;
270 -> 322 ;
323 [label=<squared_error = 0.0<br/>samples = 1<br/>value = 0.0>, fillcolor="#ffffff"] ;
322 -> 323 ;
324 [label=<Самая низкая точка 250м &le; -1.216<br/>squared_error = 2594198.295<br/>samples = 4<br/>value = 192205.08>, fillcolor="#efb082"] ;
322 -> 324 ;
325 [label=<squared_error = 0.0<br/>samples = 1<br/>value = 190421.285>, fillcolor="#efb084"] ;
324 -> 325 ;
326 [label=<Месяц_7 &le; 0.5<br/>squared_error = 2044742.075<br/>samples = 3<br/>value = 192799.679>, fillcolor="#efaf82"] ;
324 -> 326 ;
327 [label=<Месяц_8 &le; 0.5<br/>squared_error = 7670.267<br/>samples = 2<br/>value = 193809.537>, fillcolor="#efaf81"] ;
326 -> 327 ;
328 [label=<squared_error = 0.0<br/>samples = 1<br/>value = 193897.117>, fillcolor="#efaf81"] ;
327 -> 328 ;
329 [label=<squared_error = 0.0<br/>samples = 1<br/>value = 193721.957>, fillcolor="#efaf81"] ;
327 -> 329 ;
330 [label=<squared_error = 0.0<br/>samples = 1<br/>value = 190779.962>, fillcolor="#efb083"] ;
326 -> 330 ;
331 [label=<Есть велопарковка &le; 0.5<br/>squared_error = 1269179169.738<br/>samples = 409<br/>value = 143038.566>, fillcolor="#f3c4a2"] ;
257 -> 331 ;
332 [label=<Количество квартир на этаже &le; -0.394<br/>squared_error = 1756223502.64<br/>samples = 159<br/>value = 128946.069>, fillcolor="#f4caab"] ;
331 -> 332 ;
333 [label=<squared_error = 0.0<br/>samples = 7<br/>value = 0.0>, fillcolor="#ffffff"] ;
332 -> 333 ;
334 [label=<Вспомогательный материал фасада_пластик &le; 0.5<br/>squared_error = 1036117555.324<br/>samples = 152<br/>value = 134884.374>, fillcolor="#f4c7a8"] ;
332 -> 334 ;
335 [label=<Группа компаний_девелопмент-юг &le; 0.5<br/>squared_error = 661683699.93<br/>samples = 142<br/>value = 138231.895>, fillcolor="#f3c6a5"] ;
334 -> 335 ;
336 [label=<Есть скверы 500м &le; 0.5<br/>squared_error = 529897238.095<br/>samples = 141<br/>value = 139212.263>, fillcolor="#f3c6a5"] ;
335 -> 336 ;
337 [label=<Количество домов 250м &le; 0.319<br/>squared_error = 504318388.42<br/>samples = 115<br/>value = 135126.906>, fillcolor="#f4c7a7"] ;
336 -> 337 ;
338 [label=<Есть квартиры с черновой отделкой &le; 0.5<br/>squared_error = 530083105.752<br/>samples = 78<br/>value = 130001.19>, fillcolor="#f4c9ab"] ;
337 -> 338 ;
339 [label=<squared_error = 0.0<br/>samples = 1<br/>value = 0.0>, fillcolor="#ffffff"] ;
338 -> 339 ;
340 [label=<Гостевых мест &le; -0.695<br/>squared_error = 314632315.154<br/>samples = 77<br/>value = 131689.517>, fillcolor="#f4c9aa"] ;
338 -> 340 ;
341 [label=<Продано квартир, шт &le; -0.229<br/>squared_error = 214847094.49<br/>samples = 25<br/>value = 141332.886>, fillcolor="#f3c5a3"] ;
340 -> 341 ;
342 [label=<Есть квартиры под ключ &le; 0.5<br/>squared_error = 25000000.0<br/>samples = 2<br/>value = 115000.0>, fillcolor="#f5d0b4"] ;
341 -> 342 ;
343 [label=<squared_error = 0.0<br/>samples = 1<br/>value = 110000.0>, fillcolor="#f6d2b8"] ;
342 -> 343 ;
344 [label=<squared_error = 0.0<br/>samples = 1<br/>value = 120000.0>, fillcolor="#f5ceb1"] ;
342 -> 344 ;
345 [label=<Район_нейбута &le; 0.5<br/>squared_error = 165814811.484<br/>samples = 23<br/>value = 143622.702>, fillcolor="#f3c4a2"] ;
341 -> 345 ;
346 [label=<Месяц_5 &le; 0.5<br/>squared_error = 65529803.046<br/>samples = 11<br/>value = 138524.555>, fillcolor="#f3c6a5"] ;
345 -> 346 ;
347 [label=<Месяц_2 &le; 0.5<br/>squared_error = 51458270.429<br/>samples = 10<br/>value = 137155.265>, fillcolor="#f3c6a6"] ;
346 -> 347 ;
348 [label=<Месяц_11 &le; 0.5<br/>squared_error = 35136804.72<br/>samples = 9<br/>value = 135670.71>, fillcolor="#f3c7a7"] ;
347 -> 348 ;
349 [label=<Продано квартир, шт &le; 0.251<br/>squared_error = 31875947.528<br/>samples = 8<br/>value = 136592.842>, fillcolor="#f3c7a6"] ;
348 -> 349 ;
350 [label=<Месяц_4 &le; 0.5<br/>squared_error = 34289070.078<br/>samples = 5<br/>value = 139049.739>, fillcolor="#f3c6a5"] ;
349 -> 350 ;
351 [label=<Месяц_8 &le; 0.5<br/>squared_error = 14465418.379<br/>samples = 4<br/>value = 136666.635>, fillcolor="#f3c7a6"] ;
350 -> 351 ;
352 [label=<Месяц_10 &le; 0.5<br/>squared_error = 7613468.135<br/>samples = 3<br/>value = 134958.291>, fillcolor="#f4c7a8"] ;
351 -> 352 ;
353 [label=<Месяц_6 &le; 0.5<br/>squared_error = 2197181.086<br/>samples = 2<br/>value = 133204.911>, fillcolor="#f4c8a9"] ;
352 -> 353 ;
354 [label=<squared_error = 0.0<br/>samples = 1<br/>value = 134687.2>, fillcolor="#f4c7a8"] ;
353 -> 354 ;
355 [label=<squared_error = -0.0<br/>samples = 1<br/>value = 131722.622>, fillcolor="#f4c9aa"] ;
353 -> 355 ;
356 [label=<squared_error = 0.0<br/>samples = 1<br/>value = 138465.05>, fillcolor="#f3c6a5"] ;
352 -> 356 ;
357 [label=<squared_error = -0.0<br/>samples = 1<br/>value = 141791.667>, fillcolor="#f3c5a3"] ;
351 -> 357 ;
358 [label=<squared_error = 0.0<br/>samples = 1<br/>value = 148582.154>, fillcolor="#f2c29f"] ;
350 -> 358 ;
359 [label=<Продано квартир, шт &le; 0.669<br/>squared_error = 1025903.155<br/>samples = 3<br/>value = 132498.015>, fillcolor="#f4c8a9"] ;
349 -> 359 ;
360 [label=<Месяц_12 &le; 0.5<br/>squared_error = 321167.03<br/>samples = 2<br/>value = 131860.916>, fillcolor="#f4c9aa"] ;
359 -> 360 ;
361 [label=<squared_error = 0.0<br/>samples = 1<br/>value = 131294.2>, fillcolor="#f4c9aa"] ;
360 -> 361 ;
362 [label=<squared_error = -0.0<br/>samples = 1<br/>value = 132427.632>, fillcolor="#f4c8a9"] ;
360 -> 362 ;
363 [label=<squared_error = 0.0<br/>samples = 1<br/>value = 133772.215>, fillcolor="#f4c8a8"] ;
359 -> 363 ;
364 [label=<squared_error = 0.0<br/>samples = 1<br/>value = 128293.648>, fillcolor="#f4caac"] ;
348 -> 364 ;
365 [label=<squared_error = -0.0<br/>samples = 1<br/>value = 150516.265>, fillcolor="#f2c19d"] ;
347 -> 365 ;
366 [label=<squared_error = -0.0<br/>samples = 1<br/>value = 152217.458>, fillcolor="#f2c09c"] ;
346 -> 366 ;
367 [label=<Продано квартир, шт &le; 0.669<br/>squared_error = 212077819.208<br/>samples = 12<br/>value = 148296.003>, fillcolor="#f2c29f"] ;
345 -> 367 ;
368 [label=<Месяц_2 &le; 0.5<br/>squared_error = 55260087.841<br/>samples = 4<br/>value = 164533.72>, fillcolor="#f1bb94"] ;
367 -> 368 ;
369 [label=<Месяц_8 &le; 0.5<br/>squared_error = 40615431.901<br/>samples = 3<br/>value = 167408.815>, fillcolor="#f1ba93"] ;
368 -> 369 ;
370 [label=<Месяц_3 &le; 0.5<br/>squared_error = 1469006.186<br/>samples = 2<br/>value = 171860.561>, fillcolor="#f0b890"] ;
369 -> 370 ;
371 [label=<squared_error = 0.0<br/>samples = 1<br/>value = 170648.536>, fillcolor="#f0b990"] ;
370 -> 371 ;
372 [label=<squared_error = 0.0<br/>samples = 1<br/>value = 173072.587>, fillcolor="#f0b88f"] ;
370 -> 372 ;
373 [label=<squared_error = 0.0<br/>samples = 1<br/>value = 158505.322>, fillcolor="#f2be98"] ;
369 -> 373 ;
374 [label=<squared_error = -0.0<br/>samples = 1<br/>value = 155908.435>, fillcolor="#f2bf9a"] ;
368 -> 374 ;
375 [label=<Продано нежилых, шт &le; 0.622<br/>squared_error = 92739106.399<br/>samples = 8<br/>value = 140177.145>, fillcolor="#f3c5a4"] ;
367 -> 375 ;
376 [label=<Месяц_11 &le; 0.5<br/>squared_error = 51249133.794<br/>samples = 7<br/>value = 137561.365>, fillcolor="#f3c6a6"] ;
375 -> 376 ;
377 [label=<Месяц_10 &le; 0.5<br/>squared_error = 38883504.374<br/>samples = 6<br/>value = 135833.148>, fillcolor="#f3c7a7"] ;
376 -> 377 ;
378 [label=<Месяц_8 &le; 0.5<br/>squared_error = 12634462.151<br/>samples = 5<br/>value = 133451.771>, fillcolor="#f4c8a9"] ;
377 -> 378 ;
379 [label=<Месяц_3 &le; 0.5<br/>squared_error = 3052494.134<br/>samples = 4<br/>value = 131855.489>, fillcolor="#f4c9aa"] ;
378 -> 379 ;
380 [label=<Месяц_2 &le; 0.5<br/>squared_error = 2059814.97<br/>samples = 3<br/>value = 132564.392>, fillcolor="#f4c8a9"] ;
379 -> 380 ;
381 [label=<Месяц_6 &le; 0.5<br/>squared_error = 31700.019<br/>samples = 2<br/>value = 133574.016>, fillcolor="#f4c8a8"] ;
380 -> 381 ;
382 [label=<squared_error = 0.0<br/>samples = 1<br/>value = 133752.061>, fillcolor="#f4c8a8"] ;
381 -> 382 ;
383 [label=<squared_error = 0.0<br/>samples = 1<br/>value = 133395.971>, fillcolor="#f4c8a9"] ;
381 -> 383 ;
384 [label=<squared_error = -0.0<br/>samples = 1<br/>value = 130545.144>, fillcolor="#f4c9aa"] ;
380 -> 384 ;
385 [label=<squared_error = 0.0<br/>samples = 1<br/>value = 129728.778>, fillcolor="#f4caab"] ;
379 -> 385 ;
386 [label=<squared_error = -0.0<br/>samples = 1<br/>value = 139836.899>, fillcolor="#f3c5a4"] ;
378 -> 386 ;
387 [label=<squared_error = -0.0<br/>samples = 1<br/>value = 147740.034>, fillcolor="#f2c29f"] ;
377 -> 387 ;
388 [label=<squared_error = -0.0<br/>samples = 1<br/>value = 147930.671>, fillcolor="#f2c29f"] ;
376 -> 388 ;
389 [label=<squared_error = 0.0<br/>samples = 1<br/>value = 158487.601>, fillcolor="#f2be98"] ;
375 -> 389 ;
390 [label=<Продано квартир, шт &le; 0.251<br/>squared_error = 296402382.513<br/>samples = 52<br/>value = 127053.282>, fillcolor="#f4cbad"] ;
340 -> 390 ;
391 [label=<Инфраструктура: Детские сады &le; 0.42<br/>squared_error = 388030779.832<br/>samples = 22<br/>value = 132346.195>, fillcolor="#f4c8a9"] ;
390 -> 391 ;
392 [label=<Широта &le; -0.41<br/>squared_error = 189017410.143<br/>samples = 14<br/>value = 124555.878>, fillcolor="#f4ccae"] ;
391 -> 392 ;
393 [label=<Месяц_5 &le; 0.5<br/>squared_error = 163768234.926<br/>samples = 11<br/>value = 128341.703>, fillcolor="#f4caac"] ;
392 -> 393 ;
394 [label=<Месяц_3 &le; 0.5<br/>squared_error = 130043547.271<br/>samples = 10<br/>value = 130475.873>, fillcolor="#f4c9aa"] ;
393 -> 394 ;
395 [label=<Месяц_2 &le; 0.5<br/>squared_error = 81153555.922<br/>samples = 8<br/>value = 133818.916>, fillcolor="#f4c8a8"] ;
394 -> 395 ;
396 [label=<Продано квартир, шт &le; -0.415<br/>squared_error = 80049241.944<br/>samples = 7<br/>value = 135078.761>, fillcolor="#f4c7a7"] ;
395 -> 396 ;
397 [label=<Месяц_6 &le; 0.5<br/>squared_error = 49335555.556<br/>samples = 3<br/>value = 139066.667>, fillcolor="#f3c6a5"] ;
396 -> 397 ;
398 [label=<squared_error = 0.0<br/>samples = 2<br/>value = 134100.0>, fillcolor="#f4c8a8"] ;
397 -> 398 ;
399 [label=<squared_error = 0.0<br/>samples = 1<br/>value = 149000.0>, fillcolor="#f2c29e"] ;
397 -> 399 ;
400 [label=<Месяц_6 &le; 0.5<br/>squared_error = 82211310.228<br/>samples = 4<br/>value = 132087.833>, fillcolor="#f4c9a9"] ;
396 -> 400 ;
401 [label=<Продано квартир, шт &le; 0.034<br/>squared_error = 4121959.078<br/>samples = 3<br/>value = 137223.325>, fillcolor="#f3c6a6"] ;
400 -> 401 ;
402 [label=<squared_error = 0.0<br/>samples = 1<br/>value = 140088.678>, fillcolor="#f3c5a4"] ;
401 -> 402 ;
403 [label=<Месяц_1 &le; 0.5<br/>squared_error = 25252.959<br/>samples = 2<br/>value = 135790.648>, fillcolor="#f3c7a7"] ;
401 -> 403 ;
404 [label=<squared_error = 0.0<br/>samples = 1<br/>value = 135631.737>, fillcolor="#f3c7a7"] ;
403 -> 404 ;
405 [label=<squared_error = 0.0<br/>samples = 1<br/>value = 135949.56>, fillcolor="#f3c7a7"] ;
403 -> 405 ;
406 [label=<squared_error = -0.0<br/>samples = 1<br/>value = 116681.356>, fillcolor="#f5cfb3"] ;
400 -> 406 ;
407 [label=<squared_error = 0.0<br/>samples = 1<br/>value = 125000.0>, fillcolor="#f4cbae"] ;
395 -> 407 ;
408 [label=<Продано квартир, шт &le; -0.415<br/>squared_error = 102084770.828<br/>samples = 2<br/>value = 117103.701>, fillcolor="#f5cfb3"] ;
394 -> 408 ;
409 [label=<squared_error = 0.0<br/>samples = 1<br/>value = 107000.0>, fillcolor="#f6d3ba"] ;
408 -> 409 ;
410 [label=<squared_error = -0.0<br/>samples = 1<br/>value = 127207.402>, fillcolor="#f4cbad"] ;
408 -> 410 ;
411 [label=<squared_error = -0.0<br/>samples = 1<br/>value = 107000.0>, fillcolor="#f6d3ba"] ;
393 -> 411 ;
412 [label=<Продано квартир, шт &le; -0.297<br/>squared_error = 36353243.61<br/>samples = 3<br/>value = 110674.521>, fillcolor="#f6d1b7"] ;
392 -> 412 ;
413 [label=<Инфраструктура: Продукты &le; -0.649<br/>squared_error = 2250000.0<br/>samples = 2<br/>value = 106500.0>, fillcolor="#f6d3ba"] ;
412 -> 413 ;
414 [label=<squared_error = 0.0<br/>samples = 1<br/>value = 108000.0>, fillcolor="#f6d2b9"] ;
413 -> 414 ;
415 [label=<squared_error = 0.0<br/>samples = 1<br/>value = 105000.0>, fillcolor="#f6d4bb"] ;
413 -> 415 ;
416 [label=<squared_error = 0.0<br/>samples = 1<br/>value = 119023.562>, fillcolor="#f5ceb2"] ;
412 -> 416 ;
417 [label=<Самая низкая точка 250м &le; -0.392<br/>squared_error = 444238217.085<br/>samples = 8<br/>value = 145979.248>, fillcolor="#f3c3a0"] ;
391 -> 417 ;
418 [label=<Месяц_2 &le; 0.5<br/>squared_error = 366096008.802<br/>samples = 6<br/>value = 140211.847>, fillcolor="#f3c5a4"] ;
417 -> 418 ;
419 [label=<Продано квартир, шт &le; 0.034<br/>squared_error = 340201629.249<br/>samples = 5<br/>value = 136147.499>, fillcolor="#f3c7a7"] ;
418 -> 419 ;
420 [label=<Месяц_1 &le; 0.5<br/>squared_error = 130168202.999<br/>samples = 4<br/>value = 143829.736>, fillcolor="#f3c4a2"] ;
419 -> 420 ;
421 [label=<Месяц_8 &le; 0.5<br/>squared_error = 10224700.714<br/>samples = 3<br/>value = 137439.648>, fillcolor="#f3c6a6"] ;
420 -> 421 ;
422 [label=<Продано квартир, шт &le; -0.415<br/>squared_error = 3674855.978<br/>samples = 2<br/>value = 135467.999>, fillcolor="#f3c7a7"] ;
421 -> 422 ;
423 [label=<squared_error = 0.0<br/>samples = 1<br/>value = 133551.008>, fillcolor="#f4c8a8"] ;
422 -> 423 ;
424 [label=<squared_error = 0.0<br/>samples = 1<br/>value = 137384.99>, fillcolor="#f3c6a6"] ;
422 -> 424 ;
425 [label=<squared_error = 0.0<br/>samples = 1<br/>value = 141382.945>, fillcolor="#f3c5a3"] ;
421 -> 425 ;
426 [label=<squared_error = 0.0<br/>samples = 1<br/>value = 163000.0>, fillcolor="#f1bc95"] ;
420 -> 426 ;
427 [label=<squared_error = 0.0<br/>samples = 1<br/>value = 105418.55>, fillcolor="#f6d4bb"] ;
419 -> 427 ;
428 [label=<squared_error = -0.0<br/>samples = 1<br/>value = 160533.591>, fillcolor="#f1bd97"] ;
418 -> 428 ;
429 [label=<Месяц_8 &le; 0.5<br/>squared_error = 279509860.172<br/>samples = 2<br/>value = 163281.452>, fillcolor="#f1bc95"] ;
417 -> 429 ;
430 [label=<squared_error = 0.0<br/>samples = 1<br/>value = 180000.0>, fillcolor="#f0b58a"] ;
429 -> 430 ;
431 [label=<squared_error = -0.0<br/>samples = 1<br/>value = 146562.903>, fillcolor="#f3c3a0"] ;
429 -> 431 ;
432 [label=<Площадь коммерческих помещений &le; 1.534<br/>squared_error = 193598149.131<br/>samples = 30<br/>value = 123171.813>, fillcolor="#f5ccaf"] ;
390 -> 432 ;
433 [label=<Продано нежилых, шт &le; 0.622<br/>squared_error = 130107607.815<br/>samples = 23<br/>value = 118320.701>, fillcolor="#f5ceb2"] ;
432 -> 433 ;
434 [label=<Месяц_5 &le; 0.5<br/>squared_error = 126805169.341<br/>samples = 22<br/>value = 117687.681>, fillcolor="#f5ceb3"] ;
433 -> 434 ;
435 [label=<Месяц_8 &le; 0.5<br/>squared_error = 131437802.83<br/>samples = 20<br/>value = 118541.417>, fillcolor="#f5ceb2"] ;
434 -> 435 ;
436 [label=<Продано квартир, шт &le; 1.201<br/>squared_error = 131061996.258<br/>samples = 19<br/>value = 119145.304>, fillcolor="#f5ceb2"] ;
435 -> 436 ;
437 [label=<Месяц_3 &le; 0.5<br/>squared_error = 184217676.909<br/>samples = 11<br/>value = 121031.152>, fillcolor="#f5cdb1"] ;
436 -> 437 ;
438 [label=<Продано квартир, шт &le; 1.101<br/>squared_error = 133141289.326<br/>samples = 10<br/>value = 118517.586>, fillcolor="#f5ceb2"] ;
437 -> 438 ;
439 [label=<Месяц_4 &le; 0.5<br/>squared_error = 141861362.63<br/>samples = 8<br/>value = 120658.864>, fillcolor="#f5cdb1"] ;
438 -> 439 ;
440 [label=<Гостевых мест &le; -0.501<br/>squared_error = 41471856.606<br/>samples = 6<br/>value = 116351.301>, fillcolor="#f5cfb4"] ;
439 -> 440 ;
441 [label=<Продано квартир, шт &le; 0.807<br/>squared_error = 7475800.244<br/>samples = 3<br/>value = 121402.879>, fillcolor="#f5cdb0"] ;
440 -> 441 ;
442 [label=<squared_error = 0.0<br/>samples = 1<br/>value = 125145.932>, fillcolor="#f4cbae"] ;
441 -> 442 ;
443 [label=<Месяц_7 &le; 0.5<br/>squared_error = 705867.961<br/>samples = 2<br/>value = 119531.353>, fillcolor="#f5ceb2"] ;
441 -> 443 ;
444 [label=<squared_error = 0.0<br/>samples = 1<br/>value = 118691.194>, fillcolor="#f5ceb2"] ;
443 -> 444 ;
445 [label=<squared_error = 0.0<br/>samples = 1<br/>value = 120371.512>, fillcolor="#f5cdb1"] ;
443 -> 445 ;
446 [label=<Месяц_11 &le; 0.5<br/>squared_error = 24431018.008<br/>samples = 3<br/>value = 111299.722>, fillcolor="#f6d1b7"] ;
440 -> 446 ;
447 [label=<Площадь спортивных площадок &le; 0.224<br/>squared_error = 1169485.327<br/>samples = 2<br/>value = 107860.873>, fillcolor="#f6d3b9"] ;
446 -> 447 ;
448 [label=<squared_error = 0.0<br/>samples = 1<br/>value = 108942.301>, fillcolor="#f6d2b8"] ;
447 -> 448 ;
449 [label=<squared_error = -0.0<br/>samples = 1<br/>value = 106779.446>, fillcolor="#f6d3ba"] ;
447 -> 449 ;
450 [label=<squared_error = 0.0<br/>samples = 1<br/>value = 118177.419>, fillcolor="#f5ceb2"] ;
446 -> 450 ;
451 [label=<Всего парковочных мест &le; -0.476<br/>squared_error = 220368702.9<br/>samples = 2<br/>value = 133581.552>, fillcolor="#f4c8a8"] ;
439 -> 451 ;
452 [label=<squared_error = 0.0<br/>samples = 1<br/>value = 118736.731>, fillcolor="#f5ceb2"] ;
451 -> 452 ;
453 [label=<squared_error = -0.0<br/>samples = 1<br/>value = 148426.373>, fillcolor="#f2c29f"] ;
451 -> 453 ;
454 [label=<Площадь коммерческих помещений &le; -0.259<br/>squared_error = 6559596.404<br/>samples = 2<br/>value = 109952.475>, fillcolor="#f6d2b8"] ;
438 -> 454 ;
455 [label=<squared_error = 0.0<br/>samples = 1<br/>value = 107391.304>, fillcolor="#f6d3b9"] ;
454 -> 455 ;
456 [label=<squared_error = 0.0<br/>samples = 1<br/>value = 112513.646>, fillcolor="#f5d1b6"] ;
454 -> 456 ;
457 [label=<squared_error = 0.0<br/>samples = 1<br/>value = 146166.812>, fillcolor="#f3c3a0"] ;
437 -> 457 ;
458 [label=<Месяц_12 &le; 0.5<br/>squared_error = 46358992.024<br/>samples = 8<br/>value = 116552.263>, fillcolor="#f5cfb3"] ;
436 -> 458 ;
459 [label=<Количество домов 250м &le; -0.011<br/>squared_error = 28441657.684<br/>samples = 6<br/>value = 113833.427>, fillcolor="#f5d0b5"] ;
458 -> 459 ;
460 [label=<squared_error = 0.0<br/>samples = 1<br/>value = 123219.63>, fillcolor="#f5ccaf"] ;
459 -> 460 ;
461 [label=<Продано квартир, шт &le; 1.38<br/>squared_error = 12985796.864<br/>samples = 5<br/>value = 111956.186>, fillcolor="#f5d1b6"] ;
459 -> 461 ;
462 [label=<Количество трехкомнатных квартир &le; -0.83<br/>squared_error = 2291685.84<br/>samples = 3<br/>value = 109382.336>, fillcolor="#f6d2b8"] ;
461 -> 462 ;
463 [label=<squared_error = 0.0<br/>samples = 1<br/>value = 107241.604>, fillcolor="#f6d3ba"] ;
462 -> 463 ;
464 [label=<Месяц_3 &le; 0.5<br/>squared_error = 476.186<br/>samples = 2<br/>value = 110452.703>, fillcolor="#f6d1b7"] ;
462 -> 464 ;
465 [label=<squared_error = 0.0<br/>samples = 1<br/>value = 110474.525>, fillcolor="#f6d1b7"] ;
464 -> 465 ;
466 [label=<squared_error = 0.0<br/>samples = 1<br/>value = 110430.881>, fillcolor="#f6d1b7"] ;
464 -> 466 ;
467 [label=<Месяц_10 &le; 0.5<br/>squared_error = 4184327.556<br/>samples = 2<br/>value = 115816.961>, fillcolor="#f5cfb4"] ;
461 -> 467 ;
468 [label=<squared_error = 0.0<br/>samples = 1<br/>value = 113771.398>, fillcolor="#f5d0b5"] ;
467 -> 468 ;
469 [label=<squared_error = 0.0<br/>samples = 1<br/>value = 117862.524>, fillcolor="#f5ceb3"] ;
467 -> 469 ;
470 [label=<Количество домов 250м &le; 0.178<br/>squared_error = 11406167.599<br/>samples = 2<br/>value = 124708.771>, fillcolor="#f4ccae"] ;
458 -> 470 ;
471 [label=<squared_error = 0.0<br/>samples = 1<br/>value = 128086.072>, fillcolor="#f4caac"] ;
470 -> 471 ;
472 [label=<squared_error = 0.0<br/>samples = 1<br/>value = 121331.469>, fillcolor="#f5cdb0"] ;
470 -> 472 ;
473 [label=<squared_error = -0.0<br/>samples = 1<br/>value = 107067.568>, fillcolor="#f6d3ba"] ;
435 -> 473 ;
474 [label=<Количество двухкомнатных квартир &le; 1.5<br/>squared_error = 303660.516<br/>samples = 2<br/>value = 109150.321>, fillcolor="#f6d2b8"] ;
434 -> 474 ;
475 [label=<squared_error = 0.0<br/>samples = 1<br/>value = 109701.375>, fillcolor="#f6d2b8"] ;
474 -> 475 ;
476 [label=<squared_error = 0.0<br/>samples = 1<br/>value = 108599.267>, fillcolor="#f6d2b9"] ;
474 -> 476 ;
477 [label=<squared_error = -0.0<br/>samples = 1<br/>value = 132247.134>, fillcolor="#f4c8a9"] ;
433 -> 477 ;
478 [label=<Месяц_10 &le; 0.5<br/>squared_error = 70822710.904<br/>samples = 7<br/>value = 139111.184>, fillcolor="#f3c6a5"] ;
432 -> 478 ;
479 [label=<Продано квартир, шт &le; 1.045<br/>squared_error = 31409928.996<br/>samples = 6<br/>value = 141816.115>, fillcolor="#f3c5a3"] ;
478 -> 479 ;
480 [label=<squared_error = 0.0<br/>samples = 1<br/>value = 132199.636>, fillcolor="#f4c8a9"] ;
479 -> 480 ;
481 [label=<Месяц_8 &le; 0.5<br/>squared_error = 15497514.205<br/>samples = 5<br/>value = 143739.411>, fillcolor="#f3c4a2"] ;
479 -> 481 ;
482 [label=<Продано квартир, шт &le; 1.335<br/>squared_error = 2138648.91<br/>samples = 4<br/>value = 141882.896>, fillcolor="#f3c4a3"] ;
481 -> 482 ;
483 [label=<Месяц_6 &le; 0.5<br/>squared_error = 88836.49<br/>samples = 2<br/>value = 143327.995>, fillcolor="#f3c4a2"] ;
482 -> 483 ;
484 [label=<squared_error = 0.0<br/>samples = 1<br/>value = 143626.049>, fillcolor="#f3c4a2"] ;
483 -> 484 ;
485 [label=<squared_error = -0.0<br/>samples = 1<br/>value = 143029.94>, fillcolor="#f3c4a2"] ;
483 -> 485 ;
486 [label=<Продано квартир, шт &le; 1.498<br/>squared_error = 11839.552<br/>samples = 2<br/>value = 140437.797>, fillcolor="#f3c5a4"] ;
482 -> 486 ;
487 [label=<squared_error = 0.0<br/>samples = 1<br/>value = 140328.987>, fillcolor="#f3c5a4"] ;
486 -> 487 ;
488 [label=<squared_error = 0.0<br/>samples = 1<br/>value = 140546.606>, fillcolor="#f3c5a4"] ;
486 -> 488 ;
489 [label=<squared_error = -0.0<br/>samples = 1<br/>value = 151165.472>, fillcolor="#f2c19d"] ;
481 -> 489 ;
490 [label=<squared_error = 0.0<br/>samples = 1<br/>value = 122881.597>, fillcolor="#f5ccaf"] ;
478 -> 490 ;
491 [label=<Продано квартир, шт &le; -0.56<br/>squared_error = 277857167.453<br/>samples = 37<br/>value = 145932.468>, fillcolor="#f3c3a0"] ;
337 -> 491 ;
492 [label=<Площадь детских площадок &le; 0.515<br/>squared_error = 87372650.354<br/>samples = 4<br/>value = 158970.493>, fillcolor="#f1bd98"] ;
491 -> 492 ;
493 [label=<Месяц_3 &le; 0.5<br/>squared_error = 61252549.583<br/>samples = 3<br/>value = 162686.819>, fillcolor="#f1bc96"] ;
492 -> 493 ;
494 [label=<Долгота &le; -0.021<br/>squared_error = 3562378.236<br/>samples = 2<br/>value = 168112.574>, fillcolor="#f1ba92"] ;
493 -> 494 ;
495 [label=<squared_error = 0.0<br/>samples = 1<br/>value = 170000.0>, fillcolor="#f1b991"] ;
494 -> 495 ;
496 [label=<squared_error = 0.0<br/>samples = 1<br/>value = 166225.147>, fillcolor="#f1ba93"] ;
494 -> 496 ;
497 [label=<squared_error = 0.0<br/>samples = 1<br/>value = 151835.309>, fillcolor="#f2c09d"] ;
493 -> 497 ;
498 [label=<squared_error = 0.0<br/>samples = 1<br/>value = 147821.515>, fillcolor="#f2c29f"] ;
492 -> 498 ;
499 [label=<Месяц_8 &le; 0.5<br/>squared_error = 277843780.98<br/>samples = 33<br/>value = 144352.101>, fillcolor="#f3c3a1"] ;
491 -> 499 ;
500 [label=<Месяц_12 &le; 0.5<br/>squared_error = 233535333.711<br/>samples = 29<br/>value = 142302.984>, fillcolor="#f3c4a3"] ;
499 -> 500 ;
501 [label=<Месяц_4 &le; 0.5<br/>squared_error = 212396995.47<br/>samples = 27<br/>value = 141079.94>, fillcolor="#f3c5a4"] ;
500 -> 501 ;
502 [label=<Продано квартир, шт &le; 0.251<br/>squared_error = 211055027.714<br/>samples = 25<br/>value = 142108.228>, fillcolor="#f3c4a3"] ;
501 -> 502 ;
503 [label=<Месяц_3 &le; 0.5<br/>squared_error = 291167386.12<br/>samples = 14<br/>value = 145794.707>, fillcolor="#f3c3a1"] ;
502 -> 503 ;
504 [label=<Продано нежилых, руб &le; 2.09<br/>squared_error = 159322705.652<br/>samples = 13<br/>value = 142475.476>, fillcolor="#f3c4a3"] ;
503 -> 504 ;
505 [label=<Месяц_11 &le; 0.5<br/>squared_error = 153746106.953<br/>samples = 11<br/>value = 140477.172>, fillcolor="#f3c5a4"] ;
504 -> 505 ;
506 [label=<Продано квартир, шт &le; -0.229<br/>squared_error = 146191121.391<br/>samples = 10<br/>value = 139033.389>, fillcolor="#f3c6a5"] ;
505 -> 506 ;
507 [label=<Инфраструктура: Спорт &le; 1.452<br/>squared_error = 8481882.527<br/>samples = 4<br/>value = 130659.266>, fillcolor="#f4c9aa"] ;
506 -> 507 ;
508 [label=<Месяц_6 &le; 0.5<br/>squared_error = 1834099.777<br/>samples = 3<br/>value = 129120.185>, fillcolor="#f4caab"] ;
507 -> 508 ;
509 [label=<Расстояние по навигатору до: В-надеждинское &le; 0.651<br/>squared_error = 279031.918<br/>samples = 2<br/>value = 130027.951>, fillcolor="#f4c9ab"] ;
508 -> 509 ;
510 [label=<squared_error = 0.0<br/>samples = 1<br/>value = 130556.186>, fillcolor="#f4c9aa"] ;
509 -> 510 ;
511 [label=<squared_error = -0.0<br/>samples = 1<br/>value = 129499.717>, fillcolor="#f4caab"] ;
509 -> 511 ;
512 [label=<squared_error = 0.0<br/>samples = 1<br/>value = 127304.653>, fillcolor="#f4cbad"] ;
508 -> 512 ;
513 [label=<squared_error = -0.0<br/>samples = 1<br/>value = 135276.508>, fillcolor="#f3c7a7"] ;
507 -> 513 ;
514 [label=<Расстояние по навигатору до: Баляева &le; -0.604<br/>squared_error = 160079568.635<br/>samples = 6<br/>value = 144616.138>, fillcolor="#f3c3a1"] ;
506 -> 514 ;
515 [label=<Месяц_1 &le; 0.5<br/>squared_error = 119864857.461<br/>samples = 4<br/>value = 138990.49>, fillcolor="#f3c6a5"] ;
514 -> 515 ;
516 [label=<Продано квартир, шт &le; 0.034<br/>squared_error = 44132113.009<br/>samples = 3<br/>value = 144368.4>, fillcolor="#f3c3a1"] ;
515 -> 516 ;
517 [label=<squared_error = 0.0<br/>samples = 1<br/>value = 153736.552>, fillcolor="#f2c09b"] ;
516 -> 517 ;
518 [label=<Продано нежилых, шт &le; 0.622<br/>squared_error = 376476.391<br/>samples = 2<br/>value = 139684.325>, fillcolor="#f3c5a4"] ;
516 -> 518 ;
519 [label=<squared_error = 0.0<br/>samples = 1<br/>value = 139070.748>, fillcolor="#f3c6a5"] ;
518 -> 519 ;
520 [label=<squared_error = 0.0<br/>samples = 1<br/>value = 140297.902>, fillcolor="#f3c5a4"] ;
518 -> 520 ;
521 [label=<squared_error = 0.0<br/>samples = 1<br/>value = 122856.757>, fillcolor="#f5ccaf"] ;
515 -> 521 ;
522 [label=<Месяц_1 &le; 0.5<br/>squared_error = 50621466.312<br/>samples = 2<br/>value = 155867.435>, fillcolor="#f2bf9a"] ;
514 -> 522 ;
523 [label=<squared_error = 0.0<br/>samples = 1<br/>value = 148752.559>, fillcolor="#f2c29f"] ;
522 -> 523 ;
524 [label=<squared_error = -0.0<br/>samples = 1<br/>value = 162982.312>, fillcolor="#f1bc95"] ;
522 -> 524 ;
525 [label=<squared_error = 0.0<br/>samples = 1<br/>value = 154915.0>, fillcolor="#f2bf9b"] ;
505 -> 525 ;
526 [label=<Инфраструктура: Спорт &le; 1.452<br/>squared_error = 47236466.415<br/>samples = 2<br/>value = 153466.146>, fillcolor="#f2c09c"] ;
504 -> 526 ;
527 [label=<squared_error = 0.0<br/>samples = 1<br/>value = 146593.267>, fillcolor="#f3c3a0"] ;
526 -> 527 ;
528 [label=<squared_error = -0.0<br/>samples = 1<br/>value = 160339.025>, fillcolor="#f1bd97"] ;
526 -> 528 ;
529 [label=<squared_error = -0.0<br/>samples = 1<br/>value = 188944.717>, fillcolor="#efb185"] ;
503 -> 529 ;
530 [label=<Количество студий &le; 1.498<br/>squared_error = 69783546.204<br/>samples = 11<br/>value = 137416.345>, fillcolor="#f3c6a6"] ;
502 -> 530 ;
531 [label=<Месяц_3 &le; 0.5<br/>squared_error = 78169275.027<br/>samples = 6<br/>value = 133643.545>, fillcolor="#f4c8a8"] ;
530 -> 531 ;
532 [label=<Продано квартир, шт &le; 0.514<br/>squared_error = 31636909.729<br/>samples = 4<br/>value = 137365.975>, fillcolor="#f3c6a6"] ;
531 -> 532 ;
533 [label=<squared_error = 0.0<br/>samples = 1<br/>value = 130499.237>, fillcolor="#f4c9aa"] ;
532 -> 533 ;
534 [label=<Месяц_2 &le; 0.5<br/>squared_error = 21226061.9<br/>samples = 3<br/>value = 139654.888>, fillcolor="#f3c5a5"] ;
532 -> 534 ;
535 [label=<Расстояние по навигатору до: В-надеждинское &le; 0.02<br/>squared_error = 60523.45<br/>samples = 2<br/>value = 142909.554>, fillcolor="#f3c4a2"] ;
534 -> 535 ;
536 [label=<squared_error = 0.0<br/>samples = 1<br/>value = 142663.539>, fillcolor="#f3c4a3"] ;
535 -> 536 ;
537 [label=<squared_error = 0.0<br/>samples = 1<br/>value = 143155.57>, fillcolor="#f3c4a2"] ;
535 -> 537 ;
538 [label=<squared_error = 0.0<br/>samples = 1<br/>value = 133145.554>, fillcolor="#f4c8a9"] ;
534 -> 538 ;
539 [label=<Подъездов в доме &le; -0.254<br/>squared_error = 88095104.537<br/>samples = 2<br/>value = 126198.686>, fillcolor="#f4cbad"] ;
531 -> 539 ;
540 [label=<squared_error = 0.0<br/>samples = 1<br/>value = 116812.786>, fillcolor="#f5cfb3"] ;
539 -> 540 ;
541 [label=<squared_error = 0.0<br/>samples = 1<br/>value = 135584.585>, fillcolor="#f3c7a7"] ;
539 -> 541 ;
542 [label=<Месяц_3 &le; 0.5<br/>squared_error = 22142868.72<br/>samples = 5<br/>value = 141943.704>, fillcolor="#f3c4a3"] ;
530 -> 542 ;
543 [label=<Месяц_7 &le; 0.5<br/>squared_error = 5237854.594<br/>samples = 4<br/>value = 139825.18>, fillcolor="#f3c5a4"] ;
542 -> 543 ;
544 [label=<Продано квартир, шт &le; 0.6<br/>squared_error = 3100382.682<br/>samples = 3<br/>value = 140810.5>, fillcolor="#f3c5a4"] ;
543 -> 544 ;
545 [label=<Месяц_10 &le; 0.5<br/>squared_error = 6260.608<br/>samples = 2<br/>value = 142054.728>, fillcolor="#f3c4a3"] ;
544 -> 545 ;
546 [label=<squared_error = 0.0<br/>samples = 1<br/>value = 141975.604>, fillcolor="#f3c4a3"] ;
545 -> 546 ;
547 [label=<squared_error = 0.0<br/>samples = 1<br/>value = 142133.852>, fillcolor="#f3c4a3"] ;
545 -> 547 ;
548 [label=<squared_error = -0.0<br/>samples = 1<br/>value = 138322.043>, fillcolor="#f3c6a5"] ;
544 -> 548 ;
549 [label=<squared_error = 0.0<br/>samples = 1<br/>value = 136869.219>, fillcolor="#f3c7a6"] ;
543 -> 549 ;
550 [label=<squared_error = -0.0<br/>samples = 1<br/>value = 150417.802>, fillcolor="#f2c19e"] ;
542 -> 550 ;
551 [label=<Класс недвижимости_комфорт &le; 0.5<br/>squared_error = 50739472.179<br/>samples = 2<br/>value = 128226.344>, fillcolor="#f4caac"] ;
501 -> 551 ;
552 [label=<squared_error = 0.0<br/>samples = 1<br/>value = 135349.509>, fillcolor="#f3c7a7"] ;
551 -> 552 ;
553 [label=<squared_error = 0.0<br/>samples = 1<br/>value = 121103.18>, fillcolor="#f5cdb1"] ;
551 -> 553 ;
554 [label=<Гостевых мест &le; -0.429<br/>squared_error = 226092815.274<br/>samples = 2<br/>value = 158814.08>, fillcolor="#f1be98"] ;
500 -> 554 ;
555 [label=<squared_error = 0.0<br/>samples = 1<br/>value = 143777.697>, fillcolor="#f3c4a2"] ;
554 -> 555 ;
556 [label=<squared_error = 0.0<br/>samples = 1<br/>value = 173850.463>, fillcolor="#f0b78e"] ;
554 -> 556 ;
557 [label=<Продано квартир, шт &le; -0.229<br/>squared_error = 347934507.979<br/>samples = 4<br/>value = 159208.199>, fillcolor="#f1bd98"] ;
499 -> 557 ;
558 [label=<squared_error = 0.0<br/>samples = 1<br/>value = 189845.626>, fillcolor="#efb184"] ;
557 -> 558 ;
559 [label=<Количество домов 250м &le; 1.712<br/>squared_error = 46734029.897<br/>samples = 3<br/>value = 148995.723>, fillcolor="#f2c29e"] ;
557 -> 559 ;
560 [label=<Количество квартир &le; 0.351<br/>squared_error = 1770566.169<br/>samples = 2<br/>value = 153768.23>, fillcolor="#f2c09b"] ;
559 -> 560 ;
561 [label=<squared_error = 0.0<br/>samples = 1<br/>value = 152437.604>, fillcolor="#f2c09c"] ;
560 -> 561 ;
562 [label=<squared_error = 0.0<br/>samples = 1<br/>value = 155098.856>, fillcolor="#f2bf9a"] ;
560 -> 562 ;
563 [label=<squared_error = 0.0<br/>samples = 1<br/>value = 139450.708>, fillcolor="#f3c5a5"] ;
559 -> 563 ;
564 [label=<Продано квартир, шт &le; 1.101<br/>squared_error = 242693244.276<br/>samples = 26<br/>value = 157282.111>, fillcolor="#f2be99"] ;
336 -> 564 ;
565 [label=<Продано нежилых, руб &le; 2.171<br/>squared_error = 187748944.473<br/>samples = 22<br/>value = 161048.942>, fillcolor="#f1bd97"] ;
564 -> 565 ;
566 [label=<Месяц_4 &le; 0.5<br/>squared_error = 108810456.288<br/>samples = 19<br/>value = 158580.816>, fillcolor="#f2be98"] ;
565 -> 566 ;
567 [label=<Месяц_8 &le; 0.5<br/>squared_error = 98140811.76<br/>samples = 17<br/>value = 157095.396>, fillcolor="#f2be99"] ;
566 -> 567 ;
568 [label=<Месяц_6 &le; 0.5<br/>squared_error = 74417923.116<br/>samples = 12<br/>value = 153464.39>, fillcolor="#f2c09c"] ;
567 -> 568 ;
569 [label=<Месяц_7 &le; 0.5<br/>squared_error = 41014241.57<br/>samples = 10<br/>value = 150667.706>, fillcolor="#f2c19d"] ;
568 -> 569 ;
570 [label=<Тип дома_другой &le; 0.5<br/>squared_error = 15167795.558<br/>samples = 7<br/>value = 147575.832>, fillcolor="#f2c29f"] ;
569 -> 570 ;
571 [label=<Месяц_9 &le; 0.5<br/>squared_error = 6110312.711<br/>samples = 6<br/>value = 146289.339>, fillcolor="#f3c3a0"] ;
570 -> 571 ;
572 [label=<Площадь спортивных площадок &le; -0.175<br/>squared_error = 1175418.856<br/>samples = 5<br/>value = 147302.335>, fillcolor="#f2c2a0"] ;
571 -> 572 ;
573 [label=<Месяц_3 &le; 0.5<br/>squared_error = 230947.514<br/>samples = 2<br/>value = 148447.89>, fillcolor="#f2c29f"] ;
572 -> 573 ;
574 [label=<squared_error = 0.0<br/>samples = 1<br/>value = 148928.46>, fillcolor="#f2c29e"] ;
573 -> 574 ;
575 [label=<squared_error = 0.0<br/>samples = 1<br/>value = 147967.32>, fillcolor="#f2c29f"] ;
573 -> 575 ;
576 [label=<Количество квартир на этаже &le; -0.065<br/>squared_error = 346958.524<br/>samples = 3<br/>value = 146538.631>, fillcolor="#f3c3a0"] ;
572 -> 576 ;
577 [label=<squared_error = 0.0<br/>samples = 1<br/>value = 145727.474>, fillcolor="#f3c3a1"] ;
576 -> 577 ;
578 [label=<Месяц_2 &le; 0.5<br/>squared_error = 26956.091<br/>samples = 2<br/>value = 146944.21>, fillcolor="#f2c2a0"] ;
576 -> 578 ;
579 [label=<squared_error = 0.0<br/>samples = 1<br/>value = 147108.393>, fillcolor="#f2c2a0"] ;
578 -> 579 ;
580 [label=<squared_error = -0.0<br/>samples = 1<br/>value = 146780.026>, fillcolor="#f3c2a0"] ;
578 -> 580 ;
581 [label=<squared_error = -0.0<br/>samples = 1<br/>value = 141224.363>, fillcolor="#f3c5a3"] ;
571 -> 581 ;
582 [label=<squared_error = -0.0<br/>samples = 1<br/>value = 155294.79>, fillcolor="#f2bf9a"] ;
570 -> 582 ;
583 [label=<Всего парковочных мест &le; -0.179<br/>squared_error = 26969550.258<br/>samples = 3<br/>value = 157882.076>, fillcolor="#f2be99"] ;
569 -> 583 ;
584 [label=<squared_error = 0.0<br/>samples = 1<br/>value = 150631.976>, fillcolor="#f2c19d"] ;
583 -> 584 ;
585 [label=<Количество остальных квартир &le; -0.239<br/>squared_error = 1031359.937<br/>samples = 2<br/>value = 161507.126>, fillcolor="#f1bc96"] ;
583 -> 585 ;
586 [label=<squared_error = 0.0<br/>samples = 1<br/>value = 160491.568>, fillcolor="#f1bd97"] ;
585 -> 586 ;
587 [label=<squared_error = 0.0<br/>samples = 1<br/>value = 162522.685>, fillcolor="#f1bc96"] ;
585 -> 587 ;
588 [label=<Общая площадь квартир &le; 1.552<br/>squared_error = 6793014.058<br/>samples = 2<br/>value = 167447.812>, fillcolor="#f1ba92"] ;
568 -> 588 ;
589 [label=<squared_error = 0.0<br/>samples = 1<br/>value = 164841.471>, fillcolor="#f1bb94"] ;
588 -> 589 ;
590 [label=<squared_error = 0.0<br/>samples = 1<br/>value = 170054.153>, fillcolor="#f1b991"] ;
588 -> 590 ;
591 [label=<Количество студий &le; -0.576<br/>squared_error = 47492614.381<br/>samples = 5<br/>value = 165809.812>, fillcolor="#f1bb94"] ;
567 -> 591 ;
592 [label=<Площадь спортивных площадок &le; 1.435<br/>squared_error = 16498204.734<br/>samples = 2<br/>value = 159061.798>, fillcolor="#f1bd98"] ;
591 -> 592 ;
593 [label=<squared_error = 0.0<br/>samples = 1<br/>value = 155000.0>, fillcolor="#f2bf9b"] ;
592 -> 593 ;
594 [label=<squared_error = 0.0<br/>samples = 1<br/>value = 163123.596>, fillcolor="#f1bc95"] ;
592 -> 594 ;
595 [label=<Расстояние до ближайшего строения &le; -0.105<br/>squared_error = 17560349.273<br/>samples = 3<br/>value = 170308.487>, fillcolor="#f1b991"] ;
591 -> 595 ;
596 [label=<Инфраструктура: Спорт &le; 1.237<br/>squared_error = 216063.901<br/>samples = 2<br/>value = 167357.529>, fillcolor="#f1ba93"] ;
595 -> 596 ;
597 [label=<squared_error = 0.0<br/>samples = 1<br/>value = 167822.356>, fillcolor="#f1ba92"] ;
596 -> 597 ;
598 [label=<squared_error = 0.0<br/>samples = 1<br/>value = 166892.702>, fillcolor="#f1ba93"] ;
596 -> 598 ;
599 [label=<squared_error = 0.0<br/>samples = 1<br/>value = 176210.403>, fillcolor="#f0b68d"] ;
595 -> 599 ;
600 [label=<Количество этажей &le; 0.562<br/>squared_error = 21329759.563<br/>samples = 2<br/>value = 171206.887>, fillcolor="#f0b890"] ;
566 -> 600 ;
601 [label=<squared_error = 0.0<br/>samples = 1<br/>value = 175825.302>, fillcolor="#f0b68d"] ;
600 -> 601 ;
602 [label=<squared_error = 0.0<br/>samples = 1<br/>value = 166588.472>, fillcolor="#f1ba93"] ;
600 -> 602 ;
603 [label=<Продано нежилых, руб &le; 2.314<br/>squared_error = 404769627.708<br/>samples = 3<br/>value = 176680.406>, fillcolor="#f0b68d"] ;
565 -> 603 ;
604 [label=<squared_error = 0.0<br/>samples = 1<br/>value = 202027.959>, fillcolor="#eeac7c"] ;
603 -> 604 ;
605 [label=<Грузовых лифтов в доме &le; 1.526<br/>squared_error = 125280623.657<br/>samples = 2<br/>value = 164006.63>, fillcolor="#f1bb95"] ;
603 -> 605 ;
606 [label=<squared_error = 0.0<br/>samples = 1<br/>value = 175199.512>, fillcolor="#f0b78d"] ;
605 -> 606 ;
607 [label=<squared_error = 0.0<br/>samples = 1<br/>value = 152813.747>, fillcolor="#f2c09c"] ;
605 -> 607 ;
608 [label=<Месяц_6 &le; 0.5<br/>squared_error = 37629590.587<br/>samples = 4<br/>value = 136564.541>, fillcolor="#f3c7a7"] ;
564 -> 608 ;
609 [label=<Продано квартир, шт &le; 1.327<br/>squared_error = 5401096.493<br/>samples = 3<br/>value = 139910.124>, fillcolor="#f3c5a4"] ;
608 -> 609 ;
610 [label=<Месяц_10 &le; 0.5<br/>squared_error = 90333.728<br/>samples = 2<br/>value = 141544.271>, fillcolor="#f3c5a3"] ;
609 -> 610 ;
611 [label=<squared_error = 0.0<br/>samples = 1<br/>value = 141844.826>, fillcolor="#f3c5a3"] ;
610 -> 611 ;
612 [label=<squared_error = 0.0<br/>samples = 1<br/>value = 141243.715>, fillcolor="#f3c5a3"] ;
610 -> 612 ;
613 [label=<squared_error = -0.0<br/>samples = 1<br/>value = 136641.829>, fillcolor="#f3c7a6"] ;
609 -> 613 ;
614 [label=<squared_error = -0.0<br/>samples = 1<br/>value = 126527.793>, fillcolor="#f4cbad"] ;
608 -> 614 ;
615 [label=<squared_error = 0.001<br/>samples = 1<br/>value = 0.0>, fillcolor="#ffffff"] ;
335 -> 615 ;
616 [label=<Есть площадки для собак &le; 0.5<br/>squared_error = 3934398627.99<br/>samples = 10<br/>value = 87349.587>, fillcolor="#f8dbc6"] ;
334 -> 616 ;
617 [label=<Всего парковочных мест &le; 0.102<br/>squared_error = 291261338.452<br/>samples = 6<br/>value = 135582.645>, fillcolor="#f3c7a7"] ;
616 -> 617 ;
618 [label=<squared_error = 0.0<br/>samples = 1<br/>value = 105721.313>, fillcolor="#f6d3ba"] ;
617 -> 618 ;
619 [label=<Месяц_5 &le; 0.5<br/>squared_error = 135505815.924<br/>samples = 5<br/>value = 141554.911>, fillcolor="#f3c5a3"] ;
617 -> 619 ;
620 [label=<Месяц_2 &le; 0.5<br/>squared_error = 79652260.242<br/>samples = 4<br/>value = 137318.639>, fillcolor="#f3c6a6"] ;
619 -> 620 ;
621 [label=<Месяц_4 &le; 0.5<br/>squared_error = 58881096.55<br/>samples = 3<br/>value = 140758.186>, fillcolor="#f3c5a4"] ;
620 -> 621 ;
622 [label=<Месяц_8 &le; 0.5<br/>squared_error = 1250414.035<br/>samples = 2<br/>value = 146145.554>, fillcolor="#f3c3a0"] ;
621 -> 622 ;
623 [label=<squared_error = 0.0<br/>samples = 1<br/>value = 145027.335>, fillcolor="#f3c3a1"] ;
622 -> 623 ;
624 [label=<squared_error = 0.0<br/>samples = 1<br/>value = 147263.774>, fillcolor="#f2c2a0"] ;
622 -> 624 ;
625 [label=<squared_error = -0.0<br/>samples = 1<br/>value = 129983.448>, fillcolor="#f4c9ab"] ;
621 -> 625 ;
626 [label=<squared_error = 0.0<br/>samples = 1<br/>value = 127000.0>, fillcolor="#f4cbad"] ;
620 -> 626 ;
627 [label=<squared_error = 0.0<br/>samples = 1<br/>value = 158500.0>, fillcolor="#f2be98"] ;
619 -> 627 ;
628 [label=<Площадь коммерческих помещений &le; 2.388<br/>squared_error = 675000000.0<br/>samples = 4<br/>value = 15000.0>, fillcolor="#fef9f5"] ;
616 -> 628 ;
629 [label=<squared_error = 0.0<br/>samples = 3<br/>value = 0.0>, fillcolor="#ffffff"] ;
628 -> 629 ;
630 [label=<squared_error = 0.0<br/>samples = 1<br/>value = 60000.0>, fillcolor="#fae6d8"] ;
628 -> 630 ;
631 [label=<Расстояние до ближайшего строения &le; -0.363<br/>squared_error = 752778053.989<br/>samples = 250<br/>value = 152001.394>, fillcolor="#f2c09d"] ;
331 -> 631 ;
632 [label=<Общая площадь земельного участка &le; -0.426<br/>squared_error = 661315137.477<br/>samples = 143<br/>value = 163388.293>, fillcolor="#f1bc95"] ;
631 -> 632 ;
633 [label=<Инфраструктура: Продукты &le; -0.409<br/>squared_error = 492822897.173<br/>samples = 95<br/>value = 171957.03>, fillcolor="#f0b890"] ;
632 -> 633 ;
634 [label=<Широта &le; 1.187<br/>squared_error = 362365305.292<br/>samples = 31<br/>value = 155757.134>, fillcolor="#f2bf9a"] ;
633 -> 634 ;
635 [label=<Месяц_5 &le; 0.5<br/>squared_error = 275992215.229<br/>samples = 28<br/>value = 159110.355>, fillcolor="#f1bd98"] ;
634 -> 635 ;
636 [label=<Месяц_8 &le; 0.5<br/>squared_error = 230122346.012<br/>samples = 24<br/>value = 156179.278>, fillcolor="#f2bf9a"] ;
635 -> 636 ;
637 [label=<Месяц_4 &le; 0.5<br/>squared_error = 215383632.696<br/>samples = 20<br/>value = 153292.497>, fillcolor="#f2c09c"] ;
636 -> 637 ;
638 [label=<Продано квартир, шт &le; -0.56<br/>squared_error = 182156067.281<br/>samples = 15<br/>value = 148698.56>, fillcolor="#f2c29f"] ;
637 -> 638 ;
639 [label=<Месяц_1 &le; 0.5<br/>squared_error = 98874263.452<br/>samples = 3<br/>value = 133215.408>, fillcolor="#f4c8a9"] ;
638 -> 639 ;
640 [label=<Площадь спортивных площадок &le; -1.048<br/>squared_error = 35127998.103<br/>samples = 2<br/>value = 127073.112>, fillcolor="#f4cbad"] ;
639 -> 640 ;
641 [label=<squared_error = 0.0<br/>samples = 1<br/>value = 121146.225>, fillcolor="#f5cdb0"] ;
640 -> 641 ;
642 [label=<squared_error = 0.0<br/>samples = 1<br/>value = 133000.0>, fillcolor="#f4c8a9"] ;
640 -> 642 ;
643 [label=<squared_error = -0.0<br/>samples = 1<br/>value = 145500.0>, fillcolor="#f3c3a1"] ;
639 -> 643 ;
644 [label=<Месяц_7 &le; 0.5<br/>squared_error = 128061523.56<br/>samples = 12<br/>value = 152569.348>, fillcolor="#f2c09c"] ;
638 -> 644 ;
645 [label=<Месяц_3 &le; 0.5<br/>squared_error = 95622247.371<br/>samples = 9<br/>value = 149062.078>, fillcolor="#f2c29e"] ;
644 -> 645 ;
646 [label=<Продано квартир, шт &le; 0.034<br/>squared_error = 33055471.535<br/>samples = 6<br/>value = 143780.331>, fillcolor="#f3c4a2"] ;
645 -> 646 ;
647 [label=<Есть магистральные дороги 100м &le; 0.5<br/>squared_error = 5448823.19<br/>samples = 3<br/>value = 148420.672>, fillcolor="#f2c29f"] ;
646 -> 647 ;
648 [label=<Самая низкая точка 250м &le; -0.437<br/>squared_error = 1326152.934<br/>samples = 2<br/>value = 149931.42>, fillcolor="#f2c19e"] ;
647 -> 648 ;
649 [label=<squared_error = 0.0<br/>samples = 1<br/>value = 151083.007>, fillcolor="#f2c19d"] ;
648 -> 649 ;
650 [label=<squared_error = 0.0<br/>samples = 1<br/>value = 148779.833>, fillcolor="#f2c29f"] ;
648 -> 650 ;
651 [label=<squared_error = -0.0<br/>samples = 1<br/>value = 145399.175>, fillcolor="#f3c3a1"] ;
647 -> 651 ;
652 [label=<Продано квартир, шт &le; 0.251<br/>squared_error = 17596589.594<br/>samples = 3<br/>value = 139139.99>, fillcolor="#f3c6a5"] ;
646 -> 652 ;
653 [label=<squared_error = 0.0<br/>samples = 1<br/>value = 133208.968>, fillcolor="#f4c8a9"] ;
652 -> 653 ;
654 [label=<Есть магистральные дороги 100м &le; 0.5<br/>squared_error = 12125.73<br/>samples = 2<br/>value = 142105.5>, fillcolor="#f3c4a3"] ;
652 -> 654 ;
655 [label=<squared_error = 0.0<br/>samples = 1<br/>value = 141995.383>, fillcolor="#f3c4a3"] ;
654 -> 655 ;
656 [label=<squared_error = -0.0<br/>samples = 1<br/>value = 142215.617>, fillcolor="#f3c4a3"] ;
654 -> 656 ;
657 [label=<Расстояние по навигатору до: Вторая речка &le; -0.071<br/>squared_error = 53374676.314<br/>samples = 3<br/>value = 159625.572>, fillcolor="#f1bd98"] ;
645 -> 657 ;
658 [label=<squared_error = 0.0<br/>samples = 1<br/>value = 149299.274>, fillcolor="#f2c19e"] ;
657 -> 658 ;
659 [label=<Продано квартир, шт &le; 0.22<br/>squared_error = 87687.071<br/>samples = 2<br/>value = 164788.721>, fillcolor="#f1bb94"] ;
657 -> 659 ;
660 [label=<squared_error = 0.0<br/>samples = 1<br/>value = 164492.601>, fillcolor="#f1bb94"] ;
659 -> 660 ;
661 [label=<squared_error = -0.0<br/>samples = 1<br/>value = 165084.842>, fillcolor="#f1bb94"] ;
659 -> 661 ;
662 [label=<Площадь детских площадок &le; -1.043<br/>squared_error = 77768056.043<br/>samples = 3<br/>value = 163091.157>, fillcolor="#f1bc95"] ;
644 -> 662 ;
663 [label=<squared_error = 0.0<br/>samples = 1<br/>value = 175527.08>, fillcolor="#f0b78d"] ;
662 -> 663 ;
664 [label=<Пассажирских лифтов в доме &le; 0.017<br/>squared_error = 662941.83<br/>samples = 2<br/>value = 156873.195>, fillcolor="#f2be99"] ;
662 -> 664 ;
665 [label=<squared_error = 0.0<br/>samples = 1<br/>value = 157687.408>, fillcolor="#f2be99"] ;
664 -> 665 ;
666 [label=<squared_error = -0.0<br/>samples = 1<br/>value = 156058.983>, fillcolor="#f2bf9a"] ;
664 -> 666 ;
667 [label=<Продано квартир, шт &le; -0.415<br/>squared_error = 61815226.62<br/>samples = 5<br/>value = 167074.308>, fillcolor="#f1ba93"] ;
637 -> 667 ;
668 [label=<Количество четырехкомнатных квартир &le; -0.527<br/>squared_error = 3455980.667<br/>samples = 3<br/>value = 161301.0>, fillcolor="#f1bc96"] ;
667 -> 668 ;
669 [label=<squared_error = 0.0<br/>samples = 1<br/>value = 158676.0>, fillcolor="#f1be98"] ;
668 -> 669 ;
670 [label=<Самая высокая точка 250м &le; 0.146<br/>squared_error = 16002.25<br/>samples = 2<br/>value = 162613.5>, fillcolor="#f1bc96"] ;
668 -> 670 ;
671 [label=<squared_error = 0.0<br/>samples = 1<br/>value = 162740.0>, fillcolor="#f1bc96"] ;
670 -> 671 ;
672 [label=<squared_error = 0.0<br/>samples = 1<br/>value = 162487.0>, fillcolor="#f1bc96"] ;
670 -> 672 ;
673 [label=<Пассажирских лифтов в доме &le; 0.017<br/>squared_error = 24362510.123<br/>samples = 2<br/>value = 175734.271>, fillcolor="#f0b78d"] ;
667 -> 673 ;
674 [label=<squared_error = 0.0<br/>samples = 1<br/>value = 180670.11>, fillcolor="#f0b48a"] ;
673 -> 674 ;
675 [label=<squared_error = -0.0<br/>samples = 1<br/>value = 170798.432>, fillcolor="#f0b990"] ;
673 -> 675 ;
676 [label=<Количество однокомнатных квартир &le; -0.848<br/>squared_error = 53810820.244<br/>samples = 4<br/>value = 170613.181>, fillcolor="#f0b990"] ;
636 -> 676 ;
677 [label=<Количество однокомнатных квартир &le; -0.903<br/>squared_error = 15342510.584<br/>samples = 3<br/>value = 166858.01>, fillcolor="#f1ba93"] ;
676 -> 677 ;
678 [label=<Пассажирских лифтов в доме &le; 0.017<br/>squared_error = 385091.665<br/>samples = 2<br/>value = 169604.442>, fillcolor="#f1b991"] ;
677 -> 678 ;
679 [label=<squared_error = 0.0<br/>samples = 1<br/>value = 170225.0>, fillcolor="#f1b991"] ;
678 -> 679 ;
680 [label=<squared_error = 0.0<br/>samples = 1<br/>value = 168983.885>, fillcolor="#f1b991"] ;
678 -> 680 ;
681 [label=<squared_error = -0.0<br/>samples = 1<br/>value = 161365.145>, fillcolor="#f1bc96"] ;
677 -> 681 ;
682 [label=<squared_error = -0.0<br/>samples = 1<br/>value = 181878.696>, fillcolor="#f0b489"] ;
676 -> 682 ;
683 [label=<Количество четырехкомнатных квартир &le; -0.249<br/>squared_error = 190380494.964<br/>samples = 4<br/>value = 176696.817>, fillcolor="#f0b68c"] ;
635 -> 683 ;
684 [label=<Всего парковочных мест &le; -0.833<br/>squared_error = 53570524.22<br/>samples = 3<br/>value = 183772.659>, fillcolor="#efb388"] ;
683 -> 684 ;
685 [label=<Количество четырехкомнатных квартир &le; -0.527<br/>squared_error = 8684482.355<br/>samples = 2<br/>value = 178884.874>, fillcolor="#f0b58b"] ;
684 -> 685 ;
686 [label=<squared_error = 0.0<br/>samples = 1<br/>value = 181831.819>, fillcolor="#f0b489"] ;
685 -> 686 ;
687 [label=<squared_error = 0.0<br/>samples = 1<br/>value = 175937.93>, fillcolor="#f0b68d"] ;
685 -> 687 ;
688 [label=<squared_error = 0.0<br/>samples = 1<br/>value = 193548.227>, fillcolor="#efaf82"] ;
684 -> 688 ;
689 [label=<squared_error = -0.0<br/>samples = 1<br/>value = 155469.292>, fillcolor="#f2bf9a"] ;
683 -> 689 ;
690 [label=<Продано нежилых, шт &le; 0.622<br/>squared_error = 84084424.793<br/>samples = 3<br/>value = 124460.411>, fillcolor="#f4ccae"] ;
634 -> 690 ;
691 [label=<Месяц_5 &le; 0.5<br/>squared_error = 21465199.74<br/>samples = 2<br/>value = 130366.945>, fillcolor="#f4c9ab"] ;
690 -> 691 ;
692 [label=<squared_error = 0.0<br/>samples = 1<br/>value = 135000.0>, fillcolor="#f4c7a8"] ;
691 -> 692 ;
693 [label=<squared_error = 0.0<br/>samples = 1<br/>value = 125733.89>, fillcolor="#f4cbae"] ;
691 -> 693 ;
694 [label=<squared_error = 0.0<br/>samples = 1<br/>value = 112647.342>, fillcolor="#f5d1b6"] ;
690 -> 694 ;
695 [label=<Месяц_8 &le; 0.5<br/>squared_error = 367322906.791<br/>samples = 64<br/>value = 179803.854>, fillcolor="#f0b58a"] ;
633 -> 695 ;
696 [label=<Продано квартир, шт &le; -0.56<br/>squared_error = 336390792.209<br/>samples = 55<br/>value = 176724.174>, fillcolor="#f0b68c"] ;
695 -> 696 ;
697 [label=<Продано нежилых, руб &le; 0.8<br/>squared_error = 330208650.407<br/>samples = 9<br/>value = 196141.444>, fillcolor="#eeae80"] ;
696 -> 697 ;
698 [label=<Количество двухкомнатных квартир &le; -0.567<br/>squared_error = 230693658.799<br/>samples = 8<br/>value = 200096.624>, fillcolor="#eeac7d"] ;
697 -> 698 ;
699 [label=<Уехать без пересадок: Кампус ДВФУ &le; 0.5<br/>squared_error = 61796130.742<br/>samples = 2<br/>value = 217653.5>, fillcolor="#eca572"] ;
698 -> 699 ;
700 [label=<squared_error = 0.0<br/>samples = 1<br/>value = 225514.552>, fillcolor="#eca26d"] ;
699 -> 700 ;
701 [label=<squared_error = 0.0<br/>samples = 1<br/>value = 209792.449>, fillcolor="#eda877"] ;
699 -> 701 ;
702 [label=<Месяц_3 &le; 0.5<br/>squared_error = 149995550.679<br/>samples = 6<br/>value = 194244.332>, fillcolor="#eeaf81"] ;
698 -> 702 ;
703 [label=<Тип фасада_панель &le; 0.5<br/>squared_error = 124221140.835<br/>samples = 5<br/>value = 197293.199>, fillcolor="#eeae7f"] ;
702 -> 703 ;
704 [label=<Широта &le; -0.271<br/>squared_error = 20391227.556<br/>samples = 3<br/>value = 205515.091>, fillcolor="#eeaa7a"] ;
703 -> 704 ;
705 [label=<Месяц_6 &le; 0.5<br/>squared_error = 2402500.0<br/>samples = 2<br/>value = 202450.0>, fillcolor="#eeac7c"] ;
704 -> 705 ;
706 [label=<squared_error = 0.0<br/>samples = 1<br/>value = 204000.0>, fillcolor="#eeab7b"] ;
705 -> 706 ;
707 [label=<squared_error = 0.0<br/>samples = 1<br/>value = 200900.0>, fillcolor="#eeac7d"] ;
705 -> 707 ;
708 [label=<squared_error = -0.0<br/>samples = 1<br/>value = 211645.272>, fillcolor="#eda876"] ;
704 -> 708 ;
709 [label=<Месяц_6 &le; 0.5<br/>squared_error = 26467863.131<br/>samples = 2<br/>value = 184960.361>, fillcolor="#efb387"] ;
703 -> 709 ;
710 [label=<squared_error = 0.0<br/>samples = 1<br/>value = 179815.668>, fillcolor="#f0b58a"] ;
709 -> 710 ;
711 [label=<squared_error = 0.0<br/>samples = 1<br/>value = 190105.054>, fillcolor="#efb184"] ;
709 -> 711 ;
712 [label=<squared_error = 0.0<br/>samples = 1<br/>value = 179000.0>, fillcolor="#f0b58b"] ;
702 -> 712 ;
713 [label=<squared_error = 0.0<br/>samples = 1<br/>value = 164500.0>, fillcolor="#f1bb94"] ;
697 -> 713 ;
714 [label=<Количество трехкомнатных квартир &le; 0.959<br/>squared_error = 249400890.043<br/>samples = 46<br/>value = 172925.142>, fillcolor="#f0b88f"] ;
696 -> 714 ;
715 [label=<Расстояние по навигатору до: Центр &le; -0.889<br/>squared_error = 167554410.286<br/>samples = 21<br/>value = 179591.16>, fillcolor="#f0b58b"] ;
714 -> 715 ;
716 [label=<Месяц_7 &le; 0.5<br/>squared_error = 3748168.655<br/>samples = 2<br/>value = 196376.311>, fillcolor="#eeae80"] ;
715 -> 716 ;
717 [label=<squared_error = 0.0<br/>samples = 1<br/>value = 194440.292>, fillcolor="#eeaf81"] ;
716 -> 717 ;
718 [label=<squared_error = 0.0<br/>samples = 1<br/>value = 198312.329>, fillcolor="#eead7e"] ;
716 -> 718 ;
719 [label=<Месяц_7 &le; 0.5<br/>squared_error = 152018407.417<br/>samples = 19<br/>value = 177824.302>, fillcolor="#f0b68c"] ;
715 -> 719 ;
720 [label=<Месяц_11 &le; 0.5<br/>squared_error = 65394444.244<br/>samples = 17<br/>value = 180298.984>, fillcolor="#f0b58a"] ;
719 -> 720 ;
721 [label=<Месяц_6 &le; 0.5<br/>squared_error = 61078546.118<br/>samples = 15<br/>value = 181537.011>, fillcolor="#f0b489"] ;
720 -> 721 ;
722 [label=<Месяц_1 &le; 0.5<br/>squared_error = 51481456.402<br/>samples = 14<br/>value = 182501.717>, fillcolor="#efb489"] ;
721 -> 722 ;
723 [label=<Месяц_5 &le; 0.5<br/>squared_error = 38132373.723<br/>samples = 11<br/>value = 184517.956>, fillcolor="#efb387"] ;
722 -> 723 ;
724 [label=<Продано нежилых, руб &le; 0.817<br/>squared_error = 33602257.609<br/>samples = 10<br/>value = 183647.045>, fillcolor="#efb388"] ;
723 -> 724 ;
725 [label=<Количество квартир на этаже &le; -0.477<br/>squared_error = 26140287.327<br/>samples = 9<br/>value = 182588.954>, fillcolor="#efb489"] ;
724 -> 725 ;
726 [label=<squared_error = 0.0<br/>samples = 1<br/>value = 178831.236>, fillcolor="#f0b58b"] ;
725 -> 726 ;
727 [label=<Продано квартир, шт &le; 0.251<br/>squared_error = 27422134.997<br/>samples = 8<br/>value = 183058.669>, fillcolor="#efb488"] ;
725 -> 727 ;
728 [label=<Есть квартиры без отделки &le; 0.5<br/>squared_error = 35326851.724<br/>samples = 4<br/>value = 184769.457>, fillcolor="#efb387"] ;
727 -> 728 ;
729 [label=<squared_error = 0.0<br/>samples = 1<br/>value = 190169.207>, fillcolor="#efb184"] ;
728 -> 729 ;
730 [label=<Месяц_3 &le; 0.5<br/>squared_error = 34143666.879<br/>samples = 3<br/>value = 182969.54>, fillcolor="#efb488"] ;
728 -> 730 ;
731 [label=<Месяц_2 &le; 0.5<br/>squared_error = 7388844.138<br/>samples = 2<br/>value = 186791.697>, fillcolor="#efb286"] ;
730 -> 731 ;
732 [label=<squared_error = 0.0<br/>samples = 1<br/>value = 184073.455>, fillcolor="#efb388"] ;
731 -> 732 ;
733 [label=<squared_error = 0.0<br/>samples = 1<br/>value = 189509.94>, fillcolor="#efb184"] ;
731 -> 733 ;
734 [label=<squared_error = -0.0<br/>samples = 1<br/>value = 175325.226>, fillcolor="#f0b78d"] ;
730 -> 734 ;
735 [label=<Разнообразие общественного транспорта 1000м &le; 0.055<br/>squared_error = 13663828.435<br/>samples = 4<br/>value = 181347.881>, fillcolor="#f0b489"] ;
727 -> 735 ;
736 [label=<squared_error = 0.0<br/>samples = 1<br/>value = 175100.494>, fillcolor="#f0b78e"] ;
735 -> 736 ;
737 [label=<Месяц_4 &le; 0.5<br/>squared_error = 871839.411<br/>samples = 3<br/>value = 183430.344>, fillcolor="#efb388"] ;
735 -> 737 ;
738 [label=<Инфраструктура: Супермаркеты &le; 1.708<br/>squared_error = 144814.498<br/>samples = 2<br/>value = 182807.73>, fillcolor="#efb489"] ;
737 -> 738 ;
739 [label=<squared_error = 0.0<br/>samples = 1<br/>value = 183188.275>, fillcolor="#efb388"] ;
738 -> 739 ;
740 [label=<squared_error = -0.0<br/>samples = 1<br/>value = 182427.185>, fillcolor="#efb489"] ;
738 -> 740 ;
741 [label=<squared_error = -0.0<br/>samples = 1<br/>value = 184675.572>, fillcolor="#efb387"] ;
737 -> 741 ;
742 [label=<squared_error = -0.0<br/>samples = 1<br/>value = 193169.859>, fillcolor="#efaf82"] ;
724 -> 742 ;
743 [label=<squared_error = -0.0<br/>samples = 1<br/>value = 193227.07>, fillcolor="#efaf82"] ;
723 -> 743 ;
744 [label=<Долгота &le; -0.223<br/>squared_error = 30867629.244<br/>samples = 3<br/>value = 175108.838>, fillcolor="#f0b78e"] ;
722 -> 744 ;
745 [label=<squared_error = 0.0<br/>samples = 1<br/>value = 182599.171>, fillcolor="#efb489"] ;
744 -> 745 ;
746 [label=<Количество четырехкомнатных квартир &le; -0.388<br/>squared_error = 4222629.783<br/>samples = 2<br/>value = 171363.672>, fillcolor="#f0b890"] ;
744 -> 746 ;
747 [label=<squared_error = 0.0<br/>samples = 1<br/>value = 173418.576>, fillcolor="#f0b78f"] ;
746 -> 747 ;
748 [label=<squared_error = -0.0<br/>samples = 1<br/>value = 169308.768>, fillcolor="#f1b991"] ;
746 -> 748 ;
749 [label=<squared_error = 0.0<br/>samples = 1<br/>value = 168031.138>, fillcolor="#f1ba92"] ;
721 -> 749 ;
750 [label=<Есть железная дорога 250м &le; 0.5<br/>squared_error = 53333.235<br/>samples = 2<br/>value = 171013.78>, fillcolor="#f0b890"] ;
720 -> 750 ;
751 [label=<squared_error = 0.0<br/>samples = 1<br/>value = 170782.84>, fillcolor="#f0b990"] ;
750 -> 751 ;
752 [label=<squared_error = 0.0<br/>samples = 1<br/>value = 171244.72>, fillcolor="#f0b890"] ;
750 -> 752 ;
753 [label=<Продано квартир, шт &le; 0.152<br/>squared_error = 393804735.597<br/>samples = 2<br/>value = 156789.5>, fillcolor="#f2be99"] ;
719 -> 753 ;
754 [label=<squared_error = 0.0<br/>samples = 1<br/>value = 136944.986>, fillcolor="#f3c7a6"] ;
753 -> 754 ;
755 [label=<squared_error = -0.0<br/>samples = 1<br/>value = 176634.014>, fillcolor="#f0b68d"] ;
753 -> 755 ;
756 [label=<Месяц_7 &le; 0.5<br/>squared_error = 249471981.45<br/>samples = 25<br/>value = 167325.688>, fillcolor="#f1ba93"] ;
714 -> 756 ;
757 [label=<Месяц_11 &le; 0.5<br/>squared_error = 176477311.555<br/>samples = 23<br/>value = 164609.273>, fillcolor="#f1bb94"] ;
756 -> 757 ;
758 [label=<Месяц_1 &le; 0.5<br/>squared_error = 178504747.296<br/>samples = 19<br/>value = 167048.462>, fillcolor="#f1ba93"] ;
757 -> 758 ;
759 [label=<Продано квартир, шт &le; 0.034<br/>squared_error = 106657507.305<br/>samples = 15<br/>value = 169640.958>, fillcolor="#f1b991"] ;
758 -> 759 ;
760 [label=<Месяц_12 &le; 0.5<br/>squared_error = 127642028.085<br/>samples = 3<br/>value = 179004.119>, fillcolor="#f0b58b"] ;
759 -> 760 ;
761 [label=<Продано квартир, шт &le; -0.229<br/>squared_error = 18064398.929<br/>samples = 2<br/>value = 171401.518>, fillcolor="#f0b890"] ;
760 -> 761 ;
762 [label=<squared_error = 0.0<br/>samples = 1<br/>value = 175651.741>, fillcolor="#f0b78d"] ;
761 -> 762 ;
763 [label=<squared_error = 0.0<br/>samples = 1<br/>value = 167151.294>, fillcolor="#f1ba93"] ;
761 -> 763 ;
764 [label=<squared_error = -0.0<br/>samples = 1<br/>value = 194209.322>, fillcolor="#eeaf81"] ;
760 -> 764 ;
765 [label=<Месяц_12 &le; 0.5<br/>squared_error = 74014883.102<br/>samples = 12<br/>value = 167300.168>, fillcolor="#f1ba93"] ;
759 -> 765 ;
766 [label=<Продано нежилых, руб &le; 2.007<br/>squared_error = 54242403.378<br/>samples = 9<br/>value = 170623.706>, fillcolor="#f0b990"] ;
765 -> 766 ;
767 [label=<Месяц_3 &le; 0.5<br/>squared_error = 34695537.275<br/>samples = 7<br/>value = 167896.172>, fillcolor="#f1ba92"] ;
766 -> 767 ;
768 [label=<Продано нежилых, шт &le; 0.622<br/>squared_error = 17425016.717<br/>samples = 6<br/>value = 166081.426>, fillcolor="#f1bb93"] ;
767 -> 768 ;
769 [label=<Продано квартир, шт &le; 0.514<br/>squared_error = 10577503.16<br/>samples = 5<br/>value = 167393.709>, fillcolor="#f1ba93"] ;
768 -> 769 ;
770 [label=<squared_error = 0.0<br/>samples = 1<br/>value = 171942.273>, fillcolor="#f0b890"] ;
769 -> 770 ;
771 [label=<Продано квартир, шт &le; 0.807<br/>squared_error = 6756431.802<br/>samples = 4<br/>value = 166256.568>, fillcolor="#f1ba93"] ;
769 -> 771 ;
772 [label=<Гостевых мест &le; -0.129<br/>squared_error = 2175679.321<br/>samples = 2<br/>value = 163886.17>, fillcolor="#f1bb95"] ;
771 -> 772 ;
773 [label=<squared_error = 0.0<br/>samples = 1<br/>value = 165361.189>, fillcolor="#f1bb94"] ;
772 -> 773 ;
