digraph Tree {
node [shape=box, style="filled, rounded", color="black", fontname="helvetica"] ;
edge [fontname="helvetica"] ;
0 [label=<Видеонаблюдение во дворе &le; -0.303<br/>squared_error = 1261850867.703<br/>samples = 820<br/>value = 140224.859>, fillcolor="#f6d2b9"] ;
1 [label=<Площадь детских площадок &le; 1.122<br/>squared_error = 654273465.639<br/>samples = 291<br/>value = 117245.144>, fillcolor="#f8ddca"] ;
0 -> 1 [labeldistance=2.5, labelangle=45, headlabel="True"] ;
2 [label=<Тип дома_панель &le; 1.929<br/>squared_error = 281692616.338<br/>samples = 254<br/>value = 111223.093>, fillcolor="#f9e0cf"] ;
1 -> 2 ;
3 [label=<Общая площадь земельного участка &le; -0.183<br/>squared_error = 209326900.219<br/>samples = 208<br/>value = 115097.556>, fillcolor="#f8dfcc"] ;
2 -> 3 ;
4 [label=<Общая площадь квартир &le; -0.085<br/>squared_error = 109093377.32<br/>samples = 137<br/>value = 119671.19>, fillcolor="#f8dcc8"] ;
3 -> 4 ;
5 [label=<Статус_сдан &le; 1.417<br/>squared_error = 77564760.264<br/>samples = 60<br/>value = 115577.855>, fillcolor="#f8decc"] ;
4 -> 5 ;
6 [label=<Месяц_8 &le; 1.29<br/>squared_error = 65613230.577<br/>samples = 56<br/>value = 116459.198>, fillcolor="#f8decb"] ;
5 -> 6 ;
7 [label=<Основной материал фасада_пластик &le; 1.322<br/>squared_error = 51626091.96<br/>samples = 52<br/>value = 117400.179>, fillcolor="#f8ddca"] ;
6 -> 7 ;
8 [label=<Месяц_5 &le; 1.443<br/>squared_error = 46009778.132<br/>samples = 49<br/>value = 116692.065>, fillcolor="#f8decb"] ;
7 -> 8 ;
9 [label=<Продано квартир, шт &le; -1.142<br/>squared_error = 40878556.878<br/>samples = 44<br/>value = 115923.227>, fillcolor="#f8decb"] ;
8 -> 9 ;
10 [label=<Общая площадь земельного участка &le; -1.032<br/>squared_error = 42844005.809<br/>samples = 11<br/>value = 112270.376>, fillcolor="#f9e0ce"] ;
9 -> 10 ;
11 [label=<squared_error = 0.0<br/>samples = 1<br/>value = 100000.0>, fillcolor="#fae6d8"] ;
10 -> 11 ;
12 [label=<Месяц_3 &le; 1.29<br/>squared_error = 30566571.537<br/>samples = 10<br/>value = 113497.414>, fillcolor="#f8dfcd"] ;
10 -> 12 ;
13 [label=<Месяц_11 &le; 1.929<br/>squared_error = 22826947.169<br/>samples = 9<br/>value = 114552.682>, fillcolor="#f8dfcc"] ;
12 -> 13 ;
14 [label=<Количество однокомнатных квартир &le; -1.222<br/>squared_error = 14618246.9<br/>samples = 8<br/>value = 115661.338>, fillcolor="#f8decc"] ;
13 -> 14 ;
15 [label=<squared_error = 0.0<br/>samples = 1<br/>value = 110000.0>, fillcolor="#f9e1d0"] ;
14 -> 15 ;
16 [label=<Месяц_4 &le; 1.3<br/>squared_error = 11473791.887<br/>samples = 7<br/>value = 116470.101>, fillcolor="#f8decb"] ;
14 -> 16 ;
17 [label=<Расстояние по навигатору до: Окатовая &le; 0.154<br/>squared_error = 6026521.542<br/>samples = 6<br/>value = 117495.463>, fillcolor="#f8ddca"] ;
16 -> 17 ;
18 [label=<squared_error = 0.0<br/>samples = 2<br/>value = 115000.0>, fillcolor="#f8dfcc"] ;
17 -> 18 ;
19 [label=<Количество домов 250м &le; 2.204<br/>squared_error = 4369280.746<br/>samples = 4<br/>value = 118743.194>, fillcolor="#f8ddc9"] ;
17 -> 19 ;
20 [label=<squared_error = 0.0<br/>samples = 1<br/>value = 121146.225>, fillcolor="#f8dcc7"] ;
19 -> 20 ;
21 [label=<Месяц_7 &le; 1.322<br/>squared_error = 3259239.37<br/>samples = 3<br/>value = 117942.184>, fillcolor="#f8ddca"] ;
19 -> 21 ;
22 [label=<Месяц_6 &le; 1.368<br/>squared_error = 0.0<br/>samples = 2<br/>value = 119218.75>, fillcolor="#f8ddc9"] ;
21 -> 22 ;
23 [label=<squared_error = 0.0<br/>samples = 1<br/>value = 119218.75>, fillcolor="#f8ddc9"] ;
22 -> 23 ;
24 [label=<squared_error = 0.0<br/>samples = 1<br/>value = 119218.75>, fillcolor="#f8ddc9"] ;
22 -> 24 ;
25 [label=<squared_error = 0.0<br/>samples = 1<br/>value = 115389.053>, fillcolor="#f8decc"] ;
21 -> 25 ;
26 [label=<squared_error = 0.0<br/>samples = 1<br/>value = 110317.93>, fillcolor="#f9e1d0"] ;
16 -> 26 ;
27 [label=<squared_error = 0.0<br/>samples = 1<br/>value = 105683.432>, fillcolor="#f9e3d3"] ;
13 -> 27 ;
28 [label=<squared_error = 0.0<br/>samples = 1<br/>value = 104000.0>, fillcolor="#f9e4d5"] ;
12 -> 28 ;
29 [label=<Продано машиномест, шт &le; 0.335<br/>squared_error = 34293044.171<br/>samples = 33<br/>value = 117140.844>, fillcolor="#f8deca"] ;
9 -> 29 ;
30 [label=<Район_баляева &le; 1.857<br/>squared_error = 30239653.683<br/>samples = 20<br/>value = 115306.731>, fillcolor="#f8decc"] ;
29 -> 30 ;
31 [label=<Месяц_4 &le; 1.3<br/>squared_error = 22758501.624<br/>samples = 18<br/>value = 114318.155>, fillcolor="#f8dfcd"] ;
30 -> 31 ;
32 [label=<Площадь спортивных площадок &le; -0.399<br/>squared_error = 20733869.08<br/>samples = 15<br/>value = 115282.468>, fillcolor="#f8decc"] ;
31 -> 32 ;
33 [label=<Месяц_3 &le; 1.29<br/>squared_error = 8844519.306<br/>samples = 7<br/>value = 112851.392>, fillcolor="#f9e0ce"] ;
32 -> 33 ;
34 [label=<Площадь особых площадок &le; 0.473<br/>squared_error = 1802641.181<br/>samples = 5<br/>value = 111349.816>, fillcolor="#f9e0cf"] ;
33 -> 34 ;
35 [label=<Площадь особых площадок &le; -0.178<br/>squared_error = 887373.03<br/>samples = 4<br/>value = 111872.487>, fillcolor="#f9e0ce"] ;
34 -> 35 ;
36 [label=<Продано квартир, шт &le; -0.009<br/>squared_error = 165515.916<br/>samples = 3<br/>value = 111368.095>, fillcolor="#f9e0cf"] ;
35 -> 36 ;
37 [label=<Месяц_6 &le; 1.368<br/>squared_error = 120.229<br/>samples = 2<br/>value = 111655.702>, fillcolor="#f9e0cf"] ;
36 -> 37 ;
38 [label=<squared_error = 0.0<br/>samples = 1<br/>value = 111666.667>, fillcolor="#f9e0cf"] ;
37 -> 38 ;
39 [label=<squared_error = 0.0<br/>samples = 1<br/>value = 111644.737>, fillcolor="#f9e0cf"] ;
37 -> 39 ;
40 [label=<squared_error = 0.0<br/>samples = 1<br/>value = 110792.88>, fillcolor="#f9e1cf"] ;
36 -> 40 ;
41 [label=<squared_error = -0.0<br/>samples = 1<br/>value = 113385.666>, fillcolor="#f8dfcd"] ;
35 -> 41 ;
42 [label=<squared_error = 0.0<br/>samples = 1<br/>value = 109259.129>, fillcolor="#f9e1d0"] ;
34 -> 42 ;
43 [label=<Площадь особых площадок &le; 0.473<br/>squared_error = 6720323.226<br/>samples = 2<br/>value = 116605.332>, fillcolor="#f8decb"] ;
33 -> 43 ;
44 [label=<squared_error = 0.0<br/>samples = 1<br/>value = 119197.69>, fillcolor="#f8ddc9"] ;
43 -> 44 ;
45 [label=<squared_error = -0.0<br/>samples = 1<br/>value = 114012.973>, fillcolor="#f8dfcd"] ;
43 -> 45 ;
46 [label=<Продано квартир, шт &le; -0.757<br/>squared_error = 21440736.459<br/>samples = 8<br/>value = 117409.66>, fillcolor="#f8ddca"] ;
32 -> 46 ;
47 [label=<Месяц_1 &le; 1.43<br/>squared_error = 4869100.214<br/>samples = 2<br/>value = 112793.396>, fillcolor="#f9e0ce"] ;
46 -> 47 ;
48 [label=<squared_error = 0.0<br/>samples = 1<br/>value = 115000.0>, fillcolor="#f8dfcc"] ;
47 -> 48 ;
49 [label=<squared_error = 0.0<br/>samples = 1<br/>value = 110586.792>, fillcolor="#f9e1cf"] ;
47 -> 49 ;
50 [label=<Месяц_6 &le; 1.368<br/>squared_error = 17493550.434<br/>samples = 6<br/>value = 118948.415>, fillcolor="#f8ddc9"] ;
46 -> 50 ;
51 [label=<Продано квартир, шт &le; 0.77<br/>squared_error = 8887026.772<br/>samples = 5<br/>value = 117528.014>, fillcolor="#f8ddca"] ;
50 -> 51 ;
52 [label=<Месяц_10 &le; 2.191<br/>squared_error = 6968732.335<br/>samples = 4<br/>value = 116618.064>, fillcolor="#f8decb"] ;
51 -> 52 ;
53 [label=<Уехать без пересадок: Луговая &le; -0.593<br/>squared_error = 1064253.338<br/>samples = 3<br/>value = 115183.892>, fillcolor="#f8decc"] ;
52 -> 53 ;
54 [label=<squared_error = 0.0<br/>samples = 1<br/>value = 116529.241>, fillcolor="#f8decb"] ;
53 -> 54 ;
55 [label=<Площадь спортивных площадок &le; 0.476<br/>squared_error = 238907.894<br/>samples = 2<br/>value = 114511.218>, fillcolor="#f8dfcc"] ;
53 -> 55 ;
56 [label=<squared_error = 0.0<br/>samples = 1<br/>value = 115000.0>, fillcolor="#f8dfcc"] ;
55 -> 56 ;
57 [label=<squared_error = -0.0<br/>samples = 1<br/>value = 114022.436>, fillcolor="#f8dfcd"] ;
55 -> 57 ;
58 [label=<squared_error = 0.0<br/>samples = 1<br/>value = 120920.578>, fillcolor="#f8dcc7"] ;
52 -> 58 ;
59 [label=<squared_error = 0.0<br/>samples = 1<br/>value = 121167.817>, fillcolor="#f8dcc7"] ;
51 -> 59 ;
60 [label=<squared_error = -0.0<br/>samples = 1<br/>value = 126050.42>, fillcolor="#f7d9c4"] ;
50 -> 60 ;
61 [label=<Количество двухкомнатных квартир &le; -0.72<br/>squared_error = 4984650.664<br/>samples = 3<br/>value = 109496.588>, fillcolor="#f9e1d0"] ;
31 -> 61 ;
62 [label=<Всего парковочных мест &le; -1.253<br/>squared_error = 31534.046<br/>samples = 2<br/>value = 107921.21>, fillcolor="#f9e2d2"] ;
61 -> 62 ;
63 [label=<squared_error = 0.0<br/>samples = 1<br/>value = 107743.632>, fillcolor="#f9e2d2"] ;
62 -> 63 ;
64 [label=<squared_error = 0.0<br/>samples = 1<br/>value = 108098.788>, fillcolor="#f9e2d1"] ;
62 -> 64 ;
65 [label=<squared_error = -0.0<br/>samples = 1<br/>value = 112647.342>, fillcolor="#f9e0ce"] ;
61 -> 65 ;
66 [label=<Продано квартир, шт &le; -0.62<br/>squared_error = 9614568.241<br/>samples = 2<br/>value = 124203.916>, fillcolor="#f7dac5"] ;
30 -> 66 ;
67 [label=<squared_error = 0.0<br/>samples = 1<br/>value = 127304.653>, fillcolor="#f7d9c3"] ;
66 -> 67 ;
68 [label=<squared_error = -0.0<br/>samples = 1<br/>value = 121103.18>, fillcolor="#f8dcc7"] ;
66 -> 68 ;
69 [label=<Продано нежилых, шт &le; 0.46<br/>squared_error = 27391635.335<br/>samples = 13<br/>value = 119962.555>, fillcolor="#f8dcc8"] ;
29 -> 69 ;
70 [label=<Месяц_2 &le; 1.3<br/>squared_error = 19823718.683<br/>samples = 12<br/>value = 120833.035>, fillcolor="#f8dcc8"] ;
69 -> 70 ;
71 [label=<Продано квартир, шт &le; -0.503<br/>squared_error = 12099961.665<br/>samples = 10<br/>value = 119736.048>, fillcolor="#f8dcc8"] ;
70 -> 71 ;
72 [label=<Количество этажей &le; -0.413<br/>squared_error = 6958092.459<br/>samples = 2<br/>value = 125140.18>, fillcolor="#f7dac4"] ;
71 -> 72 ;
73 [label=<squared_error = 0.0<br/>samples = 1<br/>value = 127778.0>, fillcolor="#f7d8c2"] ;
72 -> 73 ;
74 [label=<squared_error = 0.0<br/>samples = 1<br/>value = 122502.361>, fillcolor="#f8dbc6"] ;
72 -> 74 ;
75 [label=<Месяц_12 &le; 1.791<br/>squared_error = 4258975.737<br/>samples = 8<br/>value = 118385.014>, fillcolor="#f8ddc9"] ;
71 -> 75 ;
76 [label=<Месяц_1 &le; 1.43<br/>squared_error = 2409295.303<br/>samples = 6<br/>value = 117510.143>, fillcolor="#f8ddca"] ;
75 -> 76 ;
77 [label=<Количество домов 250м &le; -0.962<br/>squared_error = 1591596.979<br/>samples = 4<br/>value = 116742.063>, fillcolor="#f8decb"] ;
76 -> 77 ;
78 [label=<squared_error = 0.0<br/>samples = 1<br/>value = 114879.808>, fillcolor="#f8dfcc"] ;
77 -> 78 ;
79 [label=<Продано квартир, шт &le; 0.653<br/>squared_error = 580798.113<br/>samples = 3<br/>value = 117362.815>, fillcolor="#f8ddca"] ;
77 -> 79 ;
80 [label=<squared_error = 0.0<br/>samples = 1<br/>value = 118440.511>, fillcolor="#f8ddc9"] ;
79 -> 80 ;
81 [label=<Инфраструктура: Детские сады &le; 0.563<br/>squared_error = 125.001<br/>samples = 2<br/>value = 116823.967>, fillcolor="#f8decb"] ;
79 -> 81 ;
82 [label=<squared_error = 0.0<br/>samples = 1<br/>value = 116835.147>, fillcolor="#f8decb"] ;
81 -> 82 ;
83 [label=<squared_error = 0.0<br/>samples = 1<br/>value = 116812.786>, fillcolor="#f8decb"] ;
81 -> 83 ;
84 [label=<Количество двухкомнатных квартир &le; 0.041<br/>squared_error = 505011.554<br/>samples = 2<br/>value = 119046.303>, fillcolor="#f8ddc9"] ;
76 -> 84 ;
85 [label=<squared_error = 0.0<br/>samples = 1<br/>value = 118335.661>, fillcolor="#f8ddc9"] ;
84 -> 85 ;
86 [label=<squared_error = 0.0<br/>samples = 1<br/>value = 119756.944>, fillcolor="#f8dcc8"] ;
84 -> 86 ;
87 [label=<Площадь детских площадок &le; 0.055<br/>squared_error = 623215.79<br/>samples = 2<br/>value = 121009.629>, fillcolor="#f8dcc7"] ;
75 -> 87 ;
88 [label=<squared_error = 0.0<br/>samples = 1<br/>value = 120220.189>, fillcolor="#f8dcc8"] ;
87 -> 88 ;
89 [label=<squared_error = 0.0<br/>samples = 1<br/>value = 121799.069>, fillcolor="#f8dbc7"] ;
87 -> 89 ;
90 [label=<Количество этажей &le; -0.413<br/>squared_error = 22341062.037<br/>samples = 2<br/>value = 126317.972>, fillcolor="#f7d9c3"] ;
70 -> 90 ;
91 [label=<squared_error = 0.0<br/>samples = 1<br/>value = 121591.339>, fillcolor="#f8dbc7"] ;
90 -> 91 ;
92 [label=<squared_error = 0.0<br/>samples = 1<br/>value = 131044.605>, fillcolor="#f7d7c0"] ;
90 -> 92 ;
93 [label=<squared_error = -0.0<br/>samples = 1<br/>value = 109516.799>, fillcolor="#f9e1d0"] ;
69 -> 93 ;
94 [label=<Подъездов в доме &le; 0.532<br/>squared_error = 40186961.008<br/>samples = 5<br/>value = 123457.845>, fillcolor="#f7dac6"] ;
8 -> 94 ;
95 [label=<Есть велопарковка &le; 0.076<br/>squared_error = 6967172.888<br/>samples = 4<br/>value = 126399.495>, fillcolor="#f7d9c3"] ;
94 -> 95 ;
96 [label=<squared_error = 0.0<br/>samples = 1<br/>value = 130556.186>, fillcolor="#f7d7c0"] ;
95 -> 96 ;
97 [label=<Площадь особых площадок &le; 0.473<br/>squared_error = 1610416.771<br/>samples = 3<br/>value = 125013.931>, fillcolor="#f7dac4"] ;
95 -> 97 ;
98 [label=<Основной материал фасада_камень &le; 2.565<br/>squared_error = 29540.027<br/>samples = 2<br/>value = 125905.762>, fillcolor="#f7d9c4"] ;
97 -> 98 ;
99 [label=<squared_error = 0.0<br/>samples = 1<br/>value = 125733.89>, fillcolor="#f7d9c4"] ;
98 -> 99 ;
100 [label=<squared_error = 0.0<br/>samples = 1<br/>value = 126077.634>, fillcolor="#f7d9c4"] ;
98 -> 100 ;
101 [label=<squared_error = 0.0<br/>samples = 1<br/>value = 123230.27>, fillcolor="#f7dbc6"] ;
97 -> 101 ;
102 [label=<squared_error = -0.0<br/>samples = 1<br/>value = 111691.244>, fillcolor="#f9e0cf"] ;
94 -> 102 ;
103 [label=<Месяц_6 &le; 1.368<br/>squared_error = 1400394.757<br/>samples = 3<br/>value = 128966.029>, fillcolor="#f7d8c1"] ;
7 -> 103 ;
104 [label=<Количество студий &le; -0.55<br/>squared_error = 488661.595<br/>samples = 2<br/>value = 129699.043>, fillcolor="#f7d7c1"] ;
103 -> 104 ;
105 [label=<squared_error = 0.0<br/>samples = 1<br/>value = 130398.087>, fillcolor="#f7d7c0"] ;
104 -> 105 ;
106 [label=<squared_error = 0.0<br/>samples = 1<br/>value = 129000.0>, fillcolor="#f7d8c1"] ;
104 -> 106 ;
107 [label=<squared_error = -0.0<br/>samples = 1<br/>value = 127500.0>, fillcolor="#f7d8c2"] ;
103 -> 107 ;
108 [label=<Подъездов в доме &le; -0.18<br/>squared_error = 86295122.578<br/>samples = 4<br/>value = 104226.45>, fillcolor="#f9e4d4"] ;
6 -> 108 ;
109 [label=<Количество двухкомнатных квартир &le; -0.875<br/>squared_error = 2335494.731<br/>samples = 2<br/>value = 113452.9>, fillcolor="#f8dfcd"] ;
108 -> 109 ;
110 [label=<squared_error = 0.0<br/>samples = 1<br/>value = 111924.667>, fillcolor="#f9e0ce"] ;
109 -> 110 ;
111 [label=<squared_error = -0.0<br/>samples = 1<br/>value = 114981.132>, fillcolor="#f8dfcc"] ;
109 -> 111 ;
112 [label=<squared_error = 0.0<br/>samples = 2<br/>value = 95000.0>, fillcolor="#fae8db"] ;
108 -> 112 ;
113 [label=<Месяц_4 &le; 1.3<br/>squared_error = 81765406.092<br/>samples = 4<br/>value = 103239.052>, fillcolor="#fae4d5"] ;
5 -> 113 ;
114 [label=<Продано квартир, шт &le; 0.881<br/>squared_error = 5046520.92<br/>samples = 3<br/>value = 98140.67>, fillcolor="#fae7d9"] ;
113 -> 114 ;
115 [label=<Продано квартир, шт &le; 0.359<br/>squared_error = 80523.513<br/>samples = 2<br/>value = 99720.676>, fillcolor="#fae6d8"] ;
114 -> 115 ;
116 [label=<squared_error = 0.0<br/>samples = 1<br/>value = 100004.442>, fillcolor="#fae6d8"] ;
115 -> 116 ;
117 [label=<squared_error = -0.0<br/>samples = 1<br/>value = 99436.909>, fillcolor="#fae6d8"] ;
115 -> 117 ;
118 [label=<squared_error = 0.0<br/>samples = 1<br/>value = 94980.658>, fillcolor="#fae8dc"] ;
114 -> 118 ;
119 [label=<squared_error = -0.0<br/>samples = 1<br/>value = 118534.2>, fillcolor="#f8ddc9"] ;
113 -> 119 ;
120 [label=<Продано машиномест, м2 &le; 0.522<br/>squared_error = 110431364.563<br/>samples = 77<br/>value = 122860.801>, fillcolor="#f8dbc6"] ;
4 -> 120 ;
121 [label=<Продано квартир, шт &le; 0.79<br/>squared_error = 91337521.31<br/>samples = 75<br/>value = 122256.004>, fillcolor="#f8dbc6"] ;
120 -> 121 ;
122 [label=<Количество двухкомнатных квартир &le; -0.875<br/>squared_error = 89020743.61<br/>samples = 44<br/>value = 125015.783>, fillcolor="#f7dac4"] ;
121 -> 122 ;
123 [label=<Есть велопарковка &le; 0.076<br/>squared_error = 112135067.704<br/>samples = 18<br/>value = 129732.191>, fillcolor="#f7d7c1"] ;
122 -> 123 ;
124 [label=<Месяц_11 &le; 1.929<br/>squared_error = 50269434.613<br/>samples = 13<br/>value = 125484.964>, fillcolor="#f7d9c4"] ;
123 -> 124 ;
125 [label=<Месяц_1 &le; 1.43<br/>squared_error = 30536482.807<br/>samples = 12<br/>value = 126841.488>, fillcolor="#f7d9c3"] ;
124 -> 125 ;
126 [label=<Расстояние по навигатору до: Луговая &le; 0.198<br/>squared_error = 19323492.394<br/>samples = 8<br/>value = 128889.727>, fillcolor="#f7d8c1"] ;
125 -> 126 ;
127 [label=<Продано квартир, шт &le; -0.452<br/>squared_error = 4125154.624<br/>samples = 5<br/>value = 131849.083>, fillcolor="#f7d6bf"] ;
126 -> 127 ;
128 [label=<squared_error = 0.0<br/>samples = 1<br/>value = 127868.142>, fillcolor="#f7d8c2"] ;
127 -> 128 ;
129 [label=<Продано квартир, шт &le; -0.098<br/>squared_error = 203977.618<br/>samples = 4<br/>value = 132844.318>, fillcolor="#f7d6be"] ;
127 -> 129 ;
130 [label=<Месяц_8 &le; 1.29<br/>squared_error = 19708.406<br/>samples = 2<br/>value = 133273.932>, fillcolor="#f6d6be"] ;
129 -> 130 ;
131 [label=<squared_error = 0.0<br/>samples = 1<br/>value = 133414.319>, fillcolor="#f6d6be"] ;
130 -> 131 ;
132 [label=<squared_error = -0.0<br/>samples = 1<br/>value = 133133.545>, fillcolor="#f6d6be"] ;
130 -> 132 ;
133 [label=<Месяц_5 &le; 1.443<br/>squared_error = 19110.137<br/>samples = 2<br/>value = 132414.704>, fillcolor="#f7d6bf"] ;
129 -> 133 ;
134 [label=<squared_error = 0.0<br/>samples = 1<br/>value = 132552.943>, fillcolor="#f7d6bf"] ;
133 -> 134 ;
135 [label=<squared_error = -0.0<br/>samples = 1<br/>value = 132276.464>, fillcolor="#f7d6bf"] ;
133 -> 135 ;
136 [label=<Месяц_4 &le; 1.3<br/>squared_error = 5730567.713<br/>samples = 3<br/>value = 123957.468>, fillcolor="#f7dac5"] ;
126 -> 136 ;
137 [label=<Месяц_8 &le; 1.29<br/>squared_error = 1822578.919<br/>samples = 2<br/>value = 122454.884>, fillcolor="#f8dbc6"] ;
136 -> 137 ;
138 [label=<squared_error = 0.0<br/>samples = 1<br/>value = 121104.855>, fillcolor="#f8dcc7"] ;
137 -> 138 ;
139 [label=<squared_error = -0.0<br/>samples = 1<br/>value = 123804.914>, fillcolor="#f7dac5"] ;
137 -> 139 ;
140 [label=<squared_error = 0.0<br/>samples = 1<br/>value = 126962.635>, fillcolor="#f7d9c3"] ;
136 -> 140 ;
141 [label=<Площадь коммерческих помещений &le; 0.172<br/>squared_error = 27790772.685<br/>samples = 4<br/>value = 122745.011>, fillcolor="#f8dbc6"] ;
125 -> 141 ;
142 [label=<Количество домов 250м &le; 1.904<br/>squared_error = 8516694.822<br/>samples = 3<br/>value = 125416.044>, fillcolor="#f7d9c4"] ;
141 -> 142 ;
143 [label=<Есть площадки для собак &le; 0.459<br/>squared_error = 267754.687<br/>samples = 2<br/>value = 123374.208>, fillcolor="#f7dac6"] ;
142 -> 143 ;
144 [label=<squared_error = 0.0<br/>samples = 1<br/>value = 122856.757>, fillcolor="#f8dbc6"] ;
143 -> 144 ;
145 [label=<squared_error = 0.0<br/>samples = 1<br/>value = 123891.658>, fillcolor="#f7dac5"] ;
143 -> 145 ;
146 [label=<squared_error = 0.0<br/>samples = 1<br/>value = 129499.717>, fillcolor="#f7d7c1"] ;
142 -> 146 ;
147 [label=<squared_error = 0.0<br/>samples = 1<br/>value = 114731.912>, fillcolor="#f8dfcc"] ;
141 -> 147 ;
148 [label=<squared_error = 0.0<br/>samples = 1<br/>value = 109206.667>, fillcolor="#f9e1d1"] ;
124 -> 148 ;
149 [label=<Расстояние по навигатору до: Баляева &le; -0.214<br/>squared_error = 104141227.912<br/>samples = 5<br/>value = 140774.982>, fillcolor="#f6d2b8"] ;
123 -> 149 ;
150 [label=<squared_error = 0.0<br/>samples = 1<br/>value = 126004.829>, fillcolor="#f7d9c4"] ;
149 -> 150 ;
151 [label=<Есть площадки для собак &le; 0.459<br/>squared_error = 62002341.131<br/>samples = 4<br/>value = 144467.521>, fillcolor="#f5d0b5"] ;
149 -> 151 ;
152 [label=<Гостевых мест &le; -0.54<br/>squared_error = 20348.798<br/>samples = 2<br/>value = 136873.031>, fillcolor="#f6d4bb"] ;
151 -> 152 ;
153 [label=<squared_error = 0.0<br/>samples = 1<br/>value = 136730.382>, fillcolor="#f6d4bb"] ;
152 -> 153 ;
154 [label=<squared_error = 0.0<br/>samples = 1<br/>value = 137015.68>, fillcolor="#f6d4bb"] ;
152 -> 154 ;
155 [label=<Количество однокомнатных квартир &le; 0.074<br/>squared_error = 8631782.697<br/>samples = 2<br/>value = 152062.01>, fillcolor="#f5ccaf"] ;
151 -> 155 ;
156 [label=<squared_error = 0.0<br/>samples = 1<br/>value = 155000.0>, fillcolor="#f4cbad"] ;
155 -> 156 ;
157 [label=<squared_error = 0.0<br/>samples = 1<br/>value = 149124.021>, fillcolor="#f5ceb2"] ;
155 -> 157 ;
158 [label=<Расстояние по навигатору до: Центр &le; -0.698<br/>squared_error = 46956909.351<br/>samples = 26<br/>value = 121750.577>, fillcolor="#f8dbc7"] ;
122 -> 158 ;
159 [label=<squared_error = 0.0<br/>samples = 1<br/>value = 103070.017>, fillcolor="#fae4d5"] ;
158 -> 159 ;
160 [label=<Статус_сдан &le; 1.417<br/>squared_error = 34318310.494<br/>samples = 25<br/>value = 122497.8>, fillcolor="#f8dbc6"] ;
158 -> 160 ;
161 [label=<Расстояние до ближайшего строения &le; 0.243<br/>squared_error = 31413696.34<br/>samples = 17<br/>value = 124473.319>, fillcolor="#f7dac5"] ;
160 -> 161 ;
162 [label=<Месяц_10 &le; 2.191<br/>squared_error = 8807770.598<br/>samples = 6<br/>value = 127665.564>, fillcolor="#f7d8c2"] ;
161 -> 162 ;
163 [label=<Месяц_8 &le; 1.29<br/>squared_error = 3713251.732<br/>samples = 5<br/>value = 128734.525>, fillcolor="#f7d8c1"] ;
162 -> 163 ;
164 [label=<Количество двухкомнатных квартир &le; 0.35<br/>squared_error = 2340128.065<br/>samples = 4<br/>value = 129412.97>, fillcolor="#f7d8c1"] ;
163 -> 164 ;
165 [label=<Месяц_1 &le; 1.43<br/>squared_error = 600012.657<br/>samples = 3<br/>value = 130206.72>, fillcolor="#f7d7c0"] ;
164 -> 165 ;
166 [label=<Продано нежилых, руб &le; 0.941<br/>squared_error = 221436.915<br/>samples = 2<br/>value = 130682.319>, fillcolor="#f7d7c0"] ;
165 -> 166 ;
167 [label=<squared_error = 0.0<br/>samples = 1<br/>value = 130211.748>, fillcolor="#f7d7c0"] ;
166 -> 167 ;
168 [label=<squared_error = 0.0<br/>samples = 1<br/>value = 131152.89>, fillcolor="#f7d7c0"] ;
166 -> 168 ;
169 [label=<squared_error = -0.0<br/>samples = 1<br/>value = 129255.523>, fillcolor="#f7d8c1"] ;
165 -> 169 ;
170 [label=<squared_error = -0.0<br/>samples = 1<br/>value = 127031.719>, fillcolor="#f7d9c3"] ;
164 -> 170 ;
171 [label=<squared_error = 0.0<br/>samples = 1<br/>value = 126020.746>, fillcolor="#f7d9c4"] ;
163 -> 171 ;
172 [label=<squared_error = -0.0<br/>samples = 1<br/>value = 122320.756>, fillcolor="#f8dbc6"] ;
162 -> 172 ;
173 [label=<Месяц_8 &le; 1.29<br/>squared_error = 35153924.643<br/>samples = 11<br/>value = 122732.095>, fillcolor="#f8dbc6"] ;
161 -> 173 ;
174 [label=<Продано нежилых, шт &le; 1.747<br/>squared_error = 32247436.599<br/>samples = 10<br/>value = 121968.022>, fillcolor="#f8dbc7"] ;
173 -> 174 ;
175 [label=<Месяц_2 &le; 1.3<br/>squared_error = 27865957.666<br/>samples = 9<br/>value = 121075.58>, fillcolor="#f8dcc7"] ;
174 -> 175 ;
176 [label=<Продано квартир, шт &le; 0.287<br/>squared_error = 18087274.501<br/>samples = 7<br/>value = 119742.273>, fillcolor="#f8dcc8"] ;
175 -> 176 ;
177 [label=<Месяц_1 &le; 1.43<br/>squared_error = 14908320.079<br/>samples = 4<br/>value = 122415.865>, fillcolor="#f8dbc6"] ;
176 -> 177 ;
178 [label=<Долгота &le; 0.115<br/>squared_error = 9063776.53<br/>samples = 3<br/>value = 124060.096>, fillcolor="#f7dac5"] ;
177 -> 178 ;
179 [label=<Месяц_4 &le; 1.3<br/>squared_error = 191140.379<br/>samples = 2<br/>value = 126173.902>, fillcolor="#f7d9c3"] ;
178 -> 179 ;
180 [label=<squared_error = 0.0<br/>samples = 1<br/>value = 126611.098>, fillcolor="#f7d9c3"] ;
179 -> 180 ;
181 [label=<squared_error = -0.0<br/>samples = 1<br/>value = 125736.706>, fillcolor="#f7d9c4"] ;
179 -> 181 ;
182 [label=<squared_error = 0.0<br/>samples = 1<br/>value = 119832.485>, fillcolor="#f8dcc8"] ;
178 -> 182 ;
183 [label=<squared_error = 0.0<br/>samples = 1<br/>value = 117483.172>, fillcolor="#f8ddca"] ;
177 -> 183 ;
184 [label=<Месяц_6 &le; 1.368<br/>squared_error = 87362.127<br/>samples = 3<br/>value = 116177.484>, fillcolor="#f8decb"] ;
176 -> 184 ;
185 [label=<Продано квартир, шт &le; 0.527<br/>squared_error = 14254.051<br/>samples = 2<br/>value = 116374.79>, fillcolor="#f8decb"] ;
184 -> 185 ;
186 [label=<squared_error = 0.0<br/>samples = 1<br/>value = 116494.18>, fillcolor="#f8decb"] ;
185 -> 186 ;
187 [label=<squared_error = 0.0<br/>samples = 1<br/>value = 116255.399>, fillcolor="#f8decb"] ;
185 -> 187 ;
188 [label=<squared_error = 0.0<br/>samples = 1<br/>value = 115782.871>, fillcolor="#f8decb"] ;
184 -> 188 ;
189 [label=<Вспомогательный материал фасада_керамогранит &le; 2.095<br/>squared_error = 34092467.36<br/>samples = 2<br/>value = 125742.153>, fillcolor="#f7d9c4"] ;
175 -> 189 ;
190 [label=<squared_error = 0.0<br/>samples = 1<br/>value = 131581.029>, fillcolor="#f7d6bf"] ;
189 -> 190 ;
191 [label=<squared_error = 0.0<br/>samples = 1<br/>value = 119903.278>, fillcolor="#f8dcc8"] ;
189 -> 191 ;
192 [label=<squared_error = -0.0<br/>samples = 1<br/>value = 130000.0>, fillcolor="#f7d7c0"] ;
174 -> 192 ;
193 [label=<squared_error = 0.0<br/>samples = 1<br/>value = 130372.823>, fillcolor="#f7d7c0"] ;
173 -> 193 ;
194 [label=<Месяц_11 &le; 1.929<br/>squared_error = 14574403.342<br/>samples = 8<br/>value = 118299.821>, fillcolor="#f8ddca"] ;
160 -> 194 ;
195 [label=<Продано квартир, шт &le; 0.142<br/>squared_error = 9472993.393<br/>samples = 7<br/>value = 119247.415>, fillcolor="#f8dcc9"] ;
194 -> 195 ;
196 [label=<Месяц_4 &le; 1.3<br/>squared_error = 2833009.043<br/>samples = 5<br/>value = 120878.605>, fillcolor="#f8dcc8"] ;
195 -> 196 ;
197 [label=<Продано квартир, шт &le; -0.452<br/>squared_error = 2024824.26<br/>samples = 4<br/>value = 121429.32>, fillcolor="#f8dbc7"] ;
196 -> 197 ;
198 [label=<Продано квартир, шт &le; -1.142<br/>squared_error = 124700.708<br/>samples = 3<br/>value = 122231.67>, fillcolor="#f8dbc6"] ;
197 -> 198 ;
199 [label=<squared_error = 0.0<br/>samples = 1<br/>value = 122530.378>, fillcolor="#f8dbc6"] ;
198 -> 199 ;
200 [label=<Тип дома_монолит &le; -0.76<br/>squared_error = 120131.199<br/>samples = 2<br/>value = 122082.316>, fillcolor="#f8dbc7"] ;
198 -> 200 ;
201 [label=<squared_error = 0.0<br/>samples = 1<br/>value = 122428.916>, fillcolor="#f8dbc6"] ;
200 -> 201 ;
202 [label=<squared_error = 0.0<br/>samples = 1<br/>value = 121735.717>, fillcolor="#f8dbc7"] ;
200 -> 202 ;
203 [label=<squared_error = 0.0<br/>samples = 1<br/>value = 119022.269>, fillcolor="#f8ddc9"] ;
197 -> 203 ;
204 [label=<squared_error = 0.0<br/>samples = 1<br/>value = 118675.743>, fillcolor="#f8ddc9"] ;
196 -> 204 ;
205 [label=<Расстояние по навигатору до: Артем &le; -0.271<br/>squared_error = 2791126.243<br/>samples = 2<br/>value = 115169.44>, fillcolor="#f8dfcc"] ;
195 -> 205 ;
206 [label=<squared_error = 0.0<br/>samples = 1<br/>value = 116840.106>, fillcolor="#f8decb"] ;
205 -> 206 ;
207 [label=<squared_error = 0.0<br/>samples = 1<br/>value = 113498.774>, fillcolor="#f8dfcd"] ;
205 -> 207 ;
208 [label=<squared_error = -0.0<br/>samples = 1<br/>value = 111666.667>, fillcolor="#f9e0cf"] ;
194 -> 208 ;
209 [label=<Площадь коммерческих помещений &le; 0.178<br/>squared_error = 68471795.352<br/>samples = 31<br/>value = 118338.899>, fillcolor="#f8ddc9"] ;
121 -> 209 ;
210 [label=<Месяц_8 &le; 1.29<br/>squared_error = 51919895.436<br/>samples = 29<br/>value = 117175.06>, fillcolor="#f8deca"] ;
209 -> 210 ;
211 [label=<Общая площадь земельного участка &le; -0.416<br/>squared_error = 44475526.942<br/>samples = 28<br/>value = 117741.314>, fillcolor="#f8ddca"] ;
210 -> 211 ;
212 [label=<Месяц_12 &le; 1.791<br/>squared_error = 52182857.278<br/>samples = 10<br/>value = 120835.119>, fillcolor="#f8dcc8"] ;
211 -> 212 ;
213 [label=<Месяц_3 &le; 1.29<br/>squared_error = 21734406.281<br/>samples = 9<br/>value = 122738.972>, fillcolor="#f8dbc6"] ;
212 -> 213 ;
214 [label=<Продано квартир, шт &le; 1.46<br/>squared_error = 15791776.949<br/>samples = 8<br/>value = 123719.869>, fillcolor="#f7dac5"] ;
213 -> 214 ;
215 [label=<Продано квартир, шт &le; 1.014<br/>squared_error = 7351977.739<br/>samples = 3<br/>value = 119673.395>, fillcolor="#f8dcc8"] ;
214 -> 215 ;
216 [label=<squared_error = 0.0<br/>samples = 1<br/>value = 123463.173>, fillcolor="#f7dac6"] ;
215 -> 216 ;
217 [label=<Месяц_9 &le; 2.3<br/>squared_error = 256154.942<br/>samples = 2<br/>value = 117778.507>, fillcolor="#f8ddca"] ;
215 -> 217 ;
218 [label=<squared_error = 0.0<br/>samples = 1<br/>value = 118284.624>, fillcolor="#f8ddca"] ;
217 -> 218 ;
219 [label=<squared_error = 0.0<br/>samples = 1<br/>value = 117272.389>, fillcolor="#f8ddca"] ;
217 -> 219 ;
220 [label=<Месяц_1 &le; 1.43<br/>squared_error = 5136669.682<br/>samples = 5<br/>value = 126147.752>, fillcolor="#f7d9c3"] ;
214 -> 220 ;
221 [label=<Месяц_2 &le; 1.3<br/>squared_error = 1674497.272<br/>samples = 4<br/>value = 127122.056>, fillcolor="#f7d9c3"] ;
220 -> 221 ;
222 [label=<Продано квартир, шт &le; 1.536<br/>squared_error = 761441.149<br/>samples = 3<br/>value = 127728.526>, fillcolor="#f7d8c2"] ;
221 -> 222 ;
223 [label=<squared_error = 0.0<br/>samples = 1<br/>value = 126508.519>, fillcolor="#f7d9c3"] ;
222 -> 223 ;
224 [label=<Месяц_7 &le; 1.322<br/>squared_error = 25849.114<br/>samples = 2<br/>value = 128338.529>, fillcolor="#f7d8c2"] ;
222 -> 224 ;
225 [label=<squared_error = 0.0<br/>samples = 1<br/>value = 128177.753>, fillcolor="#f7d8c2"] ;
224 -> 225 ;
226 [label=<squared_error = -0.0<br/>samples = 1<br/>value = 128499.306>, fillcolor="#f7d8c2"] ;
224 -> 226 ;
227 [label=<squared_error = 0.0<br/>samples = 1<br/>value = 125302.647>, fillcolor="#f7dac4"] ;
221 -> 227 ;
228 [label=<squared_error = -0.0<br/>samples = 1<br/>value = 122250.537>, fillcolor="#f8dbc6"] ;
220 -> 228 ;
229 [label=<squared_error = -0.0<br/>samples = 1<br/>value = 114891.796>, fillcolor="#f8dfcc"] ;
213 -> 229 ;
230 [label=<squared_error = 0.0<br/>samples = 1<br/>value = 103700.446>, fillcolor="#f9e4d5"] ;
212 -> 230 ;
231 [label=<Месяц_9 &le; 2.3<br/>squared_error = 31921898.522<br/>samples = 18<br/>value = 116022.533>, fillcolor="#f8decb"] ;
211 -> 231 ;
232 [label=<Продано квартир, шт &le; 0.906<br/>squared_error = 26728493.178<br/>samples = 17<br/>value = 116649.305>, fillcolor="#f8decb"] ;
231 -> 232 ;
233 [label=<Месяц_4 &le; 1.3<br/>squared_error = 9326857.92<br/>samples = 4<br/>value = 120847.082>, fillcolor="#f8dcc8"] ;
232 -> 233 ;
234 [label=<Уехать без пересадок: Луговая &le; -0.593<br/>squared_error = 2210842.618<br/>samples = 3<br/>value = 119248.257>, fillcolor="#f8dcc9"] ;
233 -> 234 ;
235 [label=<squared_error = 0.0<br/>samples = 1<br/>value = 121344.763>, fillcolor="#f8dbc7"] ;
234 -> 235 ;
236 [label=<Расстояние до ближайшего строения &le; -0.188<br/>squared_error = 19758.455<br/>samples = 2<br/>value = 118200.003>, fillcolor="#f8ddca"] ;
234 -> 236 ;
237 [label=<squared_error = 0.0<br/>samples = 1<br/>value = 118340.568>, fillcolor="#f8ddc9"] ;
236 -> 237 ;
238 [label=<squared_error = 0.0<br/>samples = 1<br/>value = 118059.438>, fillcolor="#f8ddca"] ;
236 -> 238 ;
239 [label=<squared_error = 0.0<br/>samples = 1<br/>value = 125643.557>, fillcolor="#f7d9c4"] ;
233 -> 239 ;
240 [label=<Продано квартир, шт &le; 2.032<br/>squared_error = 24992603.224<br/>samples = 13<br/>value = 115357.681>, fillcolor="#f8decc"] ;
232 -> 240 ;
241 [label=<Количество этажей &le; 0.616<br/>squared_error = 17628569.236<br/>samples = 10<br/>value = 113745.459>, fillcolor="#f8dfcd"] ;
240 -> 241 ;
242 [label=<Есть квартиры с черновой отделкой &le; -0.265<br/>squared_error = 8390441.207<br/>samples = 8<br/>value = 112441.674>, fillcolor="#f9e0ce"] ;
241 -> 242 ;
243 [label=<Месяц_10 &le; 2.191<br/>squared_error = 721491.013<br/>samples = 2<br/>value = 109081.222>, fillcolor="#f9e1d1"] ;
242 -> 243 ;
244 [label=<squared_error = 0.0<br/>samples = 1<br/>value = 109930.629>, fillcolor="#f9e1d0"] ;
243 -> 244 ;
245 [label=<squared_error = 0.0<br/>samples = 1<br/>value = 108231.816>, fillcolor="#f9e2d1"] ;
243 -> 245 ;
246 [label=<Месяц_4 &le; 1.3<br/>squared_error = 5927807.87<br/>samples = 6<br/>value = 113561.825>, fillcolor="#f8dfcd"] ;
242 -> 246 ;
247 [label=<Продано квартир, шт &le; 1.858<br/>squared_error = 2552620.423<br/>samples = 4<br/>value = 114948.685>, fillcolor="#f8dfcc"] ;
246 -> 247 ;
248 [label=<Инфраструктура: Новостройки &le; 1.863<br/>squared_error = 329383.248<br/>samples = 3<br/>value = 115825.342>, fillcolor="#f8decb"] ;
247 -> 248 ;
249 [label=<Месяц_7 &le; 1.322<br/>squared_error = 70197.828<br/>samples = 2<br/>value = 115449.453>, fillcolor="#f8decc"] ;
248 -> 249 ;
250 [label=<squared_error = 0.0<br/>samples = 1<br/>value = 115714.402>, fillcolor="#f8decc"] ;
249 -> 250 ;
251 [label=<squared_error = 0.0<br/>samples = 1<br/>value = 115184.504>, fillcolor="#f8decc"] ;
249 -> 251 ;
252 [label=<squared_error = 0.0<br/>samples = 1<br/>value = 116577.119>, fillcolor="#f8decb"] ;
248 -> 252 ;
253 [label=<squared_error = 0.0<br/>samples = 1<br/>value = 112318.713>, fillcolor="#f9e0ce"] ;
247 -> 253 ;
254 [label=<Самая высокая точка 250м &le; 0.119<br/>squared_error = 1137906.097<br/>samples = 2<br/>value = 110788.106>, fillcolor="#f9e1cf"] ;
246 -> 254 ;
255 [label=<squared_error = 0.0<br/>samples = 1<br/>value = 111854.833>, fillcolor="#f9e0ce"] ;
254 -> 255 ;
256 [label=<squared_error = 0.0<br/>samples = 1<br/>value = 109721.379>, fillcolor="#f9e1d0"] ;
254 -> 256 ;
257 [label=<Продано квартир, шт &le; 1.696<br/>squared_error = 20583992.993<br/>samples = 2<br/>value = 118960.598>, fillcolor="#f8ddc9"] ;
241 -> 257 ;
258 [label=<squared_error = 0.0<br/>samples = 1<br/>value = 123497.556>, fillcolor="#f7dac6"] ;
257 -> 258 ;
259 [label=<squared_error = 0.0<br/>samples = 1<br/>value = 114423.639>, fillcolor="#f8dfcd"] ;
257 -> 259 ;
260 [label=<Месяц_3 &le; 1.29<br/>squared_error = 11994510.655<br/>samples = 3<br/>value = 120731.755>, fillcolor="#f8dcc8"] ;
240 -> 260 ;
261 [label=<Месяц_12 &le; 1.791<br/>squared_error = 3213782.063<br/>samples = 2<br/>value = 118512.297>, fillcolor="#f8ddc9"] ;
260 -> 261 ;
262 [label=<squared_error = 0.0<br/>samples = 1<br/>value = 120305.0>, fillcolor="#f8dcc8"] ;
261 -> 262 ;
263 [label=<squared_error = 0.0<br/>samples = 1<br/>value = 116719.595>, fillcolor="#f8decb"] ;
261 -> 263 ;
264 [label=<squared_error = 0.0<br/>samples = 1<br/>value = 125170.672>, fillcolor="#f7dac4"] ;
260 -> 264 ;
265 [label=<squared_error = 0.0<br/>samples = 1<br/>value = 105367.419>, fillcolor="#f9e3d3"] ;
231 -> 265 ;
266 [label=<squared_error = -0.0<br/>samples = 1<br/>value = 101319.96>, fillcolor="#fae5d7"] ;
210 -> 266 ;
267 [label=<Месяц_4 &le; 1.3<br/>squared_error = 4045813.66<br/>samples = 2<br/>value = 135214.562>, fillcolor="#f6d5bc"] ;
209 -> 267 ;
268 [label=<squared_error = 0.0<br/>samples = 1<br/>value = 137225.982>, fillcolor="#f6d4bb"] ;
267 -> 268 ;
269 [label=<squared_error = 0.0<br/>samples = 1<br/>value = 133203.141>, fillcolor="#f6d6be"] ;
267 -> 269 ;
270 [label=<Продано квартир, шт &le; 0.846<br/>squared_error = 298357395.423<br/>samples = 2<br/>value = 145540.668>, fillcolor="#f5d0b4"] ;
120 -> 270 ;
271 [label=<squared_error = 0.0<br/>samples = 1<br/>value = 162813.693>, fillcolor="#f3c7a7"] ;
270 -> 271 ;
272 [label=<squared_error = 0.0<br/>samples = 1<br/>value = 128267.643>, fillcolor="#f7d8c2"] ;
270 -> 272 ;
273 [label=<Инфраструктура: Медицина &le; -0.736<br/>squared_error = 284488295.804<br/>samples = 71<br/>value = 106272.375>, fillcolor="#f9e3d3"] ;
3 -> 273 ;
274 [label=<Общая площадь земельного участка &le; 0.383<br/>squared_error = 118278743.72<br/>samples = 8<br/>value = 84540.621>, fillcolor="#fbeee4"] ;
273 -> 274 ;
275 [label=<Месяц_5 &le; 1.443<br/>squared_error = 63736250.936<br/>samples = 6<br/>value = 89387.495>, fillcolor="#fbebe0"] ;
274 -> 275 ;
276 [label=<Месяц_7 &le; 1.322<br/>squared_error = 49453438.204<br/>samples = 5<br/>value = 87264.994>, fillcolor="#fbece1"] ;
275 -> 276 ;
277 [label=<Продано квартир, шт &le; -0.503<br/>squared_error = 667915.669<br/>samples = 3<br/>value = 84024.99>, fillcolor="#fbeee4"] ;
276 -> 277 ;
278 [label=<squared_error = 0.0<br/>samples = 1<br/>value = 83000.0>, fillcolor="#fceee5"] ;
277 -> 278 ;
279 [label=<Месяц_1 &le; 1.43<br/>squared_error = 213920.098<br/>samples = 2<br/>value = 84537.485>, fillcolor="#fbeee4"] ;
277 -> 279 ;
280 [label=<squared_error = 0.0<br/>samples = 1<br/>value = 85000.0>, fillcolor="#fbede3"] ;
279 -> 280 ;
281 [label=<squared_error = 0.0<br/>samples = 1<br/>value = 84074.97>, fillcolor="#fbeee4"] ;
279 -> 281 ;
282 [label=<Продано квартир, шт &le; -1.142<br/>squared_error = 83265625.0<br/>samples = 2<br/>value = 92125.0>, fillcolor="#fbeade"] ;
276 -> 282 ;
283 [label=<squared_error = 0.0<br/>samples = 1<br/>value = 83000.0>, fillcolor="#fceee5"] ;
282 -> 283 ;
284 [label=<squared_error = 0.0<br/>samples = 1<br/>value = 101250.0>, fillcolor="#fae5d7"] ;
282 -> 284 ;
285 [label=<squared_error = 0.0<br/>samples = 1<br/>value = 100000.0>, fillcolor="#fae6d8"] ;
275 -> 285 ;
286 [label=<squared_error = 0.0<br/>samples = 2<br/>value = 70000.0>, fillcolor="#fdf5ef"] ;
274 -> 286 ;
287 [label=<Месяц_4 &le; 1.3<br/>squared_error = 238008261.166<br/>samples = 63<br/>value = 109031.963>, fillcolor="#f9e2d1"] ;
273 -> 287 ;
288 [label=<Месяц_2 &le; 1.3<br/>squared_error = 142397685.833<br/>samples = 54<br/>value = 111986.879>, fillcolor="#f9e0ce"] ;
287 -> 288 ;
289 [label=<Расстояние по навигатору до: Центр &le; 0.116<br/>squared_error = 99424762.108<br/>samples = 48<br/>value = 113887.292>, fillcolor="#f8dfcd"] ;
288 -> 289 ;
290 [label=<Продано квартир, шт &le; 1.741<br/>squared_error = 58549076.458<br/>samples = 30<br/>value = 118473.725>, fillcolor="#f8ddc9"] ;
289 -> 290 ;
291 [label=<Общая площадь квартир &le; 0.11<br/>squared_error = 38091585.245<br/>samples = 28<br/>value = 119739.162>, fillcolor="#f8dcc8"] ;
290 -> 291 ;
292 [label=<Продано нежилых, руб &le; 2.25<br/>squared_error = 24174724.704<br/>samples = 19<br/>value = 117063.305>, fillcolor="#f8deca"] ;
291 -> 292 ;
293 [label=<Продано нежилых, руб &le; 2.156<br/>squared_error = 18687722.521<br/>samples = 17<br/>value = 116127.017>, fillcolor="#f8decb"] ;
292 -> 293 ;
294 [label=<Месяц_12 &le; 1.791<br/>squared_error = 12918615.033<br/>samples = 15<br/>value = 116969.575>, fillcolor="#f8decb"] ;
293 -> 294 ;
295 [label=<Месяц_10 &le; 2.191<br/>squared_error = 8801987.435<br/>samples = 14<br/>value = 117549.195>, fillcolor="#f8ddca"] ;
294 -> 295 ;
296 [label=<Месяц_5 &le; 1.443<br/>squared_error = 5176041.253<br/>samples = 13<br/>value = 118103.594>, fillcolor="#f8ddca"] ;
295 -> 296 ;
297 [label=<Месяц_6 &le; 1.368<br/>squared_error = 3773216.455<br/>samples = 11<br/>value = 117505.813>, fillcolor="#f8ddca"] ;
296 -> 297 ;
298 [label=<Продано квартир, шт &le; 1.267<br/>squared_error = 2750382.773<br/>samples = 9<br/>value = 116924.703>, fillcolor="#f8decb"] ;
297 -> 298 ;
299 [label=<Продано квартир, шт &le; -0.757<br/>squared_error = 1375694.534<br/>samples = 8<br/>value = 116487.733>, fillcolor="#f8decb"] ;
298 -> 299 ;
300 [label=<Месяц_8 &le; 1.29<br/>squared_error = 2752714.865<br/>samples = 2<br/>value = 117659.131>, fillcolor="#f8ddca"] ;
299 -> 300 ;
301 [label=<squared_error = 0.0<br/>samples = 1<br/>value = 119318.262>, fillcolor="#f8dcc9"] ;
300 -> 301 ;
302 [label=<squared_error = -0.0<br/>samples = 1<br/>value = 116000.0>, fillcolor="#f8decb"] ;
300 -> 302 ;
303 [label=<Месяц_7 &le; 1.322<br/>squared_error = 306833.601<br/>samples = 6<br/>value = 116097.268>, fillcolor="#f8decb"] ;
299 -> 303 ;
304 [label=<Продано квартир, шт &le; 0.208<br/>squared_error = 251992.17<br/>samples = 5<br/>value = 116236.437>, fillcolor="#f8decb"] ;
303 -> 304 ;
305 [label=<Расстояние до ближайшего строения &le; 0.558<br/>squared_error = 259730.589<br/>samples = 3<br/>value = 116406.794>, fillcolor="#f8decb"] ;
304 -> 305 ;
306 [label=<squared_error = 0.0<br/>samples = 1<br/>value = 117091.856>, fillcolor="#f8deca"] ;
305 -> 306 ;
307 [label=<Продано квартир, шт &le; -0.452<br/>squared_error = 37614.23<br/>samples = 2<br/>value = 116064.264>, fillcolor="#f8decb"] ;
305 -> 307 ;
308 [label=<squared_error = 0.0<br/>samples = 1<br/>value = 115870.32>, fillcolor="#f8decb"] ;
307 -> 308 ;
309 [label=<squared_error = 0.0<br/>samples = 1<br/>value = 116258.208>, fillcolor="#f8decb"] ;
307 -> 309 ;
310 [label=<Количество двухкомнатных квартир &le; 0.482<br/>squared_error = 131552.949<br/>samples = 2<br/>value = 115980.9>, fillcolor="#f8decb"] ;
304 -> 310 ;
311 [label=<squared_error = 0.0<br/>samples = 1<br/>value = 115618.198>, fillcolor="#f8decc"] ;
310 -> 311 ;
312 [label=<squared_error = 0.0<br/>samples = 1<br/>value = 116343.602>, fillcolor="#f8decb"] ;
310 -> 312 ;
313 [label=<squared_error = 0.0<br/>samples = 1<br/>value = 115401.422>, fillcolor="#f8decc"] ;
303 -> 313 ;
314 [label=<squared_error = 0.0<br/>samples = 1<br/>value = 120420.465>, fillcolor="#f8dcc8"] ;
298 -> 314 ;
315 [label=<Всего парковочных мест &le; -0.538<br/>squared_error = 18178.693<br/>samples = 2<br/>value = 120120.807>, fillcolor="#f8dcc8"] ;
297 -> 315 ;
316 [label=<squared_error = 0.0<br/>samples = 1<br/>value = 119985.978>, fillcolor="#f8dcc8"] ;
315 -> 316 ;
317 [label=<squared_error = 0.0<br/>samples = 1<br/>value = 120255.635>, fillcolor="#f8dcc8"] ;
315 -> 317 ;
318 [label=<Инфраструктура: Школы &le; -0.02<br/>squared_error = 116592.523<br/>samples = 2<br/>value = 121391.39>, fillcolor="#f8dbc7"] ;
296 -> 318 ;
319 [label=<squared_error = 0.0<br/>samples = 1<br/>value = 121049.934>, fillcolor="#f8dcc7"] ;
318 -> 319 ;
320 [label=<squared_error = -0.0<br/>samples = 1<br/>value = 121732.847>, fillcolor="#f8dbc7"] ;
318 -> 320 ;
321 [label=<squared_error = -0.0<br/>samples = 1<br/>value = 110342.002>, fillcolor="#f9e1d0"] ;
295 -> 321 ;
322 [label=<squared_error = 0.0<br/>samples = 1<br/>value = 108854.899>, fillcolor="#f9e2d1"] ;
294 -> 322 ;
323 [label=<Месяц_8 &le; 1.29<br/>squared_error = 16699609.045<br/>samples = 2<br/>value = 109807.829>, fillcolor="#f9e1d0"] ;
293 -> 323 ;
324 [label=<squared_error = 0.0<br/>samples = 1<br/>value = 105721.313>, fillcolor="#f9e3d3"] ;
323 -> 324 ;
325 [label=<squared_error = -0.0<br/>samples = 1<br/>value = 113894.344>, fillcolor="#f8dfcd"] ;
323 -> 325 ;
326 [label=<Продано нежилых, руб &le; 2.389<br/>squared_error = 25870.073<br/>samples = 2<br/>value = 125021.758>, fillcolor="#f7dac4"] ;
292 -> 326 ;
327 [label=<squared_error = 0.0<br/>samples = 1<br/>value = 124860.916>, fillcolor="#f7dac4"] ;
326 -> 327 ;
328 [label=<squared_error = 0.0<br/>samples = 1<br/>value = 125182.599>, fillcolor="#f7dac4"] ;
326 -> 328 ;
329 [label=<Расстояние до ближайшего строения &le; -0.474<br/>squared_error = 20444072.234<br/>samples = 9<br/>value = 125388.193>, fillcolor="#f7d9c4"] ;
291 -> 329 ;
330 [label=<Месяц_7 &le; 1.322<br/>squared_error = 20196281.05<br/>samples = 6<br/>value = 123898.682>, fillcolor="#f7dac5"] ;
329 -> 330 ;
331 [label=<Месяц_3 &le; 1.29<br/>squared_error = 3937313.61<br/>samples = 5<br/>value = 125737.985>, fillcolor="#f7d9c4"] ;
330 -> 331 ;
332 [label=<Инфраструктура: Новостройки &le; 1.99<br/>squared_error = 2910227.661<br/>samples = 3<br/>value = 126946.147>, fillcolor="#f7d9c3"] ;
331 -> 332 ;
333 [label=<squared_error = 0.0<br/>samples = 1<br/>value = 124559.882>, fillcolor="#f7dac5"] ;
332 -> 333 ;
334 [label=<Продано квартир, шт &le; 0.745<br/>squared_error = 94646.182<br/>samples = 2<br/>value = 128139.28>, fillcolor="#f7d8c2"] ;
332 -> 334 ;
335 [label=<squared_error = 0.0<br/>samples = 1<br/>value = 128446.926>, fillcolor="#f7d8c2"] ;
334 -> 335 ;
336 [label=<squared_error = -0.0<br/>samples = 1<br/>value = 127831.634>, fillcolor="#f7d8c2"] ;
334 -> 336 ;
337 [label=<Количество домов 250м &le; -0.862<br/>squared_error = 4234.463<br/>samples = 2<br/>value = 123925.742>, fillcolor="#f7dac5"] ;
331 -> 337 ;
338 [label=<squared_error = 0.0<br/>samples = 1<br/>value = 123990.815>, fillcolor="#f7dac5"] ;
337 -> 338 ;
339 [label=<squared_error = 0.0<br/>samples = 1<br/>value = 123860.669>, fillcolor="#f7dac5"] ;
337 -> 339 ;
340 [label=<squared_error = -0.0<br/>samples = 1<br/>value = 114702.164>, fillcolor="#f8dfcc"] ;
330 -> 340 ;
341 [label=<Месяц_3 &le; 1.29<br/>squared_error = 7627786.744<br/>samples = 3<br/>value = 128367.216>, fillcolor="#f7d8c2"] ;
329 -> 341 ;
342 [label=<Месяц_7 &le; 1.322<br/>squared_error = 499143.192<br/>samples = 2<br/>value = 130277.063>, fillcolor="#f7d7c0"] ;
341 -> 342 ;
343 [label=<squared_error = 0.0<br/>samples = 1<br/>value = 129570.562>, fillcolor="#f7d7c1"] ;
342 -> 343 ;
344 [label=<squared_error = 0.0<br/>samples = 1<br/>value = 130983.563>, fillcolor="#f7d7c0"] ;
342 -> 344 ;
345 [label=<squared_error = -0.0<br/>samples = 1<br/>value = 124547.524>, fillcolor="#f7dac5"] ;
341 -> 345 ;
346 [label=<Месяц_10 &le; 2.191<br/>squared_error = 8674493.488<br/>samples = 2<br/>value = 100757.607>, fillcolor="#fae6d7"] ;
290 -> 346 ;
347 [label=<squared_error = 0.0<br/>samples = 1<br/>value = 103702.857>, fillcolor="#f9e4d5"] ;
346 -> 347 ;
348 [label=<squared_error = 0.0<br/>samples = 1<br/>value = 97812.358>, fillcolor="#fae7d9"] ;
346 -> 348 ;
349 [label=<Продано квартир, шт &le; 1.704<br/>squared_error = 74060369.475<br/>samples = 18<br/>value = 106243.236>, fillcolor="#f9e3d3"] ;
289 -> 349 ;
350 [label=<Месяц_3 &le; 1.29<br/>squared_error = 72346088.993<br/>samples = 15<br/>value = 107900.637>, fillcolor="#f9e2d2"] ;
349 -> 350 ;
351 [label=<Месяц_5 &le; 1.443<br/>squared_error = 43605092.133<br/>samples = 13<br/>value = 105687.992>, fillcolor="#f9e3d3"] ;
350 -> 351 ;
352 [label=<Месяц_6 &le; 1.368<br/>squared_error = 36259625.204<br/>samples = 12<br/>value = 104768.995>, fillcolor="#f9e4d4"] ;
351 -> 352 ;
353 [label=<Месяц_11 &le; 1.929<br/>squared_error = 25571139.858<br/>samples = 11<br/>value = 103689.458>, fillcolor="#f9e4d5"] ;
352 -> 353 ;
354 [label=<Продано квартир, шт &le; 0.018<br/>squared_error = 16323310.273<br/>samples = 10<br/>value = 102653.515>, fillcolor="#fae5d6"] ;
353 -> 354 ;
355 [label=<Количество однокомнатных квартир &le; 0.704<br/>squared_error = 2203992.46<br/>samples = 2<br/>value = 97362.319>, fillcolor="#fae7da"] ;
354 -> 355 ;
356 [label=<squared_error = 0.0<br/>samples = 1<br/>value = 98846.903>, fillcolor="#fae7d9"] ;
355 -> 356 ;
357 [label=<squared_error = 0.0<br/>samples = 1<br/>value = 95877.734>, fillcolor="#fae8db"] ;
355 -> 357 ;
358 [label=<Самая низкая точка 250м &le; -0.305<br/>squared_error = 11104150.974<br/>samples = 8<br/>value = 103976.315>, fillcolor="#f9e4d5"] ;
354 -> 358 ;
359 [label=<Месяц_7 &le; 1.322<br/>squared_error = 11329538.788<br/>samples = 5<br/>value = 105382.099>, fillcolor="#f9e3d3"] ;
358 -> 359 ;
360 [label=<Месяц_9 &le; 2.3<br/>squared_error = 1976054.577<br/>samples = 4<br/>value = 103820.954>, fillcolor="#f9e4d5"] ;
359 -> 360 ;
361 [label=<Месяц_8 &le; 1.29<br/>squared_error = 427403.713<br/>samples = 3<br/>value = 104563.81>, fillcolor="#f9e4d4"] ;
360 -> 361 ;
362 [label=<Месяц_1 &le; 1.43<br/>squared_error = 61.776<br/>samples = 2<br/>value = 105026.066>, fillcolor="#f9e3d4"] ;
361 -> 362 ;
363 [label=<squared_error = 0.0<br/>samples = 1<br/>value = 105018.207>, fillcolor="#f9e3d4"] ;
362 -> 363 ;
364 [label=<squared_error = 0.0<br/>samples = 1<br/>value = 105033.926>, fillcolor="#f9e3d4"] ;
362 -> 364 ;
365 [label=<squared_error = -0.0<br/>samples = 1<br/>value = 103639.296>, fillcolor="#f9e4d5"] ;
361 -> 365 ;
366 [label=<squared_error = -0.0<br/>samples = 1<br/>value = 101592.389>, fillcolor="#fae5d6"] ;
360 -> 366 ;
367 [label=<squared_error = 0.0<br/>samples = 1<br/>value = 111626.679>, fillcolor="#f9e0cf"] ;
359 -> 367 ;
368 [label=<Месяц_7 &le; 1.322<br/>squared_error = 1945256.442<br/>samples = 3<br/>value = 101633.34>, fillcolor="#fae5d6"] ;
358 -> 368 ;
369 [label=<Продано машиномест, руб &le; 0.845<br/>squared_error = 298026.554<br/>samples = 2<br/>value = 102567.838>, fillcolor="#fae5d6"] ;
368 -> 369 ;
370 [label=<squared_error = 0.0<br/>samples = 1<br/>value = 103113.756>, fillcolor="#fae4d5"] ;
369 -> 370 ;
371 [label=<squared_error = 0.0<br/>samples = 1<br/>value = 102021.92>, fillcolor="#fae5d6"] ;
369 -> 371 ;
372 [label=<squared_error = 0.0<br/>samples = 1<br/>value = 99764.344>, fillcolor="#fae6d8"] ;
368 -> 372 ;
373 [label=<squared_error = -0.0<br/>samples = 1<br/>value = 114048.882>, fillcolor="#f8dfcd"] ;
353 -> 373 ;
374 [label=<squared_error = 0.0<br/>samples = 1<br/>value = 116643.908>, fillcolor="#f8decb"] ;
352 -> 374 ;
375 [label=<squared_error = -0.0<br/>samples = 1<br/>value = 116715.958>, fillcolor="#f8decb"] ;
351 -> 375 ;
376 [label=<Инфраструктура: Новостройки &le; 0.271<br/>squared_error = 20492449.775<br/>samples = 2<br/>value = 122282.829>, fillcolor="#f8dbc6"] ;
350 -> 376 ;
377 [label=<squared_error = 0.0<br/>samples = 1<br/>value = 117755.97>, fillcolor="#f8ddca"] ;
376 -> 377 ;
378 [label=<squared_error = 0.0<br/>samples = 1<br/>value = 126809.688>, fillcolor="#f7d9c3"] ;
376 -> 378 ;
379 [label=<Продано машиномест, м2 &le; 0.831<br/>squared_error = 222429.041<br/>samples = 3<br/>value = 97956.231>, fillcolor="#fae7d9"] ;
349 -> 379 ;
380 [label=<squared_error = 0.0<br/>samples = 1<br/>value = 97303.716>, fillcolor="#fae7da"] ;
379 -> 380 ;
381 [label=<Продано квартир, шт &le; 2.384<br/>squared_error = 14311.704<br/>samples = 2<br/>value = 98282.489>, fillcolor="#fae7d9"] ;
379 -> 381 ;
382 [label=<squared_error = 0.0<br/>samples = 1<br/>value = 98162.857>, fillcolor="#fae7d9"] ;
381 -> 382 ;
383 [label=<squared_error = 0.0<br/>samples = 1<br/>value = 98402.12>, fillcolor="#fae7d9"] ;
381 -> 383 ;
384 [label=<Количество квартир на этаже &le; 0.297<br/>squared_error = 226148175.889<br/>samples = 6<br/>value = 96783.578>, fillcolor="#fae8da"] ;
288 -> 384 ;
385 [label=<Инфраструктура: Спорт &le; -1.046<br/>squared_error = 752006.333<br/>samples = 3<br/>value = 110104.664>, fillcolor="#f9e1d0"] ;
384 -> 385 ;
386 [label=<squared_error = 0.0<br/>samples = 1<br/>value = 108889.598>, fillcolor="#f9e2d1"] ;
385 -> 386 ;
387 [label=<Инфраструктура: Медицина &le; -0.39<br/>squared_error = 20720.649<br/>samples = 2<br/>value = 110712.197>, fillcolor="#f9e1cf"] ;
385 -> 387 ;
388 [label=<squared_error = 0.0<br/>samples = 1<br/>value = 110856.143>, fillcolor="#f9e1cf"] ;
387 -> 388 ;
389 [label=<squared_error = 0.0<br/>samples = 1<br/>value = 110568.25>, fillcolor="#f9e1cf"] ;
387 -> 389 ;
390 [label=<Количество этажей &le; 0.551<br/>squared_error = 96641719.181<br/>samples = 3<br/>value = 83462.493>, fillcolor="#fceee4"] ;
384 -> 390 ;
391 [label=<Количество домов 250м &le; -0.862<br/>squared_error = 806404.153<br/>samples = 2<br/>value = 90394.452>, fillcolor="#fbebdf"] ;
390 -> 391 ;
392 [label=<squared_error = 0.0<br/>samples = 1<br/>value = 91292.452>, fillcolor="#fbeade"] ;
391 -> 392 ;
393 [label=<squared_error = 0.0<br/>samples = 1<br/>value = 89496.452>, fillcolor="#fbebe0"] ;
391 -> 393 ;
394 [label=<squared_error = 0.0<br/>samples = 1<br/>value = 69598.575>, fillcolor="#fdf5ef"] ;
390 -> 394 ;
395 [label=<Гостевых мест &le; 0.594<br/>squared_error = 444947529.72<br/>samples = 9<br/>value = 91302.468>, fillcolor="#fbeade"] ;
287 -> 395 ;
396 [label=<Количество однокомнатных квартир &le; -0.127<br/>squared_error = 151491280.77<br/>samples = 6<br/>value = 78311.503>, fillcolor="#fcf1e8"] ;
395 -> 396 ;
397 [label=<Уехать без пересадок: Окатовая &le; 0.153<br/>squared_error = 149565.852<br/>samples = 2<br/>value = 63710.103>, fillcolor="#fef8f4"] ;
396 -> 397 ;
398 [label=<squared_error = 0.0<br/>samples = 1<br/>value = 64096.84>, fillcolor="#fdf8f3"] ;
397 -> 398 ;
399 [label=<squared_error = 0.0<br/>samples = 1<br/>value = 63323.365>, fillcolor="#fef8f4"] ;
397 -> 399 ;
400 [label=<Продано машиномест, шт &le; 0.335<br/>squared_error = 67261482.251<br/>samples = 4<br/>value = 85612.202>, fillcolor="#fbede3"] ;
396 -> 400 ;
401 [label=<Гостевых мест &le; -0.06<br/>squared_error = 16081942.864<br/>samples = 3<br/>value = 81322.679>, fillcolor="#fcefe6"] ;
400 -> 401 ;
402 [label=<Высота над уровнем моря &le; 0.287<br/>squared_error = 23296.038<br/>samples = 2<br/>value = 78488.388>, fillcolor="#fcf1e8"] ;
401 -> 402 ;
403 [label=<squared_error = 0.0<br/>samples = 1<br/>value = 78335.758>, fillcolor="#fcf1e8"] ;
402 -> 403 ;
404 [label=<squared_error = 0.0<br/>samples = 1<br/>value = 78641.019>, fillcolor="#fcf0e8"] ;
402 -> 404 ;
405 [label=<squared_error = 0.0<br/>samples = 1<br/>value = 86991.262>, fillcolor="#fbece2"] ;
401 -> 405 ;
406 [label=<squared_error = -0.0<br/>samples = 1<br/>value = 98480.772>, fillcolor="#fae7d9"] ;
400 -> 406 ;
407 [label=<Грузовых лифтов в доме &le; -0.096<br/>squared_error = 19268986.289<br/>samples = 3<br/>value = 117284.398>, fillcolor="#f8ddca"] ;
395 -> 407 ;
408 [label=<Площадь спортивных площадок &le; 0.015<br/>squared_error = 4635174.508<br/>samples = 2<br/>value = 114440.205>, fillcolor="#f8dfcc"] ;
407 -> 408 ;
409 [label=<squared_error = 0.0<br/>samples = 1<br/>value = 116593.15>, fillcolor="#f8decb"] ;
408 -> 409 ;
410 [label=<squared_error = -0.0<br/>samples = 1<br/>value = 112287.259>, fillcolor="#f9e0ce"] ;
408 -> 410 ;
411 [label=<squared_error = -0.0<br/>samples = 1<br/>value = 122972.784>, fillcolor="#f8dbc6"] ;
407 -> 411 ;
412 [label=<Продано квартир, шт &le; -1.142<br/>squared_error = 234107438.303<br/>samples = 46<br/>value = 93703.785>, fillcolor="#fae9dc"] ;
2 -> 412 ;
413 [label=<Месяц_5 &le; 1.443<br/>squared_error = 260280050.005<br/>samples = 17<br/>value = 102785.918>, fillcolor="#fae5d5"] ;
412 -> 413 ;
414 [label=<Месяц_3 &le; 1.29<br/>squared_error = 241088748.284<br/>samples = 16<br/>value = 104230.152>, fillcolor="#f9e4d4"] ;
413 -> 414 ;
415 [label=<Месяц_7 &le; 1.322<br/>squared_error = 232450154.776<br/>samples = 15<br/>value = 102987.394>, fillcolor="#fae4d5"] ;
414 -> 415 ;
416 [label=<Месяц_12 &le; 1.791<br/>squared_error = 225130310.549<br/>samples = 13<br/>value = 100954.529>, fillcolor="#fae5d7"] ;
415 -> 416 ;
417 [label=<Площадь спортивных площадок &le; -0.39<br/>squared_error = 218168347.953<br/>samples = 11<br/>value = 98332.786>, fillcolor="#fae7d9"] ;
416 -> 417 ;
418 [label=<Месяц_8 &le; 1.29<br/>squared_error = 290032924.247<br/>samples = 2<br/>value = 108457.801>, fillcolor="#f9e2d1"] ;
417 -> 418 ;
419 [label=<squared_error = 0.0<br/>samples = 1<br/>value = 91427.448>, fillcolor="#fbeade"] ;
418 -> 419 ;
420 [label=<squared_error = -0.0<br/>samples = 1<br/>value = 125488.154>, fillcolor="#f7d9c4"] ;
418 -> 420 ;
421 [label=<Месяц_6 &le; 1.368<br/>squared_error = 174354611.677<br/>samples = 9<br/>value = 96082.783>, fillcolor="#fae8db"] ;
417 -> 421 ;
422 [label=<Парковочных мест у дома &le; -0.189<br/>squared_error = 165674373.029<br/>samples = 8<br/>value = 94242.657>, fillcolor="#fae9dc"] ;
421 -> 422 ;
423 [label=<Месяц_1 &le; 1.43<br/>squared_error = 293669612.82<br/>samples = 2<br/>value = 105758.15>, fillcolor="#f9e3d3"] ;
422 -> 423 ;
424 [label=<squared_error = 0.0<br/>samples = 1<br/>value = 122894.942>, fillcolor="#f8dbc6"] ;
423 -> 424 ;
425 [label=<squared_error = -0.0<br/>samples = 1<br/>value = 88621.359>, fillcolor="#fbece0"] ;
423 -> 425 ;
426 [label=<Продано нежилых, руб &le; 2.505<br/>squared_error = 64073036.185<br/>samples = 6<br/>value = 90404.16>, fillcolor="#fbebdf"] ;
422 -> 426 ;
427 [label=<Месяц_10 &le; 2.191<br/>squared_error = 8073314.656<br/>samples = 5<br/>value = 87017.561>, fillcolor="#fbece2"] ;
426 -> 427 ;
428 [label=<Высота над уровнем моря &le; 0.523<br/>squared_error = 6356979.714<br/>samples = 4<br/>value = 86153.308>, fillcolor="#fbede2"] ;
427 -> 428 ;
429 [label=<Месяц_4 &le; 1.3<br/>squared_error = 9992274.858<br/>samples = 2<br/>value = 87316.14>, fillcolor="#fbece1"] ;
428 -> 429 ;
430 [label=<squared_error = 0.0<br/>samples = 1<br/>value = 90477.196>, fillcolor="#fbebdf"] ;
429 -> 430 ;
431 [label=<squared_error = -0.0<br/>samples = 1<br/>value = 84155.084>, fillcolor="#fbeee4"] ;
429 -> 431 ;
432 [label=<Пассажирских лифтов в доме &le; 1.325<br/>squared_error = 17326.791<br/>samples = 2<br/>value = 84990.476>, fillcolor="#fbede3"] ;
428 -> 432 ;
433 [label=<squared_error = 0.0<br/>samples = 1<br/>value = 85122.107>, fillcolor="#fbede3"] ;
432 -> 433 ;
434 [label=<squared_error = 0.0<br/>samples = 1<br/>value = 84858.844>, fillcolor="#fbede3"] ;
432 -> 434 ;
435 [label=<squared_error = -0.0<br/>samples = 1<br/>value = 90474.571>, fillcolor="#fbebdf"] ;
427 -> 435 ;
436 [label=<squared_error = 0.0<br/>samples = 1<br/>value = 107337.156>, fillcolor="#f9e2d2"] ;
426 -> 436 ;
437 [label=<squared_error = 0.0<br/>samples = 1<br/>value = 110803.789>, fillcolor="#f9e1cf"] ;
421 -> 437 ;
438 [label=<Расстояние по навигатору до: Артем &le; -0.05<br/>squared_error = 17692224.236<br/>samples = 2<br/>value = 115374.114>, fillcolor="#f8decc"] ;
416 -> 438 ;
439 [label=<squared_error = 0.0<br/>samples = 1<br/>value = 119580.327>, fillcolor="#f8dcc9"] ;
438 -> 439 ;
440 [label=<squared_error = 0.0<br/>samples = 1<br/>value = 111167.902>, fillcolor="#f9e0cf"] ;
438 -> 440 ;
441 [label=<Гостевых мест &le; -0.38<br/>squared_error = 78567937.599<br/>samples = 2<br/>value = 116201.012>, fillcolor="#f8decb"] ;
415 -> 441 ;
442 [label=<squared_error = 0.0<br/>samples = 1<br/>value = 107337.156>, fillcolor="#f9e2d2"] ;
441 -> 442 ;
443 [label=<squared_error = -0.0<br/>samples = 1<br/>value = 125064.868>, fillcolor="#f7dac4"] ;
441 -> 443 ;
444 [label=<squared_error = -0.0<br/>samples = 1<br/>value = 122871.529>, fillcolor="#f8dbc6"] ;
414 -> 444 ;
445 [label=<squared_error = 0.0<br/>samples = 1<br/>value = 79678.173>, fillcolor="#fcf0e7"] ;
413 -> 445 ;
446 [label=<Продано квартир, шт &le; 0.208<br/>squared_error = 142066444.46<br/>samples = 29<br/>value = 88379.776>, fillcolor="#fbece1"] ;
412 -> 446 ;
447 [label=<Всего парковочных мест &le; -0.766<br/>squared_error = 155431288.71<br/>samples = 21<br/>value = 91398.32>, fillcolor="#fbeade"] ;
446 -> 447 ;
448 [label=<Месяц_10 &le; 2.191<br/>squared_error = 69293510.964<br/>samples = 15<br/>value = 87249.66>, fillcolor="#fbece1"] ;
447 -> 448 ;
449 [label=<Месяц_11 &le; 1.929<br/>squared_error = 58338549.759<br/>samples = 14<br/>value = 86219.951>, fillcolor="#fbede2"] ;
448 -> 449 ;
450 [label=<Инфраструктура: Спорт &le; 0.581<br/>squared_error = 49554364.643<br/>samples = 13<br/>value = 85246.307>, fillcolor="#fbede3"] ;
449 -> 450 ;
451 [label=<Месяц_1 &le; 1.43<br/>squared_error = 8335335.626<br/>samples = 5<br/>value = 80791.428>, fillcolor="#fcefe6"] ;
450 -> 451 ;
452 [label=<Продано квартир, шт &le; -0.235<br/>squared_error = 5029322.391<br/>samples = 4<br/>value = 81829.681>, fillcolor="#fcefe6"] ;
451 -> 452 ;
453 [label=<Месяц_7 &le; 1.322<br/>squared_error = 972555.952<br/>samples = 3<br/>value = 83026.887>, fillcolor="#fceee5"] ;
452 -> 453 ;
454 [label=<Месяц_4 &le; 1.3<br/>squared_error = 96.842<br/>samples = 2<br/>value = 82329.574>, fillcolor="#fcefe5"] ;
453 -> 454 ;
455 [label=<squared_error = 0.0<br/>samples = 1<br/>value = 82319.733>, fillcolor="#fcefe5"] ;
454 -> 455 ;
456 [label=<squared_error = -0.0<br/>samples = 1<br/>value = 82339.415>, fillcolor="#fcefe5"] ;
454 -> 456 ;
457 [label=<squared_error = 0.0<br/>samples = 1<br/>value = 84421.513>, fillcolor="#fbeee4"] ;
453 -> 457 ;
458 [label=<squared_error = 0.0<br/>samples = 1<br/>value = 78238.064>, fillcolor="#fcf1e8"] ;
452 -> 458 ;
459 [label=<squared_error = -0.0<br/>samples = 1<br/>value = 76638.416>, fillcolor="#fcf1ea"] ;
451 -> 459 ;
460 [label=<Месяц_1 &le; 1.43<br/>squared_error = 55160221.182<br/>samples = 8<br/>value = 88030.606>, fillcolor="#fbece1"] ;
450 -> 460 ;
461 [label=<Месяц_4 &le; 1.3<br/>squared_error = 37061008.023<br/>samples = 7<br/>value = 86228.55>, fillcolor="#fbede2"] ;
460 -> 461 ;
462 [label=<Месяц_6 &le; 1.368<br/>squared_error = 27529396.47<br/>samples = 6<br/>value = 87726.57>, fillcolor="#fbece1"] ;
461 -> 462 ;
463 [label=<Месяц_5 &le; 1.443<br/>squared_error = 18535287.863<br/>samples = 5<br/>value = 89281.132>, fillcolor="#fbebe0"] ;
462 -> 463 ;
464 [label=<Месяц_12 &le; 1.791<br/>squared_error = 3525076.534<br/>samples = 4<br/>value = 91263.254>, fillcolor="#fbeade"] ;
463 -> 464 ;
465 [label=<Всего парковочных мест &le; -0.917<br/>squared_error = 1236980.922<br/>samples = 3<br/>value = 90332.781>, fillcolor="#fbebdf"] ;
464 -> 465 ;
466 [label=<squared_error = 0.0<br/>samples = 1<br/>value = 88800.223>, fillcolor="#fbebe0"] ;
465 -> 466 ;
467 [label=<Месяц_7 &le; 1.322<br/>squared_error = 93919.848<br/>samples = 2<br/>value = 91099.06>, fillcolor="#fbeadf"] ;
465 -> 467 ;
468 [label=<squared_error = 0.0<br/>samples = 1<br/>value = 90792.597>, fillcolor="#fbeadf"] ;
467 -> 468 ;
469 [label=<squared_error = 0.0<br/>samples = 1<br/>value = 91405.524>, fillcolor="#fbeade"] ;
467 -> 469 ;
470 [label=<squared_error = 0.0<br/>samples = 1<br/>value = 94054.674>, fillcolor="#fae9dc"] ;
464 -> 470 ;
471 [label=<squared_error = 0.0<br/>samples = 1<br/>value = 81352.645>, fillcolor="#fcefe6"] ;
463 -> 471 ;
472 [label=<squared_error = -0.0<br/>samples = 1<br/>value = 79953.757>, fillcolor="#fcf0e7"] ;
462 -> 472 ;
473 [label=<squared_error = 0.0<br/>samples = 1<br/>value = 77240.43>, fillcolor="#fcf1e9"] ;
461 -> 473 ;
474 [label=<squared_error = 0.0<br/>samples = 1<br/>value = 100644.997>, fillcolor="#fae6d7"] ;
460 -> 474 ;
475 [label=<squared_error = 0.0<br/>samples = 1<br/>value = 98877.327>, fillcolor="#fae7d9"] ;
449 -> 475 ;
476 [label=<squared_error = 0.0<br/>samples = 1<br/>value = 101665.58>, fillcolor="#fae5d6"] ;
448 -> 476 ;
477 [label=<Месяц_4 &le; 1.3<br/>squared_error = 220176168.13<br/>samples = 6<br/>value = 101769.969>, fillcolor="#fae5d6"] ;
447 -> 477 ;
478 [label=<Продано квартир, шт &le; -0.757<br/>squared_error = 22898234.574<br/>samples = 5<br/>value = 95428.135>, fillcolor="#fae8db"] ;
477 -> 478 ;
479 [label=<Месяц_11 &le; 1.929<br/>squared_error = 1197001.219<br/>samples = 2<br/>value = 90050.609>, fillcolor="#fbebdf"] ;
478 -> 479 ;
480 [label=<squared_error = 0.0<br/>samples = 1<br/>value = 88956.534>, fillcolor="#fbebe0"] ;
479 -> 480 ;
481 [label=<squared_error = -0.0<br/>samples = 1<br/>value = 91144.685>, fillcolor="#fbeade"] ;
479 -> 481 ;
482 [label=<Месяц_7 &le; 1.322<br/>squared_error = 5234850.964<br/>samples = 3<br/>value = 99013.152>, fillcolor="#fae6d8"] ;
478 -> 482 ;
483 [label=<Статус_строится &le; -1.417<br/>squared_error = 123210.953<br/>samples = 2<br/>value = 97408.049>, fillcolor="#fae7da"] ;
482 -> 483 ;
484 [label=<squared_error = 0.0<br/>samples = 1<br/>value = 97057.035>, fillcolor="#fae7da"] ;
483 -> 484 ;
485 [label=<squared_error = 0.0<br/>samples = 1<br/>value = 97759.064>, fillcolor="#fae7d9"] ;
483 -> 485 ;
486 [label=<squared_error = 0.0<br/>samples = 1<br/>value = 102223.358>, fillcolor="#fae5d6"] ;
482 -> 486 ;
487 [label=<squared_error = 0.0<br/>samples = 1<br/>value = 133479.14>, fillcolor="#f6d6be"] ;
477 -> 487 ;
488 [label=<Инфраструктура: Детские сады &le; -0.005<br/>squared_error = 20281116.83<br/>samples = 8<br/>value = 80456.1>, fillcolor="#fcf0e7"] ;
446 -> 488 ;
489 [label=<Месяц_6 &le; 1.368<br/>squared_error = 6134617.726<br/>samples = 5<br/>value = 83586.647>, fillcolor="#fbeee4"] ;
488 -> 489 ;
490 [label=<Продано квартир, шт &le; 1.604<br/>squared_error = 1786954.817<br/>samples = 4<br/>value = 82502.09>, fillcolor="#fcefe5"] ;
489 -> 490 ;
491 [label=<Месяц_5 &le; 1.443<br/>squared_error = 73028.992<br/>samples = 3<br/>value = 83261.955>, fillcolor="#fceee5"] ;
490 -> 491 ;
492 [label=<Месяц_4 &le; 1.3<br/>squared_error = 9331.803<br/>samples = 2<br/>value = 83079.187>, fillcolor="#fceee5"] ;
491 -> 492 ;
493 [label=<squared_error = 0.0<br/>samples = 1<br/>value = 83175.789>, fillcolor="#fceee5"] ;
492 -> 493 ;
494 [label=<squared_error = -0.0<br/>samples = 1<br/>value = 82982.586>, fillcolor="#fceee5"] ;
492 -> 494 ;
495 [label=<squared_error = 0.0<br/>samples = 1<br/>value = 83627.489>, fillcolor="#fbeee4"] ;
491 -> 495 ;
496 [label=<squared_error = 0.0<br/>samples = 1<br/>value = 80222.496>, fillcolor="#fcf0e7"] ;
490 -> 496 ;
497 [label=<squared_error = -0.0<br/>samples = 1<br/>value = 87924.874>, fillcolor="#fbece1"] ;
489 -> 497 ;
498 [label=<Количество квартир &le; -0.792<br/>squared_error = 301611.359<br/>samples = 3<br/>value = 75238.521>, fillcolor="#fcf2eb"] ;
488 -> 498 ;
499 [label=<Продано квартир, шт &le; 0.78<br/>squared_error = 1432.807<br/>samples = 2<br/>value = 75626.243>, fillcolor="#fcf2ea"] ;
498 -> 499 ;
500 [label=<squared_error = 0.0<br/>samples = 1<br/>value = 75588.39>, fillcolor="#fcf2ea"] ;
499 -> 500 ;
501 [label=<squared_error = -0.0<br/>samples = 1<br/>value = 75664.095>, fillcolor="#fcf2ea"] ;
499 -> 501 ;
502 [label=<squared_error = 0.0<br/>samples = 1<br/>value = 74463.078>, fillcolor="#fcf2eb"] ;
498 -> 502 ;
503 [label=<Есть велопарковка &le; 0.076<br/>squared_error = 1253993209.891<br/>samples = 37<br/>value = 158585.711>, fillcolor="#f4c9aa"] ;
1 -> 503 ;
504 [label=<Месяц_8 &le; 1.29<br/>squared_error = 61766768.767<br/>samples = 11<br/>value = 124126.241>, fillcolor="#f7dac5"] ;
503 -> 504 ;
505 [label=<Продано квартир, шт &le; 0.208<br/>squared_error = 27704003.326<br/>samples = 10<br/>value = 126038.866>, fillcolor="#f7d9c4"] ;
504 -> 505 ;
506 [label=<Месяц_9 &le; 2.3<br/>squared_error = 546948.803<br/>samples = 3<br/>value = 119952.26>, fillcolor="#f8dcc8"] ;
505 -> 506 ;
507 [label=<Разнообразие общественного транспорта 1000м &le; 0.023<br/>squared_error = 173562.98<br/>samples = 2<br/>value = 120416.609>, fillcolor="#f8dcc8"] ;
506 -> 507 ;
508 [label=<squared_error = 0.0<br/>samples = 1<br/>value = 120833.218>, fillcolor="#f8dcc8"] ;
507 -> 508 ;
509 [label=<squared_error = -0.0<br/>samples = 1<br/>value = 120000.0>, fillcolor="#f8dcc8"] ;
507 -> 509 ;
510 [label=<squared_error = 0.0<br/>samples = 1<br/>value = 119023.562>, fillcolor="#f8ddc9"] ;
506 -> 510 ;
511 [label=<Площадь особых площадок &le; 0.154<br/>squared_error = 16661045.138<br/>samples = 7<br/>value = 128647.411>, fillcolor="#f7d8c2"] ;
505 -> 511 ;
512 [label=<squared_error = 0.0<br/>samples = 1<br/>value = 122881.597>, fillcolor="#f8dbc6"] ;
511 -> 512 ;
513 [label=<Продано нежилых, руб &le; 2.28<br/>squared_error = 12973656.645<br/>samples = 6<br/>value = 129608.38>, fillcolor="#f7d7c1"] ;
511 -> 513 ;
514 [label=<Продано квартир, шт &le; 1.866<br/>squared_error = 5773891.177<br/>samples = 5<br/>value = 130886.04>, fillcolor="#f7d7c0"] ;
513 -> 514 ;
515 [label=<Количество квартир на этаже &le; -0.01<br/>squared_error = 2144452.002<br/>samples = 4<br/>value = 131893.305>, fillcolor="#f7d6bf"] ;
514 -> 515 ;
516 [label=<squared_error = 0.0<br/>samples = 1<br/>value = 134284.622>, fillcolor="#f6d5bd"] ;
515 -> 516 ;
517 [label=<Продано машиномест, руб &le; 0.862<br/>squared_error = 317760.252<br/>samples = 3<br/>value = 131096.2>, fillcolor="#f7d7c0"] ;
515 -> 517 ;
518 [label=<squared_error = 0.0<br/>samples = 1<br/>value = 130302.281>, fillcolor="#f7d7c0"] ;
517 -> 518 ;
519 [label=<Продано нежилых, руб &le; 2.216<br/>squared_error = 3910.875<br/>samples = 2<br/>value = 131493.159>, fillcolor="#f7d6bf"] ;
517 -> 519 ;
520 [label=<squared_error = 0.0<br/>samples = 1<br/>value = 131430.622>, fillcolor="#f7d7bf"] ;
519 -> 520 ;
521 [label=<squared_error = 0.0<br/>samples = 1<br/>value = 131555.696>, fillcolor="#f7d6bf"] ;
519 -> 521 ;
522 [label=<squared_error = 0.0<br/>samples = 1<br/>value = 126856.981>, fillcolor="#f7d9c3"] ;
514 -> 522 ;
523 [label=<squared_error = -0.0<br/>samples = 1<br/>value = 123220.078>, fillcolor="#f7dbc6"] ;
513 -> 523 ;
524 [label=<squared_error = 0.0<br/>samples = 1<br/>value = 105000.0>, fillcolor="#f9e3d4"] ;
504 -> 524 ;
525 [label=<Продано квартир, шт &le; -0.452<br/>squared_error = 1043464455.377<br/>samples = 26<br/>value = 173164.717>, fillcolor="#f2c29f"] ;
503 -> 525 ;
526 [label=<Месяц_8 &le; 1.29<br/>squared_error = 994622076.2<br/>samples = 15<br/>value = 190911.761>, fillcolor="#f1b991"] ;
525 -> 526 ;
527 [label=<Месяц_4 &le; 1.3<br/>squared_error = 850326219.209<br/>samples = 14<br/>value = 187122.827>, fillcolor="#f1bb94"] ;
526 -> 527 ;
528 [label=<Месяц_7 &le; 1.322<br/>squared_error = 662783722.257<br/>samples = 11<br/>value = 178374.274>, fillcolor="#f2bf9b"] ;
527 -> 528 ;
529 [label=<Общая площадь квартир &le; -1.051<br/>squared_error = 603498492.407<br/>samples = 9<br/>value = 172346.335>, fillcolor="#f2c2a0"] ;
528 -> 529 ;
530 [label=<Месяц_5 &le; 1.443<br/>squared_error = 1138060164.47<br/>samples = 2<br/>value = 194081.399>, fillcolor="#f0b88f"] ;
529 -> 530 ;
531 [label=<squared_error = 0.0<br/>samples = 1<br/>value = 160346.252>, fillcolor="#f4c8a9"] ;
530 -> 531 ;
532 [label=<squared_error = -0.0<br/>samples = 1<br/>value = 227816.547>, fillcolor="#eda775"] ;
530 -> 532 ;
533 [label=<Количество квартир на этаже &le; -0.185<br/>squared_error = 277227099.07<br/>samples = 7<br/>value = 166136.316>, fillcolor="#f3c5a5"] ;
529 -> 533 ;
534 [label=<Месяц_6 &le; 1.368<br/>squared_error = 304514578.495<br/>samples = 4<br/>value = 172408.211>, fillcolor="#f2c2a0"] ;
533 -> 534 ;
535 [label=<Месяц_1 &le; 1.43<br/>squared_error = 7111101.999<br/>samples = 3<br/>value = 162421.866>, fillcolor="#f4c7a7"] ;
534 -> 535 ;
536 [label=<Месяц_10 &le; 2.191<br/>squared_error = 524970.64<br/>samples = 2<br/>value = 164260.496>, fillcolor="#f3c6a6"] ;
535 -> 536 ;
537 [label=<squared_error = 0.0<br/>samples = 1<br/>value = 163535.948>, fillcolor="#f3c7a7"] ;
536 -> 537 ;
538 [label=<squared_error = 0.0<br/>samples = 1<br/>value = 164985.045>, fillcolor="#f3c6a5"] ;
536 -> 538 ;
539 [label=<squared_error = -0.0<br/>samples = 1<br/>value = 158744.606>, fillcolor="#f4c9aa"] ;
535 -> 539 ;
540 [label=<squared_error = -0.0<br/>samples = 1<br/>value = 202367.246>, fillcolor="#efb489"] ;
534 -> 540 ;
541 [label=<Месяц_3 &le; 1.29<br/>squared_error = 118463048.683<br/>samples = 3<br/>value = 157773.789>, fillcolor="#f4caab"] ;
533 -> 541 ;
542 [label=<Месяц_5 &le; 1.443<br/>squared_error = 4222950.167<br/>samples = 2<br/>value = 150169.588>, fillcolor="#f5cdb1"] ;
541 -> 542 ;
543 [label=<squared_error = 0.0<br/>samples = 1<br/>value = 148114.606>, fillcolor="#f5ceb3"] ;
542 -> 543 ;
544 [label=<squared_error = 0.0<br/>samples = 1<br/>value = 152224.57>, fillcolor="#f5ccaf"] ;
542 -> 544 ;
545 [label=<squared_error = 0.0<br/>samples = 1<br/>value = 172982.191>, fillcolor="#f2c29f"] ;
541 -> 545 ;
546 [label=<Инфраструктура: Новостройки &le; -0.461<br/>squared_error = 30250000.0<br/>samples = 2<br/>value = 205500.0>, fillcolor="#efb286"] ;
528 -> 546 ;
547 [label=<squared_error = 0.0<br/>samples = 1<br/>value = 200000.0>, fillcolor="#f0b58a"] ;
546 -> 547 ;
548 [label=<squared_error = 0.0<br/>samples = 1<br/>value = 211000.0>, fillcolor="#efaf82"] ;
546 -> 548 ;
549 [label=<Продано квартир, шт &le; -1.142<br/>squared_error = 228345638.832<br/>samples = 3<br/>value = 219200.858>, fillcolor="#eeab7c"] ;
527 -> 549 ;
550 [label=<squared_error = 0.0<br/>samples = 1<br/>value = 238000.0>, fillcolor="#eca26d"] ;
549 -> 550 ;
551 [label=<Расстояние по навигатору до: Баляева &le; -0.374<br/>squared_error = 77462646.402<br/>samples = 2<br/>value = 209801.287>, fillcolor="#efb083"] ;
549 -> 551 ;
552 [label=<squared_error = 0.0<br/>samples = 1<br/>value = 201000.0>, fillcolor="#f0b48a"] ;
551 -> 552 ;
553 [label=<squared_error = 0.0<br/>samples = 1<br/>value = 218602.573>, fillcolor="#eeac7c"] ;
551 -> 553 ;
554 [label=<squared_error = 0.0<br/>samples = 1<br/>value = 243956.835>, fillcolor="#eb9f69"] ;
526 -> 554 ;
555 [label=<Общая площадь квартир &le; -1.051<br/>squared_error = 94915203.172<br/>samples = 11<br/>value = 148964.203>, fillcolor="#f5ceb2"] ;
525 -> 555 ;
556 [label=<Продано квартир, шт &le; 1.34<br/>squared_error = 65742397.31<br/>samples = 5<br/>value = 156673.108>, fillcolor="#f4caac"] ;
555 -> 556 ;
557 [label=<Месяц_8 &le; 1.29<br/>squared_error = 50078433.823<br/>samples = 4<br/>value = 159206.862>, fillcolor="#f4c9aa"] ;
556 -> 557 ;
558 [label=<Месяц_10 &le; 2.191<br/>squared_error = 9981224.57<br/>samples = 3<br/>value = 162974.82>, fillcolor="#f3c7a7"] ;
557 -> 558 ;
559 [label=<Месяц_12 &le; 1.791<br/>squared_error = 960446.494<br/>samples = 2<br/>value = 165135.945>, fillcolor="#f3c6a5"] ;
558 -> 559 ;
560 [label=<squared_error = 0.0<br/>samples = 1<br/>value = 164155.922>, fillcolor="#f3c6a6"] ;
559 -> 560 ;
561 [label=<squared_error = -0.0<br/>samples = 1<br/>value = 166115.969>, fillcolor="#f3c5a5"] ;
559 -> 561 ;
562 [label=<squared_error = 0.0<br/>samples = 1<br/>value = 158652.569>, fillcolor="#f4c9aa"] ;
558 -> 562 ;
563 [label=<squared_error = -0.0<br/>samples = 1<br/>value = 147902.989>, fillcolor="#f5ceb3"] ;
557 -> 563 ;
564 [label=<squared_error = -0.0<br/>samples = 1<br/>value = 146538.089>, fillcolor="#f5cfb4"] ;
556 -> 564 ;
565 [label=<Продано машиномест, шт &le; 1.432<br/>squared_error = 28434297.315<br/>samples = 6<br/>value = 142540.115>, fillcolor="#f6d1b7"] ;
555 -> 565 ;
566 [label=<Есть площадки для собак &le; 0.459<br/>squared_error = 9839217.421<br/>samples = 5<br/>value = 140528.402>, fillcolor="#f6d2b8"] ;
565 -> 566 ;
567 [label=<Продано квартир, шт &le; 0.107<br/>squared_error = 1788214.005<br/>samples = 3<br/>value = 138175.687>, fillcolor="#f6d3ba"] ;
566 -> 567 ;
568 [label=<Инфраструктура: Рядом ВУЗ &le; 0.355<br/>squared_error = 91058.382<br/>samples = 2<br/>value = 137246.304>, fillcolor="#f6d4bb"] ;
567 -> 568 ;
569 [label=<squared_error = 0.0<br/>samples = 1<br/>value = 137548.062>, fillcolor="#f6d4bb"] ;
568 -> 569 ;
570 [label=<squared_error = 0.0<br/>samples = 1<br/>value = 136944.545>, fillcolor="#f6d4bb"] ;
568 -> 570 ;
571 [label=<squared_error = 0.0<br/>samples = 1<br/>value = 140034.455>, fillcolor="#f6d2b9"] ;
567 -> 571 ;
572 [label=<Продано квартир, шт &le; 0.681<br/>squared_error = 1158470.8<br/>samples = 2<br/>value = 144057.474>, fillcolor="#f5d0b6"] ;
566 -> 572 ;
573 [label=<squared_error = 0.0<br/>samples = 1<br/>value = 142981.152>, fillcolor="#f5d1b6"] ;
572 -> 573 ;
574 [label=<squared_error = 0.0<br/>samples = 1<br/>value = 145133.797>, fillcolor="#f5d0b5"] ;
572 -> 574 ;
575 [label=<squared_error = -0.0<br/>samples = 1<br/>value = 152598.681>, fillcolor="#f5ccaf"] ;
565 -> 575 ;
576 [label=<Есть железная дорога 250м &le; 1.38<br/>squared_error = 1145793671.373<br/>samples = 529<br/>value = 152865.875>, fillcolor="#f4ccaf"] ;
0 -> 576 [labeldistance=2.5, labelangle=-45, headlabel="False"] ;
577 [label=<Количество трехкомнатных квартир &le; 1.143<br/>squared_error = 716801341.92<br/>samples = 474<br/>value = 146663.084>, fillcolor="#f5cfb4"] ;
576 -> 577 ;
578 [label=<Долгота &le; -0.527<br/>squared_error = 609087116.257<br/>samples = 426<br/>value = 142839.388>, fillcolor="#f5d1b7"] ;
577 -> 578 ;
579 [label=<Количество четырехкомнатных квартир &le; 1.933<br/>squared_error = 907472352.077<br/>samples = 21<br/>value = 100938.754>, fillcolor="#fae5d7"] ;
578 -> 579 ;
580 [label=<Месяц_12 &le; 1.791<br/>squared_error = 547602630.823<br/>samples = 18<br/>value = 109483.407>, fillcolor="#f9e1d0"] ;
579 -> 580 ;
581 [label=<Статус_сдан &le; 1.417<br/>squared_error = 176984799.822<br/>samples = 16<br/>value = 104781.114>, fillcolor="#f9e4d4"] ;
580 -> 581 ;
582 [label=<squared_error = 0.0<br/>samples = 1<br/>value = 137147.012>, fillcolor="#f6d4bb"] ;
581 -> 582 ;
583 [label=<Площадь спортивных площадок &le; -0.704<br/>squared_error = 114291248.444<br/>samples = 15<br/>value = 102623.388>, fillcolor="#fae5d6"] ;
581 -> 583 ;
584 [label=<Месяц_2 &le; 1.3<br/>squared_error = 84730156.386<br/>samples = 8<br/>value = 96834.079>, fillcolor="#fae8da"] ;
583 -> 584 ;
585 [label=<Месяц_4 &le; 1.3<br/>squared_error = 26492874.409<br/>samples = 7<br/>value = 99799.328>, fillcolor="#fae6d8"] ;
584 -> 585 ;
586 [label=<Продано нежилых, руб &le; 2.149<br/>squared_error = 18992761.168<br/>samples = 6<br/>value = 101104.022>, fillcolor="#fae5d7"] ;
585 -> 586 ;
587 [label=<Месяц_10 &le; 2.191<br/>squared_error = 8813155.07<br/>samples = 4<br/>value = 103647.773>, fillcolor="#f9e4d5"] ;
586 -> 587 ;
588 [label=<Продано квартир, шт &le; -0.62<br/>squared_error = 3501353.844<br/>samples = 3<br/>value = 105083.872>, fillcolor="#f9e3d4"] ;
587 -> 588 ;
589 [label=<squared_error = 0.0<br/>samples = 1<br/>value = 102460.016>, fillcolor="#fae5d6"] ;
588 -> 589 ;
590 [label=<Продано квартир, шт &le; 0.47<br/>squared_error = 88566.146<br/>samples = 2<br/>value = 106395.8>, fillcolor="#f9e3d3"] ;
588 -> 590 ;
591 [label=<squared_error = 0.0<br/>samples = 1<br/>value = 106098.199>, fillcolor="#f9e3d3"] ;
590 -> 591 ;
592 [label=<squared_error = 0.0<br/>samples = 1<br/>value = 106693.401>, fillcolor="#f9e3d2"] ;
590 -> 592 ;
593 [label=<squared_error = -0.0<br/>samples = 1<br/>value = 99339.477>, fillcolor="#fae6d8"] ;
587 -> 593 ;
594 [label=<Продано нежилых, руб &le; 2.244<br/>squared_error = 527951.006<br/>samples = 2<br/>value = 96016.519>, fillcolor="#fae8db"] ;
586 -> 594 ;
595 [label=<squared_error = 0.0<br/>samples = 1<br/>value = 96743.122>, fillcolor="#fae8da"] ;
594 -> 595 ;
596 [label=<squared_error = 0.0<br/>samples = 1<br/>value = 95289.917>, fillcolor="#fae8db"] ;
594 -> 596 ;
597 [label=<squared_error = -0.0<br/>samples = 1<br/>value = 91971.161>, fillcolor="#fbeade"] ;
585 -> 597 ;
598 [label=<squared_error = -0.0<br/>samples = 1<br/>value = 76077.339>, fillcolor="#fcf2ea"] ;
584 -> 598 ;
599 [label=<Месяц_1 &le; 1.43<br/>squared_error = 65995121.227<br/>samples = 7<br/>value = 109239.74>, fillcolor="#f9e1d1"] ;
583 -> 599 ;
600 [label=<Месяц_9 &le; 2.3<br/>squared_error = 50516712.117<br/>samples = 6<br/>value = 111184.609>, fillcolor="#f9e0cf"] ;
599 -> 600 ;
601 [label=<Продано квартир, шт &le; 0.208<br/>squared_error = 19183007.984<br/>samples = 5<br/>value = 113812.569>, fillcolor="#f8dfcd"] ;
600 -> 601 ;
602 [label=<Месяц_8 &le; 1.29<br/>squared_error = 1996711.33<br/>samples = 2<br/>value = 118412.25>, fillcolor="#f8ddc9"] ;
601 -> 602 ;
603 [label=<squared_error = 0.0<br/>samples = 1<br/>value = 116999.199>, fillcolor="#f8decb"] ;
602 -> 603 ;
604 [label=<squared_error = 0.0<br/>samples = 1<br/>value = 119825.3>, fillcolor="#f8dcc8"] ;
602 -> 604 ;
605 [label=<Месяц_11 &le; 1.929<br/>squared_error = 7132694.35<br/>samples = 3<br/>value = 110746.116>, fillcolor="#f9e1cf"] ;
601 -> 605 ;
606 [label=<Месяц_10 &le; 2.191<br/>squared_error = 1719766.119<br/>samples = 2<br/>value = 112476.171>, fillcolor="#f9e0ce"] ;
605 -> 606 ;
607 [label=<squared_error = 0.0<br/>samples = 1<br/>value = 111164.772>, fillcolor="#f9e0cf"] ;
606 -> 607 ;
608 [label=<squared_error = 0.0<br/>samples = 1<br/>value = 113787.569>, fillcolor="#f8dfcd"] ;
606 -> 608 ;
609 [label=<squared_error = -0.0<br/>samples = 1<br/>value = 107286.005>, fillcolor="#f9e2d2"] ;
605 -> 609 ;
610 [label=<squared_error = 0.0<br/>samples = 1<br/>value = 98044.808>, fillcolor="#fae7d9"] ;
600 -> 610 ;
611 [label=<squared_error = -0.0<br/>samples = 1<br/>value = 97570.529>, fillcolor="#fae7da"] ;
599 -> 611 ;
612 [label=<Количество четырехкомнатных квартир &le; 0.262<br/>squared_error = 1920513239.77<br/>samples = 2<br/>value = 147101.748>, fillcolor="#f5cfb3"] ;
580 -> 612 ;
613 [label=<squared_error = 0.0<br/>samples = 1<br/>value = 190925.409>, fillcolor="#f1b991"] ;
612 -> 613 ;
614 [label=<squared_error = -0.0<br/>samples = 1<br/>value = 103278.087>, fillcolor="#f9e4d5"] ;
612 -> 614 ;
615 [label=<Месяц_12 &le; 1.791<br/>squared_error = 225038.736<br/>samples = 3<br/>value = 49670.839>, fillcolor="#fffffe"] ;
579 -> 615 ;
616 [label=<Месяц_9 &le; 2.3<br/>squared_error = 39.173<br/>samples = 2<br/>value = 50006.259>, fillcolor="#fffffe"] ;
615 -> 616 ;
617 [label=<squared_error = 0.0<br/>samples = 1<br/>value = 50000.0>, fillcolor="#fffffe"] ;
616 -> 617 ;
618 [label=<squared_error = 0.0<br/>samples = 1<br/>value = 50012.518>, fillcolor="#fffffe"] ;
616 -> 618 ;
619 [label=<squared_error = 0.0<br/>samples = 1<br/>value = 49000.0>, fillcolor="#ffffff"] ;
615 -> 619 ;
620 [label=<Долгота &le; 0.116<br/>squared_error = 497860604.315<br/>samples = 405<br/>value = 145012.014>, fillcolor="#f5d0b5"] ;
578 -> 620 ;
621 [label=<Общая площадь квартир &le; -0.095<br/>squared_error = 436040333.212<br/>samples = 222<br/>value = 153479.415>, fillcolor="#f4ccae"] ;
620 -> 621 ;
622 [label=<Грузовых лифтов в доме &le; -0.703<br/>squared_error = 471058396.953<br/>samples = 32<br/>value = 176995.145>, fillcolor="#f2c09c"] ;
621 -> 622 ;
623 [label=<Месяц_8 &le; 1.29<br/>squared_error = 140758785.833<br/>samples = 14<br/>value = 159189.581>, fillcolor="#f4c9aa"] ;
622 -> 623 ;
624 [label=<Месяц_2 &le; 1.3<br/>squared_error = 68945239.346<br/>samples = 10<br/>value = 155165.585>, fillcolor="#f4cbad"] ;
623 -> 624 ;
625 [label=<Продано машиномест, руб &le; 2.142<br/>squared_error = 55342578.672<br/>samples = 8<br/>value = 153342.483>, fillcolor="#f4ccae"] ;
624 -> 625 ;
626 [label=<Продано квартир, шт &le; -0.757<br/>squared_error = 50300719.269<br/>samples = 7<br/>value = 152070.283>, fillcolor="#f5ccaf"] ;
625 -> 626 ;
627 [label=<Количество однокомнатных квартир &le; -0.209<br/>squared_error = 13142990.079<br/>samples = 5<br/>value = 155736.001>, fillcolor="#f4cbad"] ;
626 -> 627 ;
628 [label=<Месяц_7 &le; 1.322<br/>squared_error = 3181150.502<br/>samples = 3<br/>value = 153022.253>, fillcolor="#f4ccaf"] ;
627 -> 628 ;
629 [label=<Количество квартир &le; -0.808<br/>squared_error = 486657.415<br/>samples = 2<br/>value = 154217.392>, fillcolor="#f4cbae"] ;
628 -> 629 ;
630 [label=<squared_error = 0.0<br/>samples = 1<br/>value = 154915.0>, fillcolor="#f4cbad"] ;
629 -> 630 ;
631 [label=<squared_error = -0.0<br/>samples = 1<br/>value = 153519.783>, fillcolor="#f4ccae"] ;
629 -> 631 ;
632 [label=<squared_error = -0.0<br/>samples = 1<br/>value = 150631.976>, fillcolor="#f5cdb1"] ;
628 -> 632 ;
633 [label=<Месяц_7 &le; 1.322<br/>squared_error = 469149.895<br/>samples = 2<br/>value = 159806.622>, fillcolor="#f4c9a9"] ;
627 -> 633 ;
634 [label=<squared_error = 0.0<br/>samples = 1<br/>value = 159121.677>, fillcolor="#f4c9aa"] ;
633 -> 634 ;
635 [label=<squared_error = 0.0<br/>samples = 1<br/>value = 160491.568>, fillcolor="#f4c8a9"] ;
633 -> 635 ;
636 [label=<Расстояние по навигатору до: Третья рабочая &le; -0.888<br/>squared_error = 25617060.586<br/>samples = 2<br/>value = 142905.99>, fillcolor="#f5d1b7"] ;
626 -> 636 ;
637 [label=<squared_error = 0.0<br/>samples = 1<br/>value = 147967.32>, fillcolor="#f5ceb3"] ;
636 -> 637 ;
638 [label=<squared_error = -0.0<br/>samples = 1<br/>value = 137844.66>, fillcolor="#f6d3ba"] ;
636 -> 638 ;
639 [label=<squared_error = -0.0<br/>samples = 1<br/>value = 162247.883>, fillcolor="#f4c7a8"] ;
625 -> 639 ;
640 [label=<Средняя этажность 250м &le; -0.568<br/>squared_error = 56881892.448<br/>samples = 2<br/>value = 162457.991>, fillcolor="#f4c7a7"] ;
624 -> 640 ;
641 [label=<squared_error = 0.0<br/>samples = 1<br/>value = 170000.0>, fillcolor="#f3c4a2"] ;
640 -> 641 ;
642 [label=<squared_error = -0.0<br/>samples = 1<br/>value = 154915.983>, fillcolor="#f4cbad"] ;
640 -> 642 ;
643 [label=<Продано квартир, шт &le; -0.757<br/>squared_error = 178607872.978<br/>samples = 4<br/>value = 169249.572>, fillcolor="#f3c4a2"] ;
623 -> 643 ;
644 [label=<Площадь спортивных площадок &le; -0.197<br/>squared_error = 112525043.602<br/>samples = 3<br/>value = 174853.561>, fillcolor="#f2c19e"] ;
643 -> 644 ;
645 [label=<Площадь детских площадок &le; -0.347<br/>squared_error = 216063.901<br/>samples = 2<br/>value = 167357.529>, fillcolor="#f3c5a4"] ;
644 -> 645 ;
646 [label=<squared_error = 0.0<br/>samples = 1<br/>value = 167822.356>, fillcolor="#f3c5a3"] ;
645 -> 646 ;
647 [label=<squared_error = 0.0<br/>samples = 1<br/>value = 166892.702>, fillcolor="#f3c5a4"] ;
645 -> 647 ;
648 [label=<squared_error = 0.0<br/>samples = 1<br/>value = 189845.626>, fillcolor="#f1ba92"] ;
644 -> 648 ;
649 [label=<squared_error = 0.0<br/>samples = 1<br/>value = 152437.604>, fillcolor="#f5ccaf"] ;
643 -> 649 ;
650 [label=<Месяц_1 &le; 1.43<br/>squared_error = 289584428.583<br/>samples = 18<br/>value = 190843.917>, fillcolor="#f1b992"] ;
622 -> 650 ;
651 [label=<Продано нежилых, м2 &le; 0.977<br/>squared_error = 238065089.172<br/>samples = 15<br/>value = 195080.877>, fillcolor="#f0b78e"] ;
650 -> 651 ;
652 [label=<Продано квартир, шт &le; -1.142<br/>squared_error = 202591301.465<br/>samples = 13<br/>value = 191980.569>, fillcolor="#f1b991"] ;
651 -> 652 ;
653 [label=<Месяц_3 &le; 1.29<br/>squared_error = 207904972.317<br/>samples = 3<br/>value = 206671.517>, fillcolor="#efb285"] ;
652 -> 653 ;
654 [label=<Расстояние по навигатору до: Центр &le; -0.698<br/>squared_error = 45562500.0<br/>samples = 2<br/>value = 197250.0>, fillcolor="#f0b68d"] ;
653 -> 654 ;
655 [label=<squared_error = 0.0<br/>samples = 1<br/>value = 204000.0>, fillcolor="#efb387"] ;
654 -> 655 ;
656 [label=<squared_error = 0.0<br/>samples = 1<br/>value = 190500.0>, fillcolor="#f1ba92"] ;
654 -> 656 ;
657 [label=<squared_error = 0.0<br/>samples = 1<br/>value = 225514.552>, fillcolor="#eda877"] ;
653 -> 657 ;
658 [label=<Расстояние по навигатору до: В-надеждинское &le; 1.266<br/>squared_error = 116825855.948<br/>samples = 10<br/>value = 187573.285>, fillcolor="#f1bb94"] ;
652 -> 658 ;
659 [label=<Месяц_5 &le; 1.443<br/>squared_error = 78065764.568<br/>samples = 9<br/>value = 185298.625>, fillcolor="#f1bc96"] ;
658 -> 659 ;
660 [label=<Продано квартир, шт &le; -0.452<br/>squared_error = 45104312.521<br/>samples = 7<br/>value = 181869.133>, fillcolor="#f2be98"] ;
659 -> 660 ;
661 [label=<Общая площадь земельного участка &le; -0.718<br/>squared_error = 2777049.048<br/>samples = 3<br/>value = 188393.695>, fillcolor="#f1bb93"] ;
660 -> 661 ;
662 [label=<Основной материал фасада_керамогранит &le; 0.616<br/>squared_error = 436369.564<br/>samples = 2<br/>value = 189508.625>, fillcolor="#f1ba93"] ;
661 -> 662 ;
663 [label=<squared_error = 0.0<br/>samples = 1<br/>value = 188848.042>, fillcolor="#f1ba93"] ;
662 -> 663 ;
664 [label=<squared_error = 0.0<br/>samples = 1<br/>value = 190169.207>, fillcolor="#f1ba92"] ;
662 -> 664 ;
665 [label=<squared_error = -0.0<br/>samples = 1<br/>value = 186163.836>, fillcolor="#f1bc95"] ;
661 -> 665 ;
666 [label=<Продано машиномест, шт &le; 0.854<br/>squared_error = 20976751.07<br/>samples = 4<br/>value = 176975.711>, fillcolor="#f2c09c"] ;
660 -> 666 ;
667 [label=<Парковочных мест у дома &le; -0.004<br/>squared_error = 10815247.969<br/>samples = 3<br/>value = 174904.857>, fillcolor="#f2c19e"] ;
666 -> 667 ;
668 [label=<squared_error = 0.0<br/>samples = 1<br/>value = 170782.84>, fillcolor="#f3c3a1"] ;
667 -> 668 ;
669 [label=<Количество четырехкомнатных квартир &le; -0.355<br/>squared_error = 3479607.968<br/>samples = 2<br/>value = 176965.865>, fillcolor="#f2c09c"] ;
667 -> 669 ;
670 [label=<squared_error = 0.0<br/>samples = 1<br/>value = 175100.494>, fillcolor="#f2c19e"] ;
669 -> 670 ;
671 [label=<squared_error = -0.0<br/>samples = 1<br/>value = 178831.236>, fillcolor="#f2bf9b"] ;
669 -> 671 ;
672 [label=<squared_error = -0.0<br/>samples = 1<br/>value = 183188.275>, fillcolor="#f1bd97"] ;
666 -> 672 ;
673 [label=<Пассажирских лифтов в доме &le; 0.18<br/>squared_error = 8188508.623<br/>samples = 2<br/>value = 197301.849>, fillcolor="#f0b68d"] ;
659 -> 673 ;
674 [label=<squared_error = 0.0<br/>samples = 1<br/>value = 200163.406>, fillcolor="#f0b58a"] ;
673 -> 674 ;
675 [label=<squared_error = -0.0<br/>samples = 1<br/>value = 194440.292>, fillcolor="#f0b88f"] ;
673 -> 675 ;
676 [label=<squared_error = -0.0<br/>samples = 1<br/>value = 208045.217>, fillcolor="#efb184"] ;
658 -> 676 ;
677 [label=<Количество двухкомнатных квартир &le; -0.136<br/>squared_error = 64049.182<br/>samples = 2<br/>value = 215232.881>, fillcolor="#eead7f"] ;
651 -> 677 ;
678 [label=<squared_error = 0.0<br/>samples = 1<br/>value = 215485.96>, fillcolor="#eead7f"] ;
677 -> 678 ;
679 [label=<squared_error = 0.0<br/>samples = 1<br/>value = 214979.801>, fillcolor="#eead7f"] ;
677 -> 679 ;
680 [label=<Парковочных мест внутри дома &le; -0.039<br/>squared_error = 8626117.911<br/>samples = 3<br/>value = 169659.115>, fillcolor="#f3c4a2"] ;
650 -> 680 ;
681 [label=<Площадь спортивных площадок &le; -0.587<br/>squared_error = 2339015.656<br/>samples = 2<br/>value = 167779.384>, fillcolor="#f3c5a3"] ;
680 -> 681 ;
682 [label=<squared_error = 0.0<br/>samples = 1<br/>value = 169308.768>, fillcolor="#f3c4a2"] ;
681 -> 682 ;
683 [label=<squared_error = 0.0<br/>samples = 1<br/>value = 166250.0>, fillcolor="#f3c5a5"] ;
681 -> 683 ;
684 [label=<squared_error = -0.0<br/>samples = 1<br/>value = 173418.576>, fillcolor="#f2c29f"] ;
680 -> 684 ;
685 [label=<Есть квартиры с черновой отделкой &le; -0.265<br/>squared_error = 321321560.301<br/>samples = 190<br/>value = 149518.871>, fillcolor="#f5ceb1"] ;
621 -> 685 ;
686 [label=<Продано нежилых, руб &le; 2.651<br/>squared_error = 413261953.821<br/>samples = 22<br/>value = 126959.82>, fillcolor="#f7d9c3"] ;
685 -> 686 ;
687 [label=<Расстояние по навигатору до: Окатовая &le; -0.676<br/>squared_error = 278473404.518<br/>samples = 21<br/>value = 124310.054>, fillcolor="#f7dac5"] ;
686 -> 687 ;
688 [label=<Месяц_12 &le; 1.791<br/>squared_error = 450129996.126<br/>samples = 7<br/>value = 111363.717>, fillcolor="#f9e0cf"] ;
687 -> 688 ;
689 [label=<Продано квартир, шт &le; -0.198<br/>squared_error = 12162224.86<br/>samples = 6<br/>value = 119924.336>, fillcolor="#f8dcc8"] ;
688 -> 689 ;
690 [label=<Месяц_4 &le; 1.3<br/>squared_error = 7216151.61<br/>samples = 4<br/>value = 121828.079>, fillcolor="#f8dbc7"] ;
689 -> 690 ;
691 [label=<Продано квартир, шт &le; -0.757<br/>squared_error = 2729284.503<br/>samples = 3<br/>value = 120515.425>, fillcolor="#f8dcc8"] ;
690 -> 691 ;
692 [label=<squared_error = 0.0<br/>samples = 1<br/>value = 118209.679>, fillcolor="#f8ddca"] ;
691 -> 692 ;
693 [label=<Месяц_2 &le; 1.3<br/>squared_error = 106579.889<br/>samples = 2<br/>value = 121668.297>, fillcolor="#f8dbc7"] ;
691 -> 693 ;
694 [label=<squared_error = 0.0<br/>samples = 1<br/>value = 121341.832>, fillcolor="#f8dbc7"] ;
693 -> 694 ;
695 [label=<squared_error = 0.0<br/>samples = 1<br/>value = 121994.763>, fillcolor="#f8dbc7"] ;
693 -> 695 ;
696 [label=<squared_error = -0.0<br/>samples = 1<br/>value = 125766.044>, fillcolor="#f7d9c4"] ;
690 -> 696 ;
697 [label=<Месяц_3 &le; 1.29<br/>squared_error = 308939.133<br/>samples = 2<br/>value = 116116.849>, fillcolor="#f8decb"] ;
689 -> 697 ;
698 [label=<squared_error = 0.0<br/>samples = 1<br/>value = 115561.027>, fillcolor="#f8decc"] ;
697 -> 698 ;
699 [label=<squared_error = -0.0<br/>samples = 1<br/>value = 116672.672>, fillcolor="#f8decb"] ;
697 -> 699 ;
700 [label=<squared_error = -0.0<br/>samples = 1<br/>value = 60000.0>, fillcolor="#fefaf7"] ;
688 -> 700 ;
701 [label=<Продано квартир, шт &le; -0.757<br/>squared_error = 66939366.86<br/>samples = 14<br/>value = 130783.223>, fillcolor="#f7d7c0"] ;
687 -> 701 ;
702 [label=<Месяц_3 &le; 1.29<br/>squared_error = 64228014.022<br/>samples = 3<br/>value = 119876.543>, fillcolor="#f8dcc8"] ;
701 -> 702 ;
703 [label=<Тип дома_монолит &le; -0.76<br/>squared_error = 23182441.701<br/>samples = 2<br/>value = 124814.815>, fillcolor="#f7dac4"] ;
702 -> 703 ;
704 [label=<squared_error = 0.0<br/>samples = 1<br/>value = 129629.63>, fillcolor="#f7d7c1"] ;
703 -> 704 ;
705 [label=<squared_error = 0.0<br/>samples = 1<br/>value = 120000.0>, fillcolor="#f8dcc8"] ;
703 -> 705 ;
706 [label=<squared_error = 0.0<br/>samples = 1<br/>value = 110000.0>, fillcolor="#f9e1d0"] ;
702 -> 706 ;
707 [label=<Есть квартиры с чистовой отделкой &le; 0.103<br/>squared_error = 26388430.927<br/>samples = 11<br/>value = 133757.772>, fillcolor="#f6d5be"] ;
701 -> 707 ;
708 [label=<Месяц_9 &le; 2.3<br/>squared_error = 6669977.993<br/>samples = 9<br/>value = 131606.688>, fillcolor="#f7d6bf"] ;
707 -> 708 ;
709 [label=<Месяц_11 &le; 1.929<br/>squared_error = 4850819.054<br/>samples = 8<br/>value = 132149.613>, fillcolor="#f7d6bf"] ;
708 -> 709 ;
710 [label=<Месяц_3 &le; 1.29<br/>squared_error = 2693507.859<br/>samples = 6<br/>value = 133067.337>, fillcolor="#f6d6be"] ;
709 -> 710 ;
711 [label=<Месяц_1 &le; 1.43<br/>squared_error = 1711440.415<br/>samples = 5<br/>value = 132563.887>, fillcolor="#f7d6bf"] ;
710 -> 711 ;
712 [label=<Продано квартир, шт &le; -0.098<br/>squared_error = 730407.263<br/>samples = 4<br/>value = 132033.059>, fillcolor="#f7d6bf"] ;
711 -> 712 ;
713 [label=<Месяц_6 &le; 1.368<br/>squared_error = 196334.904<br/>samples = 2<br/>value = 131279.525>, fillcolor="#f7d7bf"] ;
712 -> 713 ;
714 [label=<squared_error = 0.0<br/>samples = 1<br/>value = 130836.428>, fillcolor="#f7d7c0"] ;
713 -> 714 ;
715 [label=<squared_error = 0.0<br/>samples = 1<br/>value = 131722.622>, fillcolor="#f7d6bf"] ;
713 -> 715 ;
716 [label=<Месяц_12 &le; 1.791<br/>squared_error = 128853.018<br/>samples = 2<br/>value = 132786.593>, fillcolor="#f7d6be"] ;
712 -> 716 ;
717 [label=<squared_error = 0.0<br/>samples = 1<br/>value = 133145.554>, fillcolor="#f6d6be"] ;
716 -> 717 ;
718 [label=<squared_error = 0.0<br/>samples = 1<br/>value = 132427.632>, fillcolor="#f7d6bf"] ;
716 -> 718 ;
719 [label=<squared_error = -0.0<br/>samples = 1<br/>value = 134687.2>, fillcolor="#f6d5bd"] ;
711 -> 719 ;
720 [label=<squared_error = -0.0<br/>samples = 1<br/>value = 135584.585>, fillcolor="#f6d4bc"] ;
710 -> 720 ;
721 [label=<Количество домов 250м &le; 0.085<br/>squared_error = 1216155.19<br/>samples = 2<br/>value = 129396.443>, fillcolor="#f7d8c1"] ;
709 -> 721 ;
722 [label=<squared_error = 0.0<br/>samples = 1<br/>value = 128293.648>, fillcolor="#f7d8c2"] ;
721 -> 722 ;
723 [label=<squared_error = -0.0<br/>samples = 1<br/>value = 130499.237>, fillcolor="#f7d7c0"] ;
721 -> 723 ;
724 [label=<squared_error = 0.0<br/>samples = 1<br/>value = 127263.29>, fillcolor="#f7d9c3"] ;
708 -> 724 ;
725 [label=<Продано нежилых, шт &le; 3.687<br/>squared_error = 599244.548<br/>samples = 2<br/>value = 143437.648>, fillcolor="#f5d1b6"] ;
707 -> 725 ;
726 [label=<squared_error = 0.0<br/>samples = 1<br/>value = 142663.539>, fillcolor="#f6d1b7"] ;
725 -> 726 ;
727 [label=<squared_error = 0.0<br/>samples = 1<br/>value = 144211.757>, fillcolor="#f5d0b6"] ;
725 -> 727 ;
728 [label=<squared_error = -0.0<br/>samples = 1<br/>value = 182604.901>, fillcolor="#f1bd98"] ;
686 -> 728 ;
729 [label=<Есть ЛЭП 100м &le; 1.38<br/>squared_error = 233911599.738<br/>samples = 168<br/>value = 152473.032>, fillcolor="#f5ccaf"] ;
685 -> 729 ;
730 [label=<Есть квартиры под ключ &le; 0.686<br/>squared_error = 128528439.28<br/>samples = 130<br/>value = 148494.885>, fillcolor="#f5ceb2"] ;
729 -> 730 ;
731 [label=<Площадь спортивных площадок &le; 0.44<br/>squared_error = 122388634.418<br/>samples = 72<br/>value = 144018.494>, fillcolor="#f5d0b6"] ;
730 -> 731 ;
732 [label=<Продано квартир, шт &le; -0.198<br/>squared_error = 87331965.493<br/>samples = 63<br/>value = 145661.132>, fillcolor="#f5d0b4"] ;
731 -> 732 ;
733 [label=<Вспомогательный материал фасада_стекло &le; 0.537<br/>squared_error = 119556486.75<br/>samples = 32<br/>value = 149665.278>, fillcolor="#f5ceb1"] ;
732 -> 733 ;
734 [label=<Месяц_5 &le; 1.443<br/>squared_error = 103635316.609<br/>samples = 15<br/>value = 144996.643>, fillcolor="#f5d0b5"] ;
733 -> 734 ;
735 [label=<Месяц_2 &le; 1.3<br/>squared_error = 37530073.331<br/>samples = 13<br/>value = 141844.146>, fillcolor="#f6d1b7"] ;
734 -> 735 ;
736 [label=<Месяц_1 &le; 1.43<br/>squared_error = 20764992.15<br/>samples = 12<br/>value = 143081.158>, fillcolor="#f5d1b6"] ;
735 -> 736 ;
737 [label=<Инфраструктура: Медицина &le; -0.044<br/>squared_error = 10831122.709<br/>samples = 11<br/>value = 142088.619>, fillcolor="#f6d1b7"] ;
736 -> 737 ;
738 [label=<Месяц_7 &le; 1.322<br/>squared_error = 4462380.708<br/>samples = 6<br/>value = 144066.269>, fillcolor="#f5d0b6"] ;
737 -> 738 ;
739 [label=<Грузовых лифтов в доме &le; -0.399<br/>squared_error = 19404.495<br/>samples = 4<br/>value = 145089.278>, fillcolor="#f5d0b5"] ;
738 -> 739 ;
740 [label=<Станции электропоезда 1000м &le; 1.022<br/>squared_error = 166.048<br/>samples = 3<br/>value = 145009.112>, fillcolor="#f5d0b5"] ;
739 -> 740 ;
741 [label=<squared_error = 0.0<br/>samples = 2<br/>value = 145000.0>, fillcolor="#f5d0b5"] ;
740 -> 741 ;
742 [label=<squared_error = 0.0<br/>samples = 1<br/>value = 145027.335>, fillcolor="#f5d0b5"] ;
740 -> 742 ;
743 [label=<squared_error = -0.0<br/>samples = 1<br/>value = 145329.777>, fillcolor="#f5d0b5"] ;
739 -> 743 ;
744 [label=<Группа компаний_новый дом &le; 1.392<br/>squared_error = 7069048.901<br/>samples = 2<br/>value = 142020.251>, fillcolor="#f6d1b7"] ;
738 -> 744 ;
745 [label=<squared_error = 0.0<br/>samples = 1<br/>value = 144679.02>, fillcolor="#f5d0b5"] ;
744 -> 745 ;
746 [label=<squared_error = 0.0<br/>samples = 1<br/>value = 139361.483>, fillcolor="#f6d3b9"] ;
744 -> 746 ;
747 [label=<Месяц_11 &le; 1.929<br/>squared_error = 8148309.421<br/>samples = 5<br/>value = 139715.439>, fillcolor="#f6d2b9"] ;
737 -> 747 ;
748 [label=<Есть квартиры с чистовой отделкой &le; 0.103<br/>squared_error = 3315727.627<br/>samples = 4<br/>value = 140887.587>, fillcolor="#f6d2b8"] ;
747 -> 748 ;
749 [label=<Есть велопарковка &le; 0.076<br/>squared_error = 589017.708<br/>samples = 2<br/>value = 139232.525>, fillcolor="#f6d3b9"] ;
748 -> 749 ;
750 [label=<squared_error = 0.0<br/>samples = 1<br/>value = 138465.05>, fillcolor="#f6d3ba"] ;
749 -> 750 ;
751 [label=<squared_error = 0.0<br/>samples = 1<br/>value = 140000.0>, fillcolor="#f6d2b9"] ;
749 -> 751 ;
752 [label=<Самая высокая точка 250м &le; 1.139<br/>squared_error = 563975.399<br/>samples = 2<br/>value = 142542.65>, fillcolor="#f6d1b7"] ;
748 -> 752 ;
753 [label=<squared_error = 0.0<br/>samples = 1<br/>value = 143293.633>, fillcolor="#f5d1b6"] ;
752 -> 753 ;
754 [label=<squared_error = 0.0<br/>samples = 1<br/>value = 141791.667>, fillcolor="#f6d1b7"] ;
752 -> 754 ;
755 [label=<squared_error = -0.0<br/>samples = 1<br/>value = 135026.845>, fillcolor="#f6d5bd"] ;
747 -> 755 ;
756 [label=<squared_error = -0.0<br/>samples = 1<br/>value = 153999.083>, fillcolor="#f4cbae"] ;
736 -> 756 ;
757 [label=<squared_error = 0.0<br/>samples = 1<br/>value = 127000.0>, fillcolor="#f7d9c3"] ;
735 -> 757 ;
758 [label=<Район_вторая речка &le; 1.248<br/>squared_error = 48830359.846<br/>samples = 2<br/>value = 165487.872>, fillcolor="#f3c6a5"] ;
734 -> 758 ;
759 [label=<squared_error = 0.0<br/>samples = 1<br/>value = 158500.0>, fillcolor="#f4c9aa"] ;
758 -> 759 ;
760 [label=<squared_error = -0.0<br/>samples = 1<br/>value = 172475.745>, fillcolor="#f2c2a0"] ;
758 -> 760 ;
761 [label=<Месяц_4 &le; 1.3<br/>squared_error = 97403351.918<br/>samples = 17<br/>value = 153784.662>, fillcolor="#f4ccae"] ;
733 -> 761 ;
762 [label=<Месяц_1 &le; 1.43<br/>squared_error = 64016670.804<br/>samples = 15<br/>value = 151519.448>, fillcolor="#f5cdb0"] ;
761 -> 762 ;
763 [label=<Инфраструктура: Детские сады &le; 0.79<br/>squared_error = 58533379.161<br/>samples = 14<br/>value = 150700.672>, fillcolor="#f5cdb1"] ;
762 -> 763 ;
764 [label=<Месяц_2 &le; 1.3<br/>squared_error = 23100413.109<br/>samples = 5<br/>value = 153288.429>, fillcolor="#f4ccaf"] ;
763 -> 764 ;
765 [label=<Продано нежилых, м2 &le; 0.977<br/>squared_error = 11508236.007<br/>samples = 4<br/>value = 151424.708>, fillcolor="#f5cdb0"] ;
764 -> 765 ;
766 [label=<Продано квартир, шт &le; -0.452<br/>squared_error = 4969728.027<br/>samples = 3<br/>value = 153035.188>, fillcolor="#f4ccaf"] ;
765 -> 766 ;
767 [label=<Месяц_7 &le; 1.322<br/>squared_error = 131413.571<br/>samples = 2<br/>value = 151472.799>, fillcolor="#f5cdb0"] ;
766 -> 767 ;
768 [label=<squared_error = 0.0<br/>samples = 1<br/>value = 151835.309>, fillcolor="#f5ccb0"] ;
767 -> 768 ;
769 [label=<squared_error = 0.0<br/>samples = 1<br/>value = 151110.289>, fillcolor="#f5cdb0"] ;
767 -> 769 ;
770 [label=<squared_error = -0.0<br/>samples = 1<br/>value = 156159.966>, fillcolor="#f4caac"] ;
766 -> 770 ;
771 [label=<squared_error = 0.0<br/>samples = 1<br/>value = 146593.267>, fillcolor="#f5cfb4"] ;
765 -> 771 ;
